//Numpy array shape [2, 8, 8]
//Min -1.323255777359
//Max 0.896610260010
//Number of zeros 0

#ifndef W15_H_
#define W15_H_

#ifdef __INTELFPGA_COMPILER__
hls_init_on_powerup
#endif
static conv1d6_weight_t w15[128] = {0.29106, 0.48535, 0.26066, 0.08859, 0.02240, -0.19914, -0.41381, 0.10775, -0.54592, -0.61120, 0.17174, -0.52744, 0.15631, -0.13850, 0.58148, 0.27879, -0.45499, 0.29438, -0.79534, -0.05781, 0.58484, -0.31250, 0.89661, -0.38039, -0.37819, 0.33262, 0.20297, 0.53878, -0.29772, 0.37112, -0.22421, -0.50933, 0.53295, -0.19432, 0.31992, -0.05372, 0.54618, -0.11368, 0.28616, -0.50301, 0.26057, 0.38727, 0.21108, -0.00714, -0.36911, -0.10900, -0.06162, -0.27975, -0.22107, 0.08100, -0.19727, -0.17224, 0.46919, -0.01474, -0.54080, 0.60444, -0.46725, -0.23299, -0.70581, 0.66529, -0.66915, 0.55498, 0.26397, -0.74677, -0.17069, 0.07984, -0.43624, -0.29564, -0.48300, -0.05917, -0.49222, 0.15242, 0.06322, -0.85218, 0.26671, 0.41301, -0.03179, 0.32969, -0.10425, -0.18917, -0.12944, 0.29419, 0.59108, 0.04994, 0.34623, -0.28131, -0.01511, -0.49702, 0.62495, 0.17826, 0.13857, -0.09299, -0.30151, -0.05640, 0.08355, -0.27908, 0.18737, -0.58914, 0.70156, -0.02682, -0.50879, -0.60841, -0.15692, -0.45354, 0.16975, 0.04617, 0.09406, 0.21921, -0.24177, -0.09984, -0.77447, 0.08337, -0.19219, 0.47785, 0.37826, -0.37515, 0.13430, -0.20625, 0.64642, -1.32326, -0.54619, -0.59218, -0.49245, -0.49000, -0.42606, 0.07780, -0.33873, -0.16234};

#endif
