//Numpy array shape [2, 14, 6]
//Min -1.046186923981
//Max 0.808609008789
//Number of zeros 0

#ifndef W20_H_
#define W20_H_

#ifdef __INTELFPGA_COMPILER__
hls_init_on_powerup
#endif
static conv1d13_weight_t w20[168] = {-0.53426, -0.50146, 0.40927, -0.16104, -0.28746, 0.20684, 0.32450, -0.48191, -0.20406, 0.30309, -0.03019, -0.22410, 0.06129, -0.53287, 0.80861, 0.52378, -0.23820, 0.28624, 0.04134, 0.21359, 0.04686, 0.36403, -0.08827, 0.03452, -0.25640, 0.27830, 0.18644, 0.23488, -0.07457, -0.28782, -0.04072, 0.08505, -0.88149, 0.23220, 0.26682, -0.37544, -0.62675, 0.05121, -0.14325, -0.08054, -0.02343, -0.31660, 0.42008, 0.68370, 0.14474, 0.18460, 0.13813, 0.26527, -0.09453, -0.18491, -0.37597, -0.13011, -0.10051, 0.14751, 0.23049, 0.11828, 0.63567, 0.49126, 0.05321, -0.49349, 0.12803, -0.07477, 0.66348, -0.70155, -0.26185, -0.14906, -0.18906, -0.28619, -0.17163, -1.04619, -0.40459, -0.55409, 0.11478, 0.22000, -0.65312, 0.57016, -0.45120, 0.39250, 0.07234, -0.01686, 0.18175, -0.05579, -0.17820, 0.30718, -0.30099, 0.26549, -0.30332, -0.10336, -0.22953, -0.37947, 0.23978, 0.25270, -0.31106, 0.08541, -0.52358, -0.75712, 0.27376, -0.05749, -0.44193, -0.01418, -0.68792, 0.14236, 0.28407, 0.05092, -0.26222, -0.83185, -0.03099, -0.33740, -0.35206, -0.56155, -0.21074, -0.43279, -0.14863, -0.39317, 0.23674, -0.25723, -0.29801, -0.57005, -0.20658, -0.13336, -0.30800, -0.01207, -0.55251, -0.31282, -0.25697, -0.27111, 0.36091, -0.29856, -0.11389, 0.72117, -0.06722, -0.23232, -0.53740, 0.01974, -0.03128, -0.04303, -0.74020, -0.51962, 0.03635, 0.40256, -0.06882, -0.61412, 0.45667, 0.72547, -0.42369, 0.19759, 0.65732, 0.08301, -0.07605, -0.09001, 0.02998, 0.04303, 0.00777, 0.34578, 0.43335, 0.51881, -0.07510, -0.48365, -0.06076, 0.54688, -0.26087, -0.02444, -0.02669, -0.33904, -0.12575, -0.02186, -0.07152, 0.14154};

#endif
