//Numpy array shape [2, 6, 8]
//Min -1.102447390556
//Max 1.017570495605
//Number of zeros 0

#ifndef W13_H_
#define W13_H_

#ifdef __INTELFPGA_COMPILER__
hls_init_on_powerup
#endif
static conv1d5_weight_t w13[96] = {0.51818, 0.09257, -0.64276, -0.16571, -0.77256, 0.29004, -0.09654, 0.26266, -0.36159, 0.39281, 0.30534, 0.23220, 0.19301, -0.60779, -0.31821, 0.01444, 0.13812, -0.11649, 0.27599, -0.42303, 0.70818, 1.01757, -0.07028, 0.55812, 0.24268, -0.24747, -0.06092, -0.29730, -0.80033, -0.48330, -0.32691, -0.33459, 0.22958, -0.07203, -0.58068, 0.26653, -0.88197, 0.01806, 0.11154, -0.16338, -0.20264, -0.18036, -0.13746, 0.04617, -0.53367, 0.43691, -0.80856, -0.23734, -0.02492, 0.44238, 0.49551, -0.35507, -0.13749, -0.15106, 0.16999, -0.58391, -0.55269, -0.51584, 0.66025, -0.40617, -0.02001, -0.01432, -0.89115, -0.05759, -0.59072, -0.26057, -0.19727, 0.21521, -0.92301, 0.16870, 0.04105, 0.47477, -0.03521, -0.19637, 0.95220, -0.04196, 0.10733, -0.13628, 0.11735, 0.12808, -0.85654, -0.31428, 0.41462, 0.17038, 0.87493, 0.03243, -0.42829, 0.00381, -0.72688, -1.10245, 0.02066, -0.59087, 0.22580, -0.71544, -0.59515, -0.06566};

#endif
