//Numpy array shape [2, 6, 8]
//Min -1.899550795555
//Max 0.965497493744
//Number of zeros 0

#ifndef W12_H_
#define W12_H_

#ifdef __INTELFPGA_COMPILER__
hls_init_on_powerup
#endif
static const conv1d5_weight_t w12[96] = {0.051863, -0.923298, 0.606634, -0.161172, 0.965497, -0.117388, 0.597324, 0.311497, 0.468449, -0.819772, -0.106931, -0.108150, 0.370387, -0.431078, -0.550225, -0.268935, 0.552417, 0.299130, 0.422837, 0.691743, 0.370371, 0.209753, 0.082422, -0.399453, -0.406809, -1.041018, -0.200016, -0.503078, 0.075605, -0.172825, 0.005736, -0.064628, -0.207766, 0.486892, 0.080773, 0.713805, 0.360411, -0.708182, -0.114597, -0.798192, 0.426649, 0.450770, 0.078180, -0.272998, 0.037293, -0.040586, 0.770351, -0.850671, 0.112669, -0.849981, 0.274458, 0.043739, 0.510642, 0.195076, -0.258033, -0.372217, -0.491775, 0.235181, -0.858119, 0.253355, -0.295155, 0.429532, -0.361180, 0.042301, -0.004331, 0.128382, 0.058332, -0.093828, 0.029477, 0.733336, 0.311579, 0.350245, -0.203226, 0.063674, -0.502500, 0.300964, -0.055357, 0.070698, -0.802552, -0.589918, -1.899551, 0.539938, -0.469767, -1.284883, -0.134006, -0.800787, -0.212423, -0.332987, -0.638018, -0.483404, -0.714878, 0.437727, 0.462488, -0.260880, 0.235300, 0.087618};

#endif
