//Numpy array shape [2, 14, 6]
//Min -1.436438083649
//Max 1.322803258896
//Number of zeros 0

#ifndef W19_H_
#define W19_H_

#ifdef __INTELFPGA_COMPILER__
hls_init_on_powerup
#endif
static const conv1d13_weight_t w19[168] = {-0.059454, -0.228642, -0.393797, -0.049100, -0.236522, -1.323509, -0.244082, -0.194130, 0.517609, -0.096312, -0.318629, 0.651521, 0.198383, 0.782985, -0.344330, -0.011365, -0.509347, -0.025485, 0.276474, -0.058280, -0.019788, 0.221767, 0.932339, 0.192635, -0.772984, 0.374761, 0.365968, -0.436452, -0.525377, -0.320209, -0.538055, 0.352648, 0.147699, -0.609745, 0.433262, -0.097648, -0.219551, -0.822395, 0.253876, -0.476292, -0.862882, -0.010535, 0.158657, -0.409462, -1.436438, -0.068743, 0.078437, 0.057049, 0.597543, 0.389383, -0.548787, -0.137934, 0.010580, -0.304733, -0.165860, -0.150060, 0.133198, -0.103141, 0.141373, -0.191586, -0.091002, 0.050233, -0.522834, 0.395277, -0.499513, -0.565397, -0.072218, 0.118591, 0.269995, 0.066775, -0.497566, -0.551191, 0.086744, -0.077119, 0.060305, -0.668683, 0.354755, 0.570179, -0.533549, 0.292076, 0.280388, -0.200775, -0.392776, 0.061770, -0.139595, 1.322803, -0.728551, 0.086749, 0.043069, -0.484786, 0.252343, 0.006097, -0.560904, 0.054062, 0.011665, 0.041219, -0.178673, -0.237084, -1.007191, -0.053369, 0.198987, -0.494313, 0.614067, -0.198855, -0.300086, 0.303895, -0.606455, 0.279530, -0.041987, 0.428945, 0.356396, 0.409388, 0.324159, -0.202299, 0.165056, -0.250220, 0.395330, 0.067830, 0.140970, 0.296608, -0.090884, 0.291937, -1.037825, -0.351379, -0.173544, 0.120676, 0.355818, 0.095253, 0.264495, -0.210909, 0.304015, 0.163723, -0.159955, 0.121267, 0.196758, 0.030402, 0.165121, 0.181048, 0.001671, 0.106682, 0.220150, -1.239681, -1.366632, -0.234883, -0.163654, 0.003316, -0.074381, -0.071754, -0.042442, 0.382739, -0.760467, -0.094046, -0.363550, -0.177116, 0.044059, 0.737831, -0.077145, -1.124332, -0.178701, 0.281854, 0.441477, 0.443113, 0.263915, 0.045568, -0.006319, -0.578469, -0.485360, -1.072138};

#endif
