//Numpy array shape [518]
//Min -0.165798947215
//Max 0.127118363976
//Number of zeros 0

#ifndef B31_H_
#define B31_H_

#ifdef __INTELFPGA_COMPILER__
hls_init_on_powerup
#endif
static const model_default_t b31[518] = {-0.067991, 0.067785, -0.070607, 0.097226, -0.012920, 0.072605, -0.027268, 0.088005, -0.010108, 0.059067, -0.029818, 0.061189, -0.096957, 0.127118, -0.009087, 0.068960, -0.034821, 0.078157, -0.024293, 0.069420, -0.165799, 0.089995, -0.054577, 0.086467, -0.021885, 0.079369, 0.012670, 0.056250, -0.045265, 0.068557, -0.020435, 0.073248, -0.029921, 0.075152, -0.070009, 0.059564, -0.003555, 0.084519, -0.011280, 0.080774, -0.092860, 0.085997, -0.088873, 0.088408, -0.019535, 0.080234, -0.016810, 0.071144, -0.041752, 0.078551, 0.003197, 0.069278, -0.021447, 0.082118, -0.007329, 0.042469, -0.091800, 0.066431, 0.009046, 0.081540, -0.041083, 0.082536, -0.011839, 0.049997, -0.062276, 0.061920, -0.069069, 0.098717, -0.017588, 0.076689, -0.016565, 0.054882, -0.024541, 0.073205, -0.079513, 0.081408, -0.057506, 0.078897, -0.018096, 0.101750, -0.055346, 0.080325, -0.101177, 0.081961, -0.030517, 0.058183, -0.063183, 0.067251, -0.002456, 0.069426, -0.001050, 0.057139, -0.018938, 0.070087, -0.054234, 0.092383, -0.072633, 0.070951, -0.019140, 0.080151, -0.045668, 0.082569, -0.041970, 0.110298, -0.031009, 0.072427, -0.075742, 0.049602, -0.082371, 0.050607, -0.013578, 0.066007, 0.002873, 0.049677, -0.118072, 0.054787, -0.086243, 0.064664, -0.050046, 0.051300, -0.078865, 0.093469, 0.003246, 0.037179, -0.020987, 0.057791, -0.047476, 0.072817, -0.096654, 0.097874, -0.025376, 0.067838, -0.013438, 0.055485, -0.054730, 0.079390, -0.025473, 0.053401, 0.005847, 0.086629, -0.033423, 0.051542, -0.006222, 0.102497, -0.057003, 0.073456, -0.012030, 0.051072, -0.027637, 0.092880, -0.096916, 0.058196, -0.009083, 0.075155, -0.041384, 0.079464, -0.085323, 0.091669, -0.017298, 0.064292, -0.064168, 0.064459, -0.010119, 0.062695, -0.015796, 0.085595, -0.029413, 0.080418, -0.016646, 0.077958, 0.006218, 0.059574, -0.058569, 0.066829, -0.053671, 0.076366, -0.036397, 0.081255, -0.001931, 0.092744, -0.038950, 0.100535, -0.058145, 0.081220, 0.014188, 0.112216, -0.038282, 0.069270, -0.030125, 0.044937, 0.001575, 0.060942, -0.016604, 0.075273, -0.018150, 0.083919, -0.073435, 0.115942, -0.019186, 0.048274, -0.029989, 0.036300, 0.005550, 0.067287, -0.103286, 0.063913, -0.011433, 0.061015, -0.016570, 0.099488, -0.010841, 0.085956, -0.015328, 0.099415, -0.059248, 0.069912, -0.073735, 0.072359, -0.065183, 0.035025, -0.029993, 0.062864, -0.013942, 0.106480, -0.047567, 0.075697, -0.021057, 0.058596, -0.030761, 0.064449, -0.007532, 0.067231, -0.034715, 0.083469, -0.027691, 0.073462, -0.081658, 0.077565, -0.000917, 0.069645, 0.007548, 0.087645, -0.103921, 0.071830, 0.001370, 0.056441, -0.026155, 0.092137, -0.080330, 0.073240, -0.075948, 0.040658, -0.090123, 0.055517, -0.097043, 0.057195, -0.019968, 0.052098, -0.037424, 0.043640, -0.023633, 0.069866, -0.063910, 0.082136, -0.048268, 0.050566, 0.001086, 0.085060, -0.064886, 0.076703, -0.011491, 0.069062, -0.054236, 0.081313, -0.034767, 0.074587, -0.010191, 0.058059, -0.077863, 0.077026, -0.009322, 0.085838, -0.038490, 0.076405, -0.100605, 0.076555, 0.000403, 0.046634, -0.007384, 0.065796, -0.009100, 0.097719, -0.035857, 0.072409, -0.042822, 0.091885, 0.003930, 0.080276, -0.006727, 0.067507, -0.025368, 0.089389, -0.037473, 0.095620, -0.082901, 0.037532, -0.071561, 0.062855, -0.027888, 0.078611, -0.062255, 0.067639, -0.104947, 0.072710, 0.009152, 0.071308, -0.027076, 0.112236, -0.134794, 0.085764, -0.016023, 0.082494, -0.003684, 0.059043, -0.017442, 0.069509, -0.016319, 0.059705, -0.040838, 0.072566, -0.014773, 0.047839, -0.035834, 0.086329, -0.019137, 0.058778, -0.011737, 0.093582, -0.034512, 0.077387, -0.008252, 0.064843, -0.022371, 0.064072, -0.012577, 0.062960, -0.015797, 0.073420, -0.056354, 0.074091, -0.036952, 0.079334, -0.142270, 0.080468, -0.003199, 0.069159, -0.007816, 0.079354, -0.022872, 0.089268, -0.013625, 0.076533, -0.042623, 0.095924, -0.064766, 0.083892, -0.018092, 0.070967, -0.004613, 0.061583, -0.030740, 0.080251, -0.071069, 0.055135, -0.040893, 0.069587, -0.125422, 0.089169, -0.011066, 0.082630, -0.115361, 0.100777, -0.054892, 0.076105, -0.077586, 0.066997, -0.032570, 0.061033, -0.084336, 0.058087, -0.035846, 0.074342, -0.052911, 0.070487, -0.014328, 0.037114, -0.057387, 0.066973, -0.062974, 0.051871, -0.032257, 0.106022, -0.045204, 0.074708, -0.033713, 0.049571, -0.023374, 0.056761, -0.023381, 0.078468, -0.004270, 0.052128, -0.103861, 0.065877, -0.002685, 0.073096, -0.001364, 0.061535, 0.007344, 0.064574, -0.016865, 0.072033, -0.114977, 0.060466, -0.049011, 0.067274, -0.041089, 0.068044, -0.020738, 0.077593, -0.036338, 0.096674, -0.050256, 0.070369, -0.003346, 0.071765, -0.016585, 0.071790, -0.075296, 0.059752, -0.023137, 0.060060, -0.023740, 0.059483, -0.040395, 0.060844, -0.004416, 0.057911, 0.000407, 0.075404, -0.028160, 0.070660, -0.062943, 0.062323, -0.068571, 0.047167, -0.019137, 0.036823, -0.101990, 0.088083, -0.075203, 0.059407, -0.069275, 0.110998, -0.031859, 0.072545, -0.039138, 0.061295, -0.005793, 0.069967, -0.059203, 0.097617, -0.017497, 0.048443, -0.006753, 0.062221, -0.027833, 0.058006, -0.089927, 0.066871, -0.046223, 0.072165, -0.044780, 0.120407, -0.131105, 0.089649, -0.026668, 0.070550, 0.012844, 0.040776, -0.044572, 0.070502, -0.019213, 0.061448, -0.044753, 0.083935, -0.088389, 0.086169, -0.071386, 0.099193, -0.002571, 0.073470, 0.012062, 0.100786, -0.011325, 0.080616, -0.012141, 0.067915, -0.015006, 0.088928, -0.025645, 0.065679, -0.061288, 0.061731, -0.027106, 0.041423, -0.042733, 0.082925};

#endif
