//Numpy array shape [2, 8, 8]
//Min -1.608584284782
//Max 1.181265950203
//Number of zeros 0

#ifndef W14_H_
#define W14_H_

#ifdef __INTELFPGA_COMPILER__
hls_init_on_powerup
#endif
static const model_default_t w14[128] = {0.285826, 0.401322, -0.047240, 0.782457, 0.049252, 0.243844, -0.695685, 0.259040, -0.167334, -0.534672, -0.906494, -0.271501, 0.289855, 0.154331, 0.189502, -0.657081, 0.542411, 0.690279, -0.342699, 0.178047, 0.500682, 0.112366, -0.401992, -0.515608, 0.210763, -0.005579, -0.221643, -0.207516, -0.376286, -0.779297, -1.144034, -0.127879, 0.127718, -0.431421, -0.189315, 0.215122, 0.277899, 0.102278, 0.257342, 0.147213, -1.608584, -0.299766, 0.049480, 0.093038, -0.774620, -0.659636, 0.500068, -0.095610, 0.720252, 0.044509, -0.033774, 0.610222, 0.555958, 0.467162, -0.151070, 1.181266, -0.011544, 0.295154, -0.199172, 0.602482, 0.136758, -0.181243, 0.784785, 0.012512, -0.642181, 0.317115, -0.104385, -0.417016, 0.675227, 0.256702, -0.043662, -0.469585, -0.226464, 0.330127, -0.550958, -0.141177, -0.369008, -0.733717, -0.702767, 0.227435, 0.196920, -0.639125, -0.731056, -0.833543, 0.608509, 0.030229, 0.195329, 0.033508, -0.497726, -0.018569, -0.763586, -0.813286, -0.250393, -0.116183, 1.158635, 0.765342, -0.292527, 0.155278, 0.565631, 0.334166, -0.182470, -0.676675, 0.870644, -0.217286, 0.602725, 0.456684, -0.600948, 0.265384, -0.302117, 0.089966, -1.065598, -0.264378, -0.024180, -0.222428, 0.303519, -0.191699, 0.917273, -0.213096, 0.608696, -0.277363, 0.085065, 0.251871, 0.369927, -0.613521, -0.823662, 0.079143, -0.140826, -0.729169};

#endif
