//Numpy array shape [2, 10, 4]
//Min -1.410098314285
//Max 1.020935177803
//Number of zeros 0

#ifndef W26_H_
#define W26_H_

#ifdef __INTELFPGA_COMPILER__
hls_init_on_powerup
#endif
static const model_default_t w26[80] = {-0.167465, -0.640515, 0.137035, -0.144904, -0.548460, 0.226202, 0.586579, 0.615949, 0.446172, 0.174417, 0.328603, -0.760737, -0.382599, -0.301382, 0.965200, -0.429013, -0.470498, -0.539091, -0.025671, 0.313845, 0.190585, -0.428857, 0.270062, 0.116848, 0.175741, -1.282085, -0.054685, 0.560214, 0.376306, -0.311065, -0.096029, 0.771212, 0.683772, -0.577362, 0.169671, -0.334677, 0.151886, -0.469834, 0.474302, -1.188497, 0.058204, 0.149656, -0.272108, 0.621631, -0.266978, -0.336112, 0.100774, -0.188432, -0.447804, -0.417356, -0.110353, -0.215764, -0.069075, 0.066683, -0.035415, -0.046915, -0.016409, 0.060499, 0.125361, -0.092624, -1.410098, -0.003700, 0.346253, -0.530794, -0.248993, -0.509912, 0.022242, -0.559746, 0.204648, -0.090301, 1.020935, -0.325556, -0.773850, -0.770887, -0.028070, -0.222773, -0.218820, -0.120081, -0.323897, -0.322884};

#endif
