//Numpy array shape [56]
//Min -0.363620400429
//Max 0.162410199642
//Number of zeros 11

#ifndef B2_H_
#define B2_H_

#ifdef __INTELFPGA_COMPILER__
//hls_init_on_powerup
#endif
static model_default_t b2[56] = {-0.3636204004288, 0.0000000000000, -0.0577742159367, 0.0451105237007, -0.1703855097294, -0.1475946903229, 0.0000000000000, -0.1399363279343, -0.0087781427428, -0.1040378808975, -0.0873827636242, -0.2742771506310, -0.0245365574956, -0.0888455510139, -0.1088321059942, -0.2703666090965, -0.0003667686251, 0.0000000000000, -0.1300247311592, 0.0000000000000, -0.0124093517661, -0.0736611634493, -0.2008859813213, -0.1020955815911, 0.0000000000000, -0.0749879628420, 0.1111151874065, -0.0594951733947, -0.0287062041461, 0.0000000000000, 0.1624101996422, -0.0460702702403, -0.0547434538603, 0.0000000000000, 0.0000000000000, -0.2002219259739, 0.0000000000000, 0.1254162639380, -0.1781628727913, -0.0712235718966, 0.0658903270960, -0.0098562221974, -0.1516975164413, -0.1153079271317, -0.1030977070332, -0.0833634436131, -0.0758065581322, 0.0000000000000, 0.0000000000000, -0.0920006930828, -0.0833243355155, -0.0894872546196, -0.1312522292137, -0.0398520901799, -0.0835180282593, -0.1211371272802};

#endif
