//Numpy array shape [56]
//Min -0.455617904663
//Max 0.147276148200
//Number of zeros 0

#ifndef B6_H_
#define B6_H_

#ifdef __INTELFPGA_COMPILER__
//hls_init_on_powerup
#endif
static model_default_t b6[56] = {-0.1192434430122, -0.0892663896084, -0.3122054934502, -0.0599092394114, 0.1400590389967, -0.0757594108582, -0.1018890589476, 0.0322680883110, -0.1197431832552, -0.2768355011940, -0.0649416744709, -0.0549929738045, -0.3728339076042, -0.1252109110355, -0.2476184070110, -0.1085113435984, -0.0599948391318, -0.1823284924030, -0.1500596106052, 0.1148176565766, -0.1839244663715, -0.3195535540581, -0.0878054797649, -0.0754861235619, -0.0753077715635, -0.1739722490311, -0.0600075796247, 0.0228711701930, -0.2039893269539, -0.0739565044641, 0.0303100049496, -0.2499107420444, 0.0228430256248, 0.0581491440535, -0.2779542207718, -0.0734047144651, -0.1092430055141, -0.0482213571668, -0.0629745423794, -0.0779191777110, -0.0745906680822, -0.1264201402664, 0.1472761482000, -0.2005601227283, -0.3390330076218, -0.0656499117613, -0.2294234931469, 0.0812119543552, -0.0521631240845, -0.0745496600866, -0.0790157020092, -0.0412742421031, -0.0776259601116, -0.2700492739677, -0.0734374821186, -0.4556179046631};

#endif
