//Numpy array shape [5, 56]
//Min -4.302480697632
//Max 1.400611042976
//Number of zeros 0

#ifndef W2_H_
#define W2_H_

#ifdef __INTELFPGA_COMPILER__
//hls_init_on_powerup
#endif
static model_default_t w2[280] = {-0.5108958482742, -0.1872065961361, -0.4304675459862, -0.1561212539673, -0.3424227237701, -0.1322777271271, -0.1947903335094, -0.1927765011787, -0.2221724390984, 0.1329954862595, 0.0810918360949, -0.2693020701408, -0.1241790354252, 0.1531314551830, 0.0830788016319, -0.4300980865955, -0.2061296850443, 0.5807805061340, -2.7263154983521, -2.1430525779724, -0.3489504456520, -0.1624591350555, -0.1558468937874, 0.1145408153534, 0.2311278879642, -0.1822236776352, 0.0674329549074, -0.2451834380627, 0.2491897046566, 0.0067097814754, -0.2032054066658, -0.2003985345364, 0.1423364877701, -0.2282575368881, 0.0969515740871, -0.9625860452652, 0.5874239206314, 0.1709215342999, -0.1677355766296, 0.0830313414335, -0.1429668813944, 0.2587735652924, 0.0916778594255, -0.7346338629723, -4.3024806976318, -0.9680882692337, 0.3011574745178, 0.0763049125671, -0.1910985410213, 0.0949115157127, -0.2473898231983, -0.2299769818783, -0.0945585072041, 0.0756240785122, 0.1771161854267, -1.2755007743835, 0.7819654941559, -0.3372788131237, 0.1012716516852, 0.3214004635811, -0.2830241322517, -0.1660783886909, -0.2979471087456, 0.2893229722977, 0.0725749880075, 0.1378435194492, -0.1904670894146, -0.1010446250439, 0.1314332187176, 0.0513350889087, -0.3583831787109, -0.0546740069985, 0.0941297262907, -0.0415030121803, -0.1965164840221, -0.4079024791718, 0.1668022572994, -0.0241769105196, 0.6222081184387, -0.4798244833946, 0.6061931848526, -0.4419443011284, 0.0425283163786, -0.3104218840599, 0.2949208021164, -0.0726254731417, -0.1773925721645, -0.1427095234394, -0.2595491409302, -0.2449566721916, -0.1497180163860, 0.1413773894310, 0.0361045002937, 0.2593344449997, -0.3883259892464, 0.0002090632915, -0.2712682485580, -0.2425418496132, -0.2256542742252, -0.2824851274490, 0.4185501933098, -0.4409324526787, 0.1122898161411, -0.2541570663452, 0.1845557093620, -0.2705290913582, 0.0909522771835, 0.0687725096941, -0.0628536939621, -0.0893878638744, -0.7485138177872, 0.4963775873184, 0.2422594130039, 0.2347958087921, -0.3776936531067, -1.1102986335754, 0.7022261619568, 0.0429082661867, 0.1327275037766, -0.0680952072144, 0.0293806493282, -0.0240865945816, -0.0518966317177, -0.0578442215919, -0.0381328761578, 0.2043271064758, -0.0192152820528, 0.0375170037150, -0.1793874800205, 0.0776742249727, 0.3448970913887, -0.4562348723412, 0.1214229315519, -0.7299797534943, 0.8135806322098, -0.0904244482517, 0.0083005987108, -0.2981023192406, -0.1126797646284, 0.1332750320435, -0.1527250707150, -0.2742326855659, 0.1981701552868, -0.1414189338684, -0.2872452139854, -0.2747070789337, -0.0473804175854, -0.1983527839184, -0.2475837171078, -0.0562676191330, 0.9954827427864, -0.7098153233528, 0.2472028434277, -0.1348606348038, 0.0357378162444, -0.2848396301270, -0.1477034986019, 0.0860333889723, 0.1773144304752, -0.3272460103035, 0.1618152260780, 0.0597074627876, -0.2562683820724, -0.0784380435944, 0.2192809879780, -0.2654360532761, 0.0839440226555, -0.2293274104595, 0.2482047080994, -0.1199634969234, 0.0262171924114, -0.1768013238907, 0.0951498746872, -0.3005060553551, -0.2351540327072, -0.8273209333420, 0.6657567024231, -0.0015790109755, 0.1753023862839, 0.0108778132126, -0.0849249809980, -0.2393567562103, -0.2708889842033, 0.1010387837887, 0.1828387379646, -0.0455032512546, 0.2709735035896, 0.0492556281388, -2.1958980560303, 0.8312124013901, -0.5107243061066, 0.6806550025940, -0.1173022687435, 0.4072787761688, -0.2181752026081, -0.3012872338295, 0.1912549138069, -0.1543089449406, 0.0244277901947, 0.0721903443336, 1.4006110429764, -0.7091463208199, 0.1126810088754, 0.3665661811829, -0.3212248980999, 0.6219062805176, -0.4336746931076, 0.0451705977321, -0.1230135709047, 0.0942702442408, -0.5945318937302, 0.1397466063499, -0.2510615587234, 0.5954867601395, 0.0584083050489, -0.0176703222096, -0.0962018370628, 0.1757591366768, -0.4189173579216, 0.2721744775772, -0.0837447196245, 0.1867476403713, 0.0274997092783, -1.2050368785858, -1.1018409729004, 0.0877674371004, 0.0082159247249, -0.0942665785551, -0.0019811680540, 0.0798957496881, -0.3438854217529, -0.0276343859732, -0.2062699198723, -0.0561288073659, 0.1319604218006, -0.1390436589718, -0.2147911787033, -0.1671148240566, -0.2430820167065, 0.0928523838520, -0.2112123370171, 0.1451507508755, -0.1717337369919, -0.2665678262711, 0.0463058352470, -0.2284764051437, 0.0268778242171, 0.0712088793516, -0.0697214752436, 0.0822090506554, -0.7634507417679, 0.4386879205704, 0.0826166123152, 0.5427466630936, -0.5562497377396, -0.0161004513502, -0.2405048012733, -0.1316527724266, 0.1870937049389, 0.0559789463878, -0.5804547071457, 0.1648589670658, 0.1552696228027, 0.0245853103697, -0.0993575900793, 0.1614228188992, 0.0908091962337, -0.0945915579796, -0.2158763706684, -0.2901417016983, -0.2878048419952, 0.0375129655004, 0.0259596779943, -0.2353616654873, 0.0205338597298, -0.0040576821193, -0.0167000554502, 0.1481566429138, -0.3169978260994, 0.1827127635479};

#endif
