//Numpy array shape [56, 56]
//Min -3.211840152740
//Max 1.796891689301
//Number of zeros 0

#ifndef W4_H_
#define W4_H_

#ifdef __INTELFPGA_COMPILER__
//hls_bankwidth(4)
//hls_numbanks(16)
//hls_max_replicates(1)
//hls_memory_impl("BLOCK_RAM")
#endif
static model_default_t w4[4096] = {0.0659821927547, -0.1555671691895, -0.0879563540220, -0.0709298402071, -0.1125242710114, -0.0068799937144, 0.1281335055828, 0.0909954905510, 0.1274966597557, 0.1304652690887, 0.1525227427483, -0.2353339791298, -0.0152712184936, -0.0371310263872, -0.0113250017166, -0.0018124512862, -0.2720384597778, -0.1511771976948, -0.0651903450489, -0.1532716155052, -0.0358837321401, 0.0851272642612, -0.2050539553165, -0.2233760952950, -0.1203967183828, -0.2658800482750, -0.0637778788805, 0.1790898442268, -0.2145081162453, 0.1102660298347, -0.1876633167267, 0.0711380839348, 0.0254053287208, 0.0209553837776, 0.0074765980244, 0.0624779611826, -0.1425489187241, 0.0031282310374, 0.1299214363098, -0.1862295866013, -0.0747872740030, -0.0492051467299, -0.2521380186081, 0.0179784819484, -0.0548964291811, -0.1228351742029, 0.1324442625046, 0.0815414786339, -0.0526496022940, -0.2273121476173, -0.1890843510628, 0.0885525792837, 0.0838692933321, 0.0673406273127, -0.0381904765964, -0.2377197444439, 0.1191226840019, 0.1396344602108, 0.1333914399147, 0.0583261922002, -0.1662984192371, -0.0381993502378, -0.0511795282364, 0.0196633003652, 0.1252035796642, 0.0654275864363, -0.2184031605721, -0.0567306801677, -0.1650153696537, -0.0776843875647, -0.0791936963797, 0.0073819290847, 0.1293309628963, 0.0438962280750, 0.1705858707428, 0.1925146877766, -0.1359469592571, 0.0862400829792, 0.1495512127876, -0.1517013907433, -0.0973317027092, -0.1963663399220, -0.1212601512671, 0.0149630904198, 0.2006305754185, 0.0591008961201, -0.0844079554081, -0.1786525845528, 0.2175768315792, -0.1038847565651, -0.0633094012737, -0.2554463744164, -0.2229081392288, -0.2229281663895, -0.1409603059292, -0.2309958040714, -0.1172304600477, -0.1526708006859, 0.2063035964966, -0.1949907243252, 0.0641743540764, -0.1945943832397, 0.0666747987270, -0.0193835943937, 0.0245298147202, -0.0586609616876, -0.2104827463627, -0.0721322447062, -0.0985904783010, 0.1063793152571, -0.0259368233383, 0.1320784687996, 0.0000000000000, 0.0000000000000, 0.0000000000000, 0.0000000000000, 0.0000000000000, 0.0000000000000, 0.0000000000000, 0.0000000000000, 0.0000000000000, 0.0000000000000, 0.0000000000000, 0.0000000000000, 0.0000000000000, 0.0000000000000, 0.0000000000000, 0.0000000000000, -0.0929640680552, -0.0237719714642, 0.1200108081102, 0.1018334329128, -0.2080343365669, -0.0901460498571, -0.2292051911354, -0.2168457806110, 0.0671483427286, -0.0713301151991, 0.1240729093552, 0.1793715953827, -0.0724572837353, -0.1990777850151, -0.0327938199043, -0.0455373078585, -0.1769497990608, 0.1376879811287, 0.0510904490948, 0.1165964901447, 0.2012228071690, -0.0097536295652, -0.2117044329643, -0.1045776754618, 0.1139726936817, -0.1662896871567, 0.0157613158226, 0.1207505762577, -0.0650128424168, 0.0854054689407, -0.1882445514202, 0.0340736806393, 0.1834446787834, -0.0261856317520, -0.0130348801613, -0.0140299033374, -0.1755372881889, 0.0744809806347, 0.1314848959446, 0.1581478714943, -0.0244126655161, 0.1312971711159, -0.2222916185856, 0.0560347065330, 0.0648576319218, -0.0462987422943, 0.1379991769791, 0.0812273323536, -0.0138633996248, 0.1330872476101, -0.1741719245911, -0.0828260332346, -0.2118453085423, 0.0815535485744, 0.1941861212254, -0.1078872680664, -0.0504498481750, 0.0314778089523, -0.2282111942768, 0.1020543277264, -0.1703995466232, -0.2372871041298, 0.0018564164639, -0.1821925342083, -0.2225884199142, -0.1808276474476, -0.0892753452063, -0.1241918504238, 0.1177599132061, 0.0949245095253, -0.1913432478905, -0.0094642844051, 0.0774044841528, 0.2054823935032, -0.2729849219322, -0.1203818321228, 0.0487294793129, 0.0197641253471, -0.3155515789986, -0.0440438985825, 0.1729920804501, 0.1076532751322, -0.1179697066545, -0.0090601891279, -0.1855033934116, -0.1988428235054, 0.0949795246124, 0.0535780191422, 0.2214998602867, 0.1862117648125, 0.1427799761295, -0.2056069076061, -0.0685797780752, -0.0277247279882, -0.0483525246382, -0.1693663895130, -0.0919282287359, -0.0304091721773, 0.1036882698536, -0.0694195330143, -0.1426483392715, -0.2231725156307, 0.1360537409782, -0.1943392157555, -0.1004852652550, 0.0278875231743, -0.0849734544754, -0.1783384978771, -0.1461530625820, -0.1208557337523, -0.0992956161499, -0.0393204241991, 0.0000000000000, 0.0000000000000, 0.0000000000000, 0.0000000000000, 0.0000000000000, 0.0000000000000, 0.0000000000000, 0.0000000000000, 0.0000000000000, 0.0000000000000, 0.0000000000000, 0.0000000000000, 0.0000000000000, 0.0000000000000, 0.0000000000000, 0.0000000000000, -0.1480936110020, 0.1910156905651, 0.0316158160567, -0.0248426012695, 0.1181728541851, -0.2311123907566, 0.0641121566296, 0.0389551073313, 0.0453238263726, -0.2235204875469, -0.0329978987575, -0.2034479379654, 0.1002863347530, -0.1548439264297, -0.0851512551308, 0.0888782441616, -0.1708732545376, -0.0818247944117, -0.0234910212457, 0.1490898430347, -0.1128501743078, -0.0263039730489, 0.0661673098803, -0.0398975089192, -0.1949846744537, 0.0615930557251, 0.0955685973167, -0.1435731649399, -0.0737331658602, -0.2278397083282, 0.0349635630846, -0.0679652541876, 0.0038179731928, 0.2220885753632, -0.0010640472174, -0.1845807731152, 0.0540043115616, -0.1860856711864, -0.0214493125677, -0.1084455549717, 0.0105319917202, -0.1341684460640, -0.1823053359985, 0.0311766266823, -0.0133779738098, 0.1024350076914, -0.2078775167465, -0.1585590839386, 0.1212804913521, -0.0734230726957, -0.1844031214714, -0.1352468132973, -0.0120284389704, 0.0975582003593, -0.2248550355434, 0.1272373497486, 0.0571032389998, -0.1649242937565, 0.0222476311028, -0.1913813054562, 0.1789591610432, 0.0814563184977, 0.0216169655323, -0.0413428097963, -0.2553341984749, -0.0077161742374, 0.0242661163211, 1.7968916893005, -0.1247686892748, -0.0731203854084, -0.1573494672775, -0.0355991423130, -0.0295936129987, -0.1022298783064, 0.1208668053150, -0.0986963361502, -0.2345962226391, -0.1933680772781, 0.0324723348022, 0.3880481719971, 0.0386405885220, 0.0173037536442, -0.2491618096828, 0.0938265919685, 0.1106210947037, 0.0214847326279, -0.5762617588043, -0.1542523503304, -0.2407333552837, -0.0824390947819, 0.1768918335438, 0.3060583472252, 0.0163858681917, -0.0246514938772, 0.4659184217453, 0.1413148343563, -0.1223929971457, 0.5457032918930, 0.2067588269711, 0.0547082945704, -0.1307978332043, -0.1583618819714, -0.1238244026899, 0.1476559937000, 0.0686157643795, 0.1737098097801, 0.0988316386938, -0.2375862002373, -0.0045047700405, -0.1822340190411, 0.0654559582472, 0.1501164138317, 0.0000000000000, 0.0000000000000, 0.0000000000000, 0.0000000000000, 0.0000000000000, 0.0000000000000, 0.0000000000000, 0.0000000000000, 0.0000000000000, 0.0000000000000, 0.0000000000000, 0.0000000000000, 0.0000000000000, 0.0000000000000, 0.0000000000000, 0.0000000000000, -0.2099782228470, 0.1764982640743, 0.1352254450321, -0.0518885329366, -0.1326669752598, -0.2367314994335, 0.1872878968716, -0.2636188268661, 0.1742258667946, 0.0771875083447, -0.1422341763973, 0.0390967950225, -0.1347361803055, -0.0359785184264, 0.1510976254940, -0.0010169476736, 0.0149661656469, 0.0257938802242, 0.0832006335258, 0.1377176344395, -0.1446586251259, 0.1720079779625, -0.0820918828249, -0.0348378643394, 0.1917130351067, -0.0338581576943, -0.2130575776100, 0.0299530327320, -0.1532438397408, 0.0902394950390, -0.0883303433657, -0.0386308282614, 0.0577246174216, -0.1826360523701, -0.2123485207558, -0.0671287178993, -0.1234700381756, 0.0405307561159, -0.0848034471273, -0.1171839684248, 0.1011730879545, 0.0783428996801, -0.2001616954803, -0.1768996715546, -0.1071527451277, 0.1757824122906, 0.2189735770226, 0.0363582670689, -0.0096429288387, -0.2489479482174, 0.2141670286655, -0.2006857097149, 0.1798341274261, -0.2057522833347, 0.1325503885746, 0.1724429428577, -0.2071593105793, -0.1188038140535, -0.1969878375530, 0.0208854600787, -0.1863944828510, -0.2481603622437, -0.1410199999809, -0.1120136827230, 0.1094990223646, 0.0045201266184, -0.1005010902882, -0.0018362253904, -0.1908830106258, 0.0428034365177, 0.2191734015942, -0.1608751714230, 0.0432368814945, -0.2015840411186, 0.0523618981242, 0.0584187209606, -0.0926049947739, 0.1461387574673, 0.0564242303371, 0.0239851549268, -0.2071908712387, -0.0233427025378, -0.1678478717804, 0.2211533784866, 0.0463807880878, 0.0122452527285, 0.1578728854656, -0.1523083150387, 0.0184695273638, 0.1656356155872, -0.1807450950146, -0.2146031558514, -0.1036614328623, -0.1462092995644, -0.0344800129533, -0.0940159112215, -0.2311166822910, 0.0809195637703, -0.2197707593441, -0.1754327416420, -0.1760798394680, -0.2186751961708, 0.1740477979183, 0.0802489221096, -0.0545011162758, 0.1798017024994, 0.1802170574665, 0.0775068700314, -0.0586057081819, -0.2117272913456, 0.0631627738476, -0.1476853191853, 0.0000000000000, 0.0000000000000, 0.0000000000000, 0.0000000000000, 0.0000000000000, 0.0000000000000, 0.0000000000000, 0.0000000000000, 0.0000000000000, 0.0000000000000, 0.0000000000000, 0.0000000000000, 0.0000000000000, 0.0000000000000, 0.0000000000000, 0.0000000000000, -0.1544116735458, -0.1958173811436, 0.1054496616125, 0.1227059662342, -0.1653476953506, -0.1398621499538, 0.2001427114010, 0.0140725262463, 0.0095064043999, 0.0528990849853, 0.0823888182640, 0.0834198445082, -0.2123211324215, 0.0785917639732, 0.0499799326062, -0.0638315081596, -0.1022611111403, -0.1651344597340, -0.1820507645607, 0.0783172845840, -0.0254958197474, -0.0914295911789, -0.1551181972027, -0.1633776724339, -0.1724415123463, -0.2211600244045, -0.1417923271656, 0.0536592677236, 0.0775708258152, 0.0049019157887, 0.0842246115208, 0.0115303266793, -0.0302475355566, 0.1297278702259, 0.0446639358997, -0.2706549763680, 0.2003733217716, -0.0228781029582, 0.0158656388521, 0.0596342831850, -0.1774325370789, 0.0305500887334, -0.0517246872187, 0.1300531327724, -0.2411118745804, -0.0841888934374, 0.0194175019860, -0.1667405366898, 0.1693767011166, -0.0195704735816, 0.0893483757973, -0.1055883616209, -0.0607101321220, -0.1556888520718, -0.0249010398984, -0.0328736752272, -0.0120431631804, -0.2058891952038, 0.0640220046043, -0.2624781131744, 0.0655339360237, 0.0173818394542, -0.1516550183296, 0.1789758801460, -0.1811527013779, 0.2208288013935, 0.2547022104263, 0.8174519538879, 0.0190681405365, -0.0513471588492, -0.1113834977150, -0.3380967378616, 0.1424408257008, -0.1080764234066, 0.1958128511906, -0.1023375988007, 0.2112989127636, 0.1121071577072, -0.5748586654663, -0.1647541821003, -0.0806641280651, 0.1272567510605, 0.3758448362350, -0.1841701567173, 0.1821828484535, -0.1658326089382, 0.1352456510067, 0.1503406167030, 0.1192965954542, 0.2072201669216, -0.1596627533436, 0.2275347709656, -0.1715739369392, 0.1894623935223, -0.1029148548841, 0.2024866640568, -0.4017983078957, 0.1818772256374, -0.1528504788876, -0.1730583608150, -0.2279257774353, 0.1480802893639, 0.1794961392879, 0.1947171986103, 0.1056968569756, -0.1110102534294, -0.1610948443413, -0.1277969777584, -0.2145203948021, -0.0631085187197, -0.1141911000013, 0.0344613641500, 0.0000000000000, 0.0000000000000, 0.0000000000000, 0.0000000000000, 0.0000000000000, 0.0000000000000, 0.0000000000000, 0.0000000000000, 0.0000000000000, 0.0000000000000, 0.0000000000000, 0.0000000000000, 0.0000000000000, 0.0000000000000, 0.0000000000000, 0.0000000000000, 0.2914360165596, -0.1906665265560, 0.0976789891720, -0.0859959274530, 0.2237523198128, 0.0760488659143, -0.1720825135708, -0.1792948246002, -0.1242556720972, 0.1405182480812, 0.3391875624657, 0.2359828054905, -0.0418727174401, -0.0844472050667, 0.1963188946247, -0.2790187597275, -0.1427980661392, 0.2273116111755, -0.0732376277447, 0.1447814702988, 0.0572095289826, 0.1572146415710, -0.2364770174026, -0.0569153204560, -0.0875572711229, -0.0709933787584, 0.0322056040168, -0.0849100202322, 0.1069349050522, -0.1141911149025, 0.1133687496185, -0.0668381899595, 0.3156961798668, -0.0263789445162, 0.0776644051075, 0.1386112570763, 0.0111167579889, -0.3206180930138, -0.1233197599649, -0.0596947297454, -0.1019785106182, -0.1727407276630, -0.1394609212875, -0.2194467782974, -0.0026841610670, -0.0858605653048, 0.1477766931057, 0.0975227057934, 0.1373104751110, -0.0900510102510, -0.0266344994307, -0.0100156255066, -0.2471623718739, -0.1512291431427, -0.0376313924789, -0.1683884859085, -0.0338599160314, 0.0246791243553, -0.0423363521695, -0.1287085115910, 0.0166460871696, 0.0460151880980, -0.1292796730995, -0.0032011028379, -0.0953107923269, -0.2486649155617, 0.1073251813650, -0.1244495660067, -0.0102663934231, -0.1842176616192, -0.2343075275421, 0.1601247191429, -0.0329467728734, 0.0009410977364, -0.1356107890606, -0.1130163073540, -0.1491214632988, -0.1280308663845, 0.0542047247291, -0.1214694231749, 0.0454383194447, -0.0064737303182, 0.0844410508871, -0.2066826224327, 0.1171571016312, 0.0296444594860, 0.0067986678332, 0.1485712528229, 0.1923673450947, 0.1421722769737, 0.0679345726967, -0.2377340197563, -0.0781859010458, -0.0710647702217, -0.0505041778088, -0.1260348260403, 0.1356005668640, -0.0884929895401, 0.1670075953007, -0.1662788689137, -0.1085803359747, -0.1308946609497, 0.0981038212776, -0.1422992050648, 0.1187628507614, -0.1214114576578, 0.0242556855083, -0.2550303936005, -0.0373512282968, 0.0825527310371, 0.0740924328566, 0.0718436986208, 0.0000000000000, 0.0000000000000, 0.0000000000000, 0.0000000000000, 0.0000000000000, 0.0000000000000, 0.0000000000000, 0.0000000000000, 0.0000000000000, 0.0000000000000, 0.0000000000000, 0.0000000000000, 0.0000000000000, 0.0000000000000, 0.0000000000000, 0.0000000000000, -0.1651667952538, 0.1014777719975, 0.0703078508377, 0.0775410383940, 0.2585586309433, 0.0826946496964, -0.0284407436848, -0.1988146603107, -0.2310823798180, -0.1214807331562, 0.0372521206737, 0.0946519672871, -0.1707043647766, 0.0107303410769, 0.1615191102028, -0.0616501346231, -0.2469286024570, -0.0041937530041, -0.2378446459770, 0.0249552130699, -0.1624337732792, -0.1375885605812, 0.0605775415897, -0.0385532453656, -0.2166744172573, -0.1561064720154, 0.0153349619359, 0.0824347436428, 0.1252319216728, 0.1556042134762, -0.2006118893623, 0.0656991153955, 0.1283169984818, 0.0876495838165, -0.2189863324165, -0.2102007269859, 0.1442169249058, 0.0417054072022, -0.0370559394360, -0.0899433940649, -0.2300723195076, -0.0554797574878, -0.0664256960154, 0.1294545233250, 0.0260890871286, 0.0781776905060, 0.0220545195043, 0.1557065546513, -0.0483413487673, -0.0906044542789, -0.1078217625618, -0.0476857125759, 0.0659443885088, -0.0932420045137, 0.0143340174109, 0.0965251624584, -0.0120127443224, -0.1321952044964, -0.0915869176388, 0.2645538449287, -0.0198376998305, -0.3817264437675, 0.0300877988338, 0.2671084105968, -0.3618395030499, 0.5616421699524, -0.0799468606710, -1.5450241565704, -0.1207779198885, 0.2190296351910, -0.1502824425697, -0.3324329853058, 0.1193238794804, 0.0854535400867, 0.0420472249389, -0.0786723345518, 0.1132224649191, 0.2471733093262, -0.2710680961609, 0.3055716156960, -0.0884008556604, 0.1803890168667, 0.5753412246704, 0.0763805806637, -0.1069207340479, -0.0741859525442, -0.0223789121956, 0.2403869032860, -0.0330595523119, -0.0753505378962, -0.1281483173370, -0.1465107202530, 0.2067413032055, 0.1163549274206, -0.4049859046936, -0.1056850105524, -1.5020163059235, 0.0343534722924, -0.7951912879944, 0.3122121095657, -0.2342030704021, 0.1435734033585, -0.0017117913812, -0.0521718263626, -0.2310099005699, -0.0843853652477, -0.3305922746658, 0.2306288182735, -0.0987408459187, 0.2075162231922, 0.2336137890816, 0.1255352497101, 0.0000000000000, 0.0000000000000, 0.0000000000000, 0.0000000000000, 0.0000000000000, 0.0000000000000, 0.0000000000000, 0.0000000000000, 0.0000000000000, 0.0000000000000, 0.0000000000000, 0.0000000000000, 0.0000000000000, 0.0000000000000, 0.0000000000000, 0.0000000000000, 0.0497987046838, -0.1790924668312, -0.1085664480925, 0.9962448477745, 0.2531899213791, 0.0236771330237, 0.2067002356052, -0.1961764693260, -0.0749577879906, 0.4002722501755, 0.0839832425117, -1.6152855157852, 0.1946376860142, 0.2337880134583, 0.1190983206034, -0.7511137723923, 0.2363741993904, 0.1978636384010, -0.1314739882946, -0.0844899713993, 0.3941461443901, -0.0329800546169, -0.2574151158333, -0.2569985389709, 0.0582911372185, 0.1642877459526, 1.0688558816910, -0.0888248234987, -0.0327207520604, 0.2155595123768, 0.3206854462624, -0.1809043288231, 0.0187490023673, 0.1277636885643, -0.0340496152639, -0.0949579328299, 0.0774387717247, 0.5304843187332, -1.1928644180298, 0.0399933680892, -1.2943346500397, 0.2504425048828, 0.3049495220184, 0.0672489255667, -0.1136896908283, -0.1574863493443, 0.0296096093953, -0.1157654225826, 0.1763322055340, -0.0380418300629, -1.3586542606354, 0.0426951423287, -0.2928055524826, 0.0496928468347, -0.1521742641926, 0.1466367840767, -0.2287802398205, 0.0000392943621, -0.0769660174847, -0.1118370890617, -0.1702148318291, -0.0972469300032, 0.1186713278294, -0.1010876297951, -0.0132269728929, 0.0435681641102, 0.1167171746492, -0.0583580508828, -0.1675509810448, -0.0939852893353, -0.0879228562117, -0.0447035655379, -0.1128897368908, 0.1132280528545, 0.0300478897989, 0.1869031786919, -0.2258520722389, -0.2261451184750, -0.0233816169202, 0.0851199328899, 0.1828072369099, -0.0090960618109, -0.0714134722948, 0.1525565981865, 0.1050474047661, 0.1355243623257, 0.0433287248015, 0.0620834529400, 0.0445220768452, -0.2184990048409, 0.1632987260818, -0.2718813419342, -0.1812250316143, -0.2038770914078, -0.0539516136050, -0.0467754751444, -0.1963289380074, -0.2299703955650, -0.1427915096283, 0.0878415852785, -0.1219201534986, -0.0058422386646, 0.0457194149494, 0.1312938630581, 0.2214713990688, 0.0081885159016, 0.1408803761005, -0.0978920310736, 0.0574832186103, 0.1134291887283, -0.2116541862488, -0.0839045494795, 0.0000000000000, 0.0000000000000, 0.0000000000000, 0.0000000000000, 0.0000000000000, 0.0000000000000, 0.0000000000000, 0.0000000000000, 0.0000000000000, 0.0000000000000, 0.0000000000000, 0.0000000000000, 0.0000000000000, 0.0000000000000, 0.0000000000000, 0.0000000000000, -0.2167496979237, 0.2141420245171, -0.1799959540367, -0.0049308286980, -0.0355865806341, 0.1464612782001, -0.2217092216015, 0.0451957955956, 0.0021007321775, -0.2198527455330, -0.1059954613447, -0.1591349840164, 0.1882324814796, 0.0873850584030, 0.1609693467617, 0.0395087078214, -0.0642477273941, 0.1335441172123, -0.1083820015192, 0.0975239574909, -0.1603895723820, -0.2041800618172, -0.0497990846634, -0.0466194972396, 0.0352876484394, 0.1223871707916, 0.0409492850304, 0.1833306550980, 0.0800549983978, 0.0278239250183, -0.2305152118206, 0.1684486865997, 0.1452090144157, 0.0626496970654, 0.0534889400005, -0.2663083672523, 0.2148284912109, -0.2471341490746, -0.0941377133131, 0.0704866349697, 0.1293278932571, -0.0684464126825, -0.0722831785679, -0.1713118851185, 0.1174040436745, 0.0284439623356, -0.2192045748234, -0.0169682204723, 0.0344097018242, -0.0609020292759, -0.1760910749435, -0.0094087868929, 0.0785080641508, -0.1751800477505, -0.0850222706795, -0.1871757805347, -0.1988886594772, -0.0798538625240, -0.0525006651878, 0.0945455133915, -0.1742280125618, 0.0981708467007, 0.0210703313351, 0.0956773906946, -0.2088468074799, 0.0208523496985, -0.1558969318867, -0.0617852210999, 0.0945464968681, 0.1183248013258, 0.0192361362278, -0.1286931037903, -0.0375598445535, -0.0434273481369, -0.2069008052349, -0.0607280433178, 0.0130551997572, -0.1654793322086, 0.0774694532156, 0.0863282978535, 0.2189185023308, -0.0483174696565, -0.1245466470718, -0.1312151253223, 0.0561648309231, -0.2024087905884, 0.1070793569088, -0.1497718393803, -0.0982265621424, -0.1652341485023, -0.0599778294563, 0.0923539996147, -0.1659508347511, 0.0121679231524, -0.1936476528645, -0.0545585751534, 0.0637023299932, -0.0630302131176, -0.2224612236023, 0.1293875873089, -0.0777887254953, -0.2503408193588, -0.2201576530933, 0.0314826667309, 0.1820386648178, -0.2699408531189, -0.1356592774391, 0.0535552203655, 0.0424869284034, -0.0753722786903, -0.2314285635948, -0.2506293654442, 0.0000000000000, 0.0000000000000, 0.0000000000000, 0.0000000000000, 0.0000000000000, 0.0000000000000, 0.0000000000000, 0.0000000000000, 0.0000000000000, 0.0000000000000, 0.0000000000000, 0.0000000000000, 0.0000000000000, 0.0000000000000, 0.0000000000000, 0.0000000000000, -0.1521259546280, -0.0424125194550, 0.1221909821033, 0.4810686707497, 0.1330456435680, -0.1544489860535, 0.0787133276463, 0.1410311162472, 0.6765295267105, 0.2044459581375, -0.1808025836945, -0.6147651672363, -0.1211224347353, -0.0534909814596, -0.1814106106758, 0.6661555767059, -0.7333488464355, -0.0249677449465, 0.2817740440369, -0.2267536818981, -0.2131724953651, -0.2214088141918, 0.5387874841690, 0.3612741231918, 0.1762244403362, 0.0535033866763, -1.6594591140747, 0.0798696130514, 0.0457468628883, 0.0636091530323, -2.0711345672607, 0.0758763998747, -0.2739202380180, 0.0288032591343, -0.1923461556435, 0.2617826461792, -0.0557632148266, 0.3082959055901, 0.2886030673981, 0.0336966291070, -1.2544052600861, -0.1273029744625, -0.0086246374995, 0.0357447266579, 0.0388167276978, 0.1122218817472, 0.0245415009558, 0.0725673139095, 0.0885618925095, 0.0238911025226, 0.4944113492966, -0.0945965051651, 0.0572699978948, -0.0149187278003, 0.1164554953575, -0.1355141699314, -0.2198145985603, -0.0380769968033, -0.2141721844673, 0.1461500823498, -0.0957417637110, -0.1632227301598, 0.1603182256222, -0.1510531902313, 0.2324442267418, -0.2402729690075, 0.0459291338921, -0.1863812506199, -0.2158084809780, 0.0901282727718, -0.1172636449337, -0.0421704724431, 0.0443051233888, -0.0322034657001, 0.1358011364937, 0.1435194611549, 0.0015752392355, -0.2412371933460, -0.0362214967608, -0.1722185909748, 0.1942894756794, 0.1777372956276, -0.0328730121255, 0.1667890548706, -0.0899310857058, -0.0707325786352, 0.0084708109498, 0.0308863855898, -0.2213848829269, -0.1192424595356, 0.1171753406525, -0.2776971459389, 0.1019107401371, -0.0807217806578, -0.0645449906588, -0.0774530768394, 0.0887763500214, 0.0652924180031, -0.0121608972549, 0.1376433372498, -0.0577899888158, 0.0489855632186, 0.1003226190805, 0.0384566187859, -0.0356141775846, -0.0426740348339, -0.3184620738029, -0.0296226888895, -0.1290784478188, -0.2213457524776, -0.0474421605468, -0.0433856472373, 0.0000000000000, 0.0000000000000, 0.0000000000000, 0.0000000000000, 0.0000000000000, 0.0000000000000, 0.0000000000000, 0.0000000000000, 0.0000000000000, 0.0000000000000, 0.0000000000000, 0.0000000000000, 0.0000000000000, 0.0000000000000, 0.0000000000000, 0.0000000000000, -0.1446148455143, -0.0281997621059, -0.1844317913055, -0.1163759231567, 0.0192964971066, -0.1605650484562, -0.1307621896267, -0.1986050903797, -0.0898399353027, -0.1789179444313, 0.1708289682865, 0.0561477839947, 0.0498072803020, 0.0111072212458, -0.1080808937550, -0.0586021840572, -0.1914046406746, -0.2031547725201, 0.0423530787230, -0.0886723548174, -0.1810226142406, -0.1579453945160, -0.0666387379169, 0.0292113646865, 0.0499756038189, -0.2959939837456, -0.0435692667961, -0.0282420367002, -0.1751013994217, 0.1711649298668, 0.1490272581577, 0.1940256655216, 0.0536336302757, -0.1231892704964, 0.1956314444542, -0.1890376210213, -0.1416257917881, -0.1984680294991, -0.1383915841579, 0.2288513779640, -0.1774052977562, -0.0255523584783, 0.0806214511395, 0.0392552092671, -0.2027051448822, 0.0608572363853, -0.0423439890146, -0.1061462312937, 0.1305051147938, -0.2070057690144, -0.2757309079170, 0.1269634664059, -0.0563266500831, -0.1321257948875, 0.0603019297123, 0.0780503749847, 0.0136406794190, -0.2112860679626, 0.1359716951847, -0.1423061192036, -0.0126037113369, -0.1556377410889, 0.0075735002756, -0.0900921970606, 0.1437840461731, 0.0095893200487, 0.2087360620499, -0.0290673151612, 0.1281438171864, -0.0396642312407, -0.1313826739788, -0.1031597554684, -0.0115549769253, 0.1779296696186, 0.1732162833214, -0.0041136890650, 0.0308812968433, 0.1651223301888, -0.0100101605058, -0.4111560583115, -0.0369347631931, -0.0786713063717, -0.2152894735336, 0.0633236020803, -0.0277067571878, 0.1195119619370, -0.2238627672195, 0.0257951058447, 0.1660255193710, 0.1016138494015, -0.0997105389833, -0.3036229014397, 0.0499909520149, -0.1825712323189, -0.4823406934738, -0.0815416276455, -0.3142088055611, -0.0552966371179, -0.0333549678326, 0.1106318086386, 0.1391086876392, -0.2587139606476, 0.0528159812093, -0.0107098370790, -0.1057424545288, 0.1995916664600, -0.4778321385384, 0.0060447761789, -0.1162909865379, -0.0492576137185, -0.1486846804619, 0.0671163052320, 0.0000000000000, 0.0000000000000, 0.0000000000000, 0.0000000000000, 0.0000000000000, 0.0000000000000, 0.0000000000000, 0.0000000000000, 0.0000000000000, 0.0000000000000, 0.0000000000000, 0.0000000000000, 0.0000000000000, 0.0000000000000, 0.0000000000000, 0.0000000000000, -0.0888549834490, -0.1284017562866, -0.2254857420921, -0.2476197481155, -0.0960159003735, -0.0159465149045, 0.1993810236454, -0.2593265771866, 0.1346319019794, -0.2581880688667, 0.0905013084412, -0.0465347245336, 0.0351084917784, -0.1328253149986, 0.1024169176817, 0.0336617678404, -0.2319708466530, 0.0557999610901, -0.0017456009518, 0.2272780537605, -0.1394295394421, -0.1535183191299, -0.2470646202564, -0.2038956582546, -0.0435816943645, 0.0164543017745, -0.3013310432434, 0.0773473381996, -0.0698655992746, -0.1472441554070, 0.0655959546566, 0.0949417054653, -0.0796252638102, 0.1201425492764, 0.1888831853867, -0.0470860451460, 0.1737794578075, 0.0405554249883, 0.1120656132698, -0.1994600296021, 0.2309798896313, -0.0862551331520, -0.0580447912216, -0.0321474149823, -0.1841402053833, -0.1497770249844, 0.0820186287165, 0.1790959537029, -0.1189090907574, 0.0368963703513, 0.1782749295235, -0.0722704082727, -0.0891870558262, -0.1110693067312, -0.0761214196682, 0.0155659876764, 0.1660962402821, 0.0239041447639, -0.2589203715324, -0.2486288547516, 0.0025954619050, -0.2256825566292, 0.1072445809841, -0.2246131300926, 0.1083633303642, 0.1257247626781, -0.2215073406696, 0.1318745911121, -0.0083308983594, -0.0151647236198, 0.0518711060286, -0.2428871095181, -0.2503590583801, 0.2033731341362, 0.0411380305886, -0.1741223931313, -0.0074335383251, -0.1997966468334, -0.0722199380398, -0.0720633119345, -0.1364182233810, 0.0367545634508, 0.0373657420278, 0.0234366767108, -0.2014375925064, 0.1276989579201, -0.2495133280754, 0.1529199779034, 0.1114512234926, 0.0234025120735, -0.1607616841793, -0.0904396772385, -0.1936880350113, 0.0235576964915, 0.0625143647194, -0.1376930773258, -0.0144719276577, 0.0260951668024, -0.1851967275143, -0.2712794542313, -0.0499856248498, 0.0556075647473, 0.0534102544188, 0.1486825346947, 0.1055410206318, 0.0266796797514, -0.0939110666513, -0.1647578179836, -0.0183118171990, 0.1166106164455, -0.0173555128276, 0.0973743796349, 0.0000000000000, 0.0000000000000, 0.0000000000000, 0.0000000000000, 0.0000000000000, 0.0000000000000, 0.0000000000000, 0.0000000000000, 0.0000000000000, 0.0000000000000, 0.0000000000000, 0.0000000000000, 0.0000000000000, 0.0000000000000, 0.0000000000000, 0.0000000000000, -0.0692305564880, 0.2229752540588, -0.0201582014561, -0.2459648251534, -0.1691266596317, 0.1423566043377, 0.1190875768661, -0.2167495489120, -0.0589878484607, -0.2119024693966, -0.1408194005489, 0.0896635800600, -0.1576797068119, -0.0688806325197, -0.2278949618340, -0.1336169242859, -0.0533407628536, 0.1512075364590, -0.1410847008228, 0.0008624047041, -0.2720805406570, 0.0270418524742, 0.0195279754698, 0.0841134339571, -0.2005732357502, -0.2742271423340, 0.2214975953102, -0.0627958625555, 0.0392249822617, 0.1527774930000, -0.1654204726219, -0.1108930259943, -0.2139040231705, 0.0669169425964, -0.1463499963284, -0.0175236761570, 0.0699004232883, 0.0538382083178, -0.2085796594620, -0.1993411779404, 0.0523260831833, 0.0535207837820, -0.1495459675789, 0.0330753698945, -0.2236512899399, -0.0492562800646, -0.2260149121284, -0.1768817901611, -0.0968186706305, 0.0309509858489, 0.0364186614752, -0.1536544561386, 0.0266156084836, 0.1469135880470, 0.0921126306057, 0.1787922382355, 0.0173642188311, 0.0777911245823, -0.2201636135578, -0.1561143100262, 0.1694867014885, -0.2202670872211, -0.0432884991169, -0.2218852639198, -0.1439506411552, -0.2278610467911, 0.1413503289223, -0.0515898764133, -0.1488983929157, -0.0983157306910, 0.0861358046532, -0.0135424137115, 0.1246728748083, 0.0355546772480, -0.0519098788500, -0.1933666467667, 0.0356546491385, -0.1138380467892, 0.0849045813084, 0.1021067053080, -0.0169936120510, -0.3316586017609, 0.1903395950794, -0.1254303753376, -0.2242905199528, -0.1470194160938, -0.1340880095959, -0.1696223914623, 0.0090230554342, -0.0870208889246, -0.1697143614292, -0.1755784749985, -0.2207141220570, -0.0829653292894, -0.0714794397354, -0.0600810796022, -0.1474648416042, -0.0687956213951, 0.0477529168129, -0.0706726759672, -0.0522388815880, 0.0735256373882, -0.0676951855421, 0.0235927999020, -0.1070747375488, 0.0419210195541, -0.2823284864426, 0.1078310906887, 0.0675324946642, -0.1579466760159, -0.1153315752745, -0.2380533814430, 0.0000000000000, 0.0000000000000, 0.0000000000000, 0.0000000000000, 0.0000000000000, 0.0000000000000, 0.0000000000000, 0.0000000000000, 0.0000000000000, 0.0000000000000, 0.0000000000000, 0.0000000000000, 0.0000000000000, 0.0000000000000, 0.0000000000000, 0.0000000000000, -0.0910609811544, -0.1160624176264, 0.0025008767843, -0.1624296605587, -0.0237027741969, -0.1095416843891, -0.2004961073399, -0.0372795984149, 0.0285369753838, -0.2381523549557, 0.0320162326097, -0.2867792248726, -0.1086508929729, 0.0108812060207, 0.1072937995195, -0.0273226276040, -0.1873654723167, 0.2224298715591, -0.0858410596848, -0.0684737116098, -0.1756753921509, -0.0930893868208, 0.0684122145176, 0.1080852895975, -0.0331952273846, 0.0169814378023, -0.1128139793873, 0.1265984475613, 0.1510967910290, -0.1561907827854, -0.0867538750172, -0.1407087743282, 0.0084954388440, -0.0069370269775, -0.1520682275295, 0.0442489087582, 0.0496571958065, -0.2472844719887, -0.2349396348000, -0.2414606213570, -0.1058841347694, -0.2629966139793, 0.1199769377708, 0.0083354301751, 0.0904232263565, 0.0335195735097, -0.1784506738186, -0.2097623050213, -0.0266845971346, -0.1531935334206, -0.1400632262230, 0.0767342746258, 0.0546782836318, -0.2456511259079, 0.0624055787921, 0.0503828078508, -0.0280443467200, -0.2005869448185, 0.0800260305405, 0.0090793296695, -0.2182388603687, 0.1212955713272, 0.0903097987175, -0.2643868327141, -0.0153129398823, 0.1629417836666, -0.1867499351501, 0.0802140235901, -0.0751961916685, -0.2423662841320, -0.1878628432751, 0.1023353040218, 0.0125005319715, 0.0353522300720, -0.2604729533195, 0.0868947505951, -0.1404282748699, -0.1823118925095, 0.1070739775896, -0.2431917488575, -0.0426538884640, 0.1487841904163, -0.1846650242805, -0.0677641183138, -0.1157935112715, 0.1984894275665, -0.2004406452179, 0.0568986758590, -0.1534920632839, 0.1476103663445, 0.0481203496456, -0.2144547104836, -0.0853854268789, 0.1066102981567, 0.0016710755881, -0.0693272650242, 0.0171790197492, 0.1384520232677, 0.2071540057659, -0.0738496035337, -0.0872952938080, 0.1234482824802, 0.0354765057564, 0.0426140427589, 0.0819590091705, -0.1436064243317, -0.1208049654961, -0.0040024491027, -0.2875345349312, 0.1626678407192, -0.1847317218781, 0.1135398596525, 0.0000000000000, 0.0000000000000, 0.0000000000000, 0.0000000000000, 0.0000000000000, 0.0000000000000, 0.0000000000000, 0.0000000000000, 0.0000000000000, 0.0000000000000, 0.0000000000000, 0.0000000000000, 0.0000000000000, 0.0000000000000, 0.0000000000000, 0.0000000000000, 0.1274375617504, 0.1762598752975, 0.0297408364713, -0.1070656329393, 0.0525205656886, 0.0143971033394, 0.0762794315815, -0.0352951288223, -0.1044969111681, -0.1883512437344, 0.0168666616082, -0.1011965423822, 0.0132025089115, 0.1299815177917, 0.1447530686855, -0.0782549679279, -0.1118931323290, -0.0959993004799, -0.2890780568123, 0.1649646461010, -0.1405071914196, -0.1273502409458, 0.1522168219090, -0.0820431709290, 0.1607917547226, -0.1081347912550, -0.2299409508705, -0.2126375734806, -0.1894915699959, -0.2062782943249, -0.0315375700593, -0.0439315438271, -0.2384026348591, 0.1291595995426, 0.0255258679390, -0.1771518886089, 0.1237083375454, -0.2844173312187, -0.2746595740318, -0.0935156047344, -0.1483344733715, -0.2350199222565, -0.0288822390139, -0.0113945715129, 0.0608274713159, 0.1699108183384, -0.1728751063347, 0.1864073574543, 0.1683578491211, 0.1479287445545, 0.1137612760067, -0.2217579782009, 0.1421231627464, -0.0058862864971, 0.1522780954838, 0.0227185897529, 0.2349084317684, 0.2275221347809, 0.2162201106548, -1.9129850864410, -0.1190491914749, -0.1081294268370, -0.1548167765141, 0.3737826943398, -1.7592595815659, -0.2840642929077, 0.0978225469589, -0.0324923545122, -0.0024447543547, 0.0344129651785, -0.0377924665809, -0.0437424927950, -0.2126979231834, -0.1958879232407, -0.2678526043892, -0.1791758537292, 0.0335639566183, 0.2060547173023, 0.2824463546276, 0.4406533837318, 0.1636078655720, 0.2027346491814, -0.4529178738594, -0.0951214581728, 0.0988022685051, -0.0011608898640, -0.1667431592941, 0.0770038217306, -0.0431950464845, 0.0851593017578, -0.2272309660912, -0.4913043379784, -0.0946418046951, 0.2844737768173, -0.1997666507959, -0.0707265436649, -0.6500598192215, -0.3648694753647, -2.6928670406342, 0.0489246845245, -0.0454379320145, 0.1627092063427, -0.1626276671886, -0.0598124414682, -0.1742070615292, -0.0970724821091, -0.1816636919975, -0.0350862517953, 0.0506702959538, 0.0463714823127, -0.1051414012909, -0.1204654723406, 0.0000000000000, 0.0000000000000, 0.0000000000000, 0.0000000000000, 0.0000000000000, 0.0000000000000, 0.0000000000000, 0.0000000000000, 0.0000000000000, 0.0000000000000, 0.0000000000000, 0.0000000000000, 0.0000000000000, 0.0000000000000, 0.0000000000000, 0.0000000000000, 0.0961688011885, -0.1988274157047, -0.0568047091365, -0.2996868491173, 0.0068933274597, -0.1006926745176, -0.2008870244026, 0.0368670448661, -0.4366025328636, -0.0556819960475, -0.1948416531086, -0.2675265073776, 0.0286509431899, -0.0736079216003, 0.0831080228090, 0.1121921241283, 0.0892100483179, -0.0890512466431, 0.1703873872757, -0.2041294574738, 0.0532231405377, -0.0472117587924, 0.0693076401949, -0.2528392076492, -0.0616320520639, -0.0112303290516, -0.1386072933674, -0.1408270299435, 0.0636491179466, 0.0166144967079, 0.0543384477496, 0.0297163315117, -0.1863572299480, 0.1094840764999, 0.1899376213551, -0.2707261443138, -0.1046126782894, 0.1227157413960, -0.1452087163925, -0.1784090101719, 0.1421422660351, 0.1537808179855, 0.0001362919866, -0.1486659348011, -0.1647108495235, -0.1000154167414, -0.2789852023125, 0.1267423927784, 0.1297744512558, -0.0510064959526, -0.1819168925285, 0.1027794480324, -0.1212745904922, -0.1618823409081, 0.0516160055995, -0.1217112094164, -0.0544459968805, -0.1242363750935, -0.2205178141594, -0.0134515669197, -0.0389827564359, -0.0529547929764, -0.1670840084553, 0.0570872724056, -0.0339934974909, -0.0675140321255, 0.0149609893560, -0.0205871760845, -0.1367537975311, -0.0530616343021, -0.0971543341875, -0.0287839435041, 0.0892320424318, 0.0872383713722, 0.0316969677806, 0.1556221246719, -0.0631734877825, -0.0128358732909, -0.1922039091587, -0.1966987848282, 0.0406346321106, -0.2543913722038, 0.1463903784752, 0.2141434848309, -0.2150045335293, 0.1704472601414, -0.0765412002802, -0.1251368224621, -0.2138287425041, -0.0353522747755, -0.2033898532391, -0.1986236572266, 0.2129421234131, 0.0028078155592, -0.0651390850544, 0.1395915150642, -0.2083929479122, -0.0954116880894, -0.1776514351368, -0.0736054927111, -0.0714142322540, -0.2729651331902, -0.1422075033188, 0.2006756663322, 0.1899125277996, 0.0795204043388, 0.0657500028610, -0.0188019499183, -0.1747736930847, -0.1966851949692, 0.0637250095606, 0.0245721228421, 0.0000000000000, 0.0000000000000, 0.0000000000000, 0.0000000000000, 0.0000000000000, 0.0000000000000, 0.0000000000000, 0.0000000000000, 0.0000000000000, 0.0000000000000, 0.0000000000000, 0.0000000000000, 0.0000000000000, 0.0000000000000, 0.0000000000000, 0.0000000000000, -0.0275052152574, 0.0829890966415, 0.0193609744310, 1.1023954153061, -0.1961233317852, 0.2331618666649, 0.1710044443607, -0.2738134860992, 0.9635896682739, -1.1206929683685, -0.3324519395828, -0.8289445042610, 0.0929165482521, -0.1240903437138, 0.0648909509182, 0.1025823503733, -0.1375550627708, 0.2165369093418, 0.1336278319359, -0.1544548869133, -0.0233220234513, 0.2038152813911, -0.2046925723553, -0.2186980247498, -0.0961308032274, 0.0732205063105, -0.4673070311546, -0.2067623734474, 0.1054930686951, -0.1344859302044, 0.3022834062576, -0.1367137432098, -0.0392202362418, 0.1802372634411, 0.1766719222069, 0.1019724458456, 0.0016094744205, -1.0616827011108, 0.2190300673246, -0.0508624464273, 1.6717884540558, -1.0859515666962, 0.4082809090614, -0.2191798388958, 0.1777432858944, 0.0406090319157, 0.1578725576401, -0.1589813530445, -0.1802120208740, 0.0753581523895, 0.2345532178879, -0.2184209823608, 0.1195537894964, 0.1289909482002, -0.1674530208111, -0.0859745144844, 0.2410247027874, -0.0551283806562, 0.0007785244379, 0.5062904357910, 0.2106766700745, -0.0541833415627, -0.0728444457054, -0.1736268550158, -3.2118401527405, 0.4140431880951, 0.3237323760986, 1.6273868083954, -0.0739704072475, 0.2559628486633, 0.0185436941683, -0.5983082056046, 0.3066243529320, -0.1048849523067, -0.2596645951271, -0.0602897703648, 0.1839526295662, -0.1231823265553, -0.3028780221939, 0.0818206369877, -0.1717995703220, 0.1550684869289, 1.2863372564316, -0.0953474491835, -0.1846814155579, 0.1466633081436, 0.0464251190424, -0.1686180830002, 0.1647200882435, -0.0394395887852, -0.1089593023062, 0.2671017944813, 0.1111692786217, 0.3205471932888, -0.3972862362862, -0.0420888438821, -1.1915223598480, -0.5528278350830, 0.0925296097994, 0.2396875023842, -0.1740604043007, -0.1418083012104, 0.2749562263489, 0.0988778173923, -0.1631478965282, -0.0731530636549, -0.8637925982475, 0.2759559154510, 0.0857326537371, -0.2437956035137, -0.0876000374556, 0.1647725999355, 0.0000000000000, 0.0000000000000, 0.0000000000000, 0.0000000000000, 0.0000000000000, 0.0000000000000, 0.0000000000000, 0.0000000000000, 0.0000000000000, 0.0000000000000, 0.0000000000000, 0.0000000000000, 0.0000000000000, 0.0000000000000, 0.0000000000000, 0.0000000000000, -0.0104885157198, 0.0453671514988, -0.1169397979975, 0.7123638391495, -0.0190787985921, 0.0396900773048, -0.0488396584988, -0.2950192987919, 0.3638156652451, -0.3767756223679, -0.0131730604917, 0.1852108389139, 0.1884359419346, 0.1843526065350, 0.0413892865181, 0.5444654226303, -0.2164067327976, -0.2139033377171, 0.1311927139759, 0.0572618246078, -0.0892059952021, -0.1508849263191, 0.0649500191212, 0.1239602118731, -0.2044244706631, -0.0331475064158, -1.5602836608887, -0.1398304700851, 0.0748359262943, -0.1461343169212, -0.7182292342186, 0.2177262306213, -0.2146291732788, -0.1278010308743, -0.1450116634369, 0.1756731569767, 0.0284630954266, 0.4772824048996, 0.8028330802917, 0.0095058940351, 0.5963901281357, 0.7357828617096, 0.2043196558952, -0.0158597640693, -0.1256872713566, 0.2245562076569, -0.1190291792154, -0.1744394302368, 0.0310205519199, 0.0062139034271, 0.6998913884163, 0.0237654633820, 0.1567858159542, 0.0954636186361, 0.1126139014959, -0.1134275496006, 0.0613276511431, -0.1636047661304, -0.0695019960403, -0.7345452904701, 0.0265791453421, 0.0154461041093, 0.1095918715000, -0.2711129188538, -0.5591788291931, -0.8221724033356, 0.0606903657317, -1.1823623180389, 0.1835960745811, -0.0133546236902, -0.0408584401011, -0.5178267955780, 0.0879825800657, 0.1197908818722, -0.0878880470991, 0.1549195051193, 0.2225228250027, -0.1004429608583, -0.2988879084587, -0.7891557812691, 0.1266589760780, 0.1531683206558, 0.3467645645142, -0.1746558547020, -0.0868047773838, 0.0195575952530, 0.6881011724472, 0.1542215943336, 0.4672475457191, -0.2123395800591, 0.0364756882191, -0.5134700536728, -0.0649389624596, 0.2506691813469, -0.7441363334656, 0.0146999936551, 0.9618028402328, 0.6180835962296, 0.1971636116505, -0.0221127532423, -0.4128596782684, -0.1272359490395, -0.1348741352558, 0.0888046920300, 0.1744471490383, -0.0479312762618, -0.8339169025421, 0.0394416823983, -0.0408279448748, 0.1754654645920, -0.0753624588251, 0.0389198958874, 0.0000000000000, 0.0000000000000, 0.0000000000000, 0.0000000000000, 0.0000000000000, 0.0000000000000, 0.0000000000000, 0.0000000000000, 0.0000000000000, 0.0000000000000, 0.0000000000000, 0.0000000000000, 0.0000000000000, 0.0000000000000, 0.0000000000000, 0.0000000000000, 0.0848121941090, -0.0455282777548, -0.2101121544838, -0.0028980961069, -0.0714647173882, -0.1111581027508, 0.1970228850842, -0.1421726644039, -0.1457377672195, -0.1540098786354, -0.1910540461540, -0.1323187947273, 0.0575966238976, -0.1106982231140, 0.0827363729477, -0.1296758353710, -0.3636079430580, -0.1839898228645, -0.0200205221772, -0.0843440741301, -0.1571694314480, -0.2283336818218, -0.0887048989534, -0.0475905537605, -0.0152163803577, -0.1580350995064, -0.2559469938278, -0.0423825085163, -0.2012830078602, 0.0756278932095, -0.2673639059067, -0.1999205946922, -0.2067234516144, -0.0147821903229, -0.1432771086693, -0.2389300763607, -0.1570600867271, 0.1983350515366, -0.2577523589134, -0.0376058518887, -0.0908062756062, -0.2872894406319, -0.0082741696388, -0.1347805857658, 0.0931903868914, 0.1157772243023, -0.1104099452496, -0.0460814237595, -0.0595870167017, 0.0619473457336, -0.1900721788406, -0.1685211062431, -0.1362386643887, 0.0265224575996, 0.0580616295338, -0.0043306192383, -0.1202855259180, -0.2140717804432, 0.1731554269791, 0.1971882581711, 0.0730235576630, -0.1798225343227, -0.0927207022905, 0.0002473833738, 0.1073645055294, -0.1750197112560, -0.2179699838161, -0.0674538314342, 0.2068560719490, 0.1966145634651, -0.1311625838280, -0.1781685054302, -0.0816702395678, 0.0372551083565, -0.1662650108337, -0.2069154381752, -0.0253260210156, 0.0872005820274, -0.0240562260151, -0.1894554495811, 0.0349467992783, -0.3345523476601, -0.0048800427467, -0.1837461292744, -0.1339721679688, 0.0957570075989, -0.3212658762932, 0.1706375479698, -0.0614842772484, 0.0642137825489, -0.0172099769115, -0.3975411057472, 0.0803579092026, 0.0373080745339, -0.2524063587189, -0.2309964895248, 0.0131232030690, -0.0840106904507, 0.0301853567362, -0.1755008995533, -0.0510483086109, 0.0570339784026, -0.1859633326530, 0.0351641476154, -0.0003629922867, -0.2120342254639, -0.0908468514681, -0.2162653505802, 0.1396627426147, 0.0637050122023, -0.0039831697941, -0.1728027462959, 0.0000000000000, 0.0000000000000, 0.0000000000000, 0.0000000000000, 0.0000000000000, 0.0000000000000, 0.0000000000000, 0.0000000000000, 0.0000000000000, 0.0000000000000, 0.0000000000000, 0.0000000000000, 0.0000000000000, 0.0000000000000, 0.0000000000000, 0.0000000000000, -0.2195019721985, 0.1208853125572, 0.0501890778542, -0.1664457023144, -0.1760694980621, -0.2192229330540, -0.2183743417263, 0.1706312000751, -0.1337249577045, -0.1263212859631, 0.2026872336864, -0.0320076271892, -0.0069081829861, 0.1259262263775, -0.1438877582550, -0.1357136070728, -0.0332427546382, -0.0926520079374, 0.0131065472960, -0.1435239911079, 0.0569184496999, 0.1238781213760, 0.1506720185280, -0.0229564234614, 0.1372956931591, -0.2001562416553, -0.2542722225189, -0.0940624773502, -0.1986868679523, 0.2153035700321, -0.0179242901504, 0.1104410439730, -0.1411130130291, -0.1394139528275, -0.2049259841442, 0.0838907063007, -0.2095784842968, -0.0706145018339, -0.0751188397408, 0.1645846366882, 0.0401362106204, -0.1961095035076, 0.0811761170626, 0.1106348782778, -0.0562192946672, -0.0459038466215, 0.2322393059731, -0.1237653791904, -0.2169089019299, 0.1276205182076, -0.2216558754444, 0.0375293642282, -0.0583372488618, -0.1276031136513, -0.2538569569588, -0.2131955027580, 0.0814367383718, 0.1719818115234, -0.2065488696098, -0.0770151317120, -0.2923346757889, 0.0002946299501, 0.1594859063625, 0.0741735994816, 0.1830202639103, 0.1399979889393, -0.0283016636968, 0.0302099511027, -0.1354866027832, 0.0972547978163, 0.0017540736590, -0.2038577497005, -0.2662931680679, 0.1503087282181, -0.0602270215750, -0.1816171705723, -0.0670731514692, -0.1731407940388, 0.0502763465047, -0.2688690423965, -0.1118262857199, 0.0686012357473, -0.2058149576187, 0.0977290868759, 0.0994643568993, 0.0927087366581, -0.0294753275812, 0.0120640099049, 0.0942239314318, 0.0251994132996, 0.1331070661545, 0.0817757546902, 0.1630385220051, -0.0712587833405, 0.1372520625591, -0.0320120006800, -0.1577052772045, 0.1879239976406, -0.1949695348740, 0.0464883744717, -0.1376363933086, 0.0449763312936, -0.1510583758354, -0.0702523738146, 0.1306881606579, 0.1612174510956, 0.1110081374645, -0.1779538989067, 0.0630494505167, 0.0020508952439, 0.0778479576111, 0.1603263318539, 0.0000000000000, 0.0000000000000, 0.0000000000000, 0.0000000000000, 0.0000000000000, 0.0000000000000, 0.0000000000000, 0.0000000000000, 0.0000000000000, 0.0000000000000, 0.0000000000000, 0.0000000000000, 0.0000000000000, 0.0000000000000, 0.0000000000000, 0.0000000000000, 0.1920209825039, 0.1486947238445, 0.1894090175629, 0.1058145612478, -0.2414717674255, -0.0470484495163, 0.1636890769005, 0.0259686782956, 0.1359640359879, -0.1411521732807, -0.1177006214857, -0.2220774590969, 0.1168804615736, 0.1275016963482, 0.1184547245502, 0.0431763082743, -0.0526617467403, -0.0002442896366, -0.2130138278008, 0.0475405752659, 0.0813112705946, 0.0495882034302, 0.0458920821548, 0.1117328107357, 0.0783388018608, -0.2040572464466, -0.2845367789268, -0.1909756958485, -0.2288311719894, 0.1022364497185, -0.0933487415314, 0.0046282596886, -0.1268677115440, -0.1562337875366, -0.0115119218826, 0.1094613671303, 0.0533022582531, -0.1390184164047, 0.0132140871137, 0.1133656650782, 0.0511898845434, 0.1597216427326, -0.0883265435696, 0.0372249111533, -0.1121667921543, 0.0512384474277, 0.1761650443077, -0.0944766998291, -0.0270816385746, 0.1064616888762, -0.3272235989571, -0.1122267395258, -0.1156902015209, 0.1012590229511, 0.1297506392002, -0.0501944497228, -0.2245775461197, 0.0967061519623, -0.0157680958509, 0.0032285456546, -0.0756170749664, -0.3102644681931, 0.1928480565548, -0.3864458799362, 0.1764746308327, -0.1644404530525, -0.1234935522079, -0.0352676287293, -0.1028759628534, -0.1922205984592, -0.1487167179585, -0.0286503583193, -0.2399144470692, 0.0420757532120, 0.0491477027535, 0.1858413219452, 0.0588313788176, 0.0499489009380, -0.2077264487743, -0.2529761791229, 0.1060089766979, -0.2465825378895, 0.0912789851427, -0.0146622806787, 0.0313399136066, -0.2222574055195, -0.0004037914332, -0.1929801106453, -0.1656117439270, -0.1426913440228, -0.1625181734562, -0.2658557295799, 0.0976284742355, -0.3308647871017, -0.0382170528173, 0.0242262482643, -0.2142626941204, 0.1362701356411, -0.1493775844574, -0.1209608167410, -0.2423239052296, -0.1843636929989, 0.1663894355297, -0.0367114990950, -0.2064138352871, -0.0121263861656, -0.2356108725071, -0.1453869938850, -0.3532930016518, -0.1285020411015, 0.1031671166420, -0.0334719419479, 0.0000000000000, 0.0000000000000, 0.0000000000000, 0.0000000000000, 0.0000000000000, 0.0000000000000, 0.0000000000000, 0.0000000000000, 0.0000000000000, 0.0000000000000, 0.0000000000000, 0.0000000000000, 0.0000000000000, 0.0000000000000, 0.0000000000000, 0.0000000000000, 0.0066817020997, 0.1521080732346, -0.2435292601585, -0.1132043004036, 0.0232379734516, 0.0905238091946, 0.1631083488464, -0.6623315811157, -2.0212025642395, 0.2009809613228, -0.0727738291025, -2.0306835174561, -0.1697547435760, -0.2259143590927, 0.0002306387469, -0.5753062963486, 0.2663185596466, 0.1433225274086, -0.1208125948906, -0.0226424932480, 0.3580650091171, -0.1317022740841, -0.7600505352020, -0.9802176356316, 0.0890274643898, 0.2364193201065, 0.6849635839462, -0.0593617111444, -0.1150495260954, 0.1849585771561, 0.6332819461823, -0.1435151696205, 0.1013841629028, -0.1883435547352, 0.1976663172245, -0.1630356609821, -0.0807245969772, -0.0937164947391, -0.3586738109589, -0.0864171534777, 1.2923326492310, -0.4650784134865, -0.0764096826315, 0.0020512295887, -0.2883476614952, -0.0368459522724, 0.1705887913704, 0.1861037313938, 0.1228566765785, -0.2237892448902, -1.5213688611984, 0.0578807592392, -0.0290373675525, -0.2835594415665, 0.1472261846066, 0.0739286541939, 0.0145845897496, 0.0127220898867, 0.0052582109347, 0.0371708869934, -0.1714150309563, 0.1607927680016, 0.1939704120159, 0.0366116538644, 0.0430840551853, -0.0430109500885, 0.0414775535464, -0.1606853604317, 0.2259857356548, -0.1431865394115, 0.1426584422588, -0.1058676391840, -0.1802182793617, 0.0879046618938, -0.2762718200684, -0.0020692050457, 0.0285581424832, -0.1027007550001, 0.0653058588505, -0.1414428949356, 0.1851006746292, -0.2375376224518, 0.0207897759974, 0.1058675944805, -0.0039288252592, -0.0312630385160, 0.0928154736757, -0.1601861119270, -0.1037929654121, 0.0205351412296, 0.1319834887981, -0.2395659685135, 0.1076492071152, -0.2307602167130, -0.0781033486128, 0.0349025279284, 0.1810681819916, 0.0410048589110, 0.0352716147900, 0.1411029994488, 0.1510457992554, -0.0205671489239, 0.1021124422550, -0.0246068388224, -0.2055108249187, -0.1634607017040, -0.0036200191826, -0.0289591401815, 0.0818556249142, -0.1889680325985, 0.1629857122898, -0.0950389355421, 0.0000000000000, 0.0000000000000, 0.0000000000000, 0.0000000000000, 0.0000000000000, 0.0000000000000, 0.0000000000000, 0.0000000000000, 0.0000000000000, 0.0000000000000, 0.0000000000000, 0.0000000000000, 0.0000000000000, 0.0000000000000, 0.0000000000000, 0.0000000000000, 0.0090206693858, -0.1463461816311, -0.2564464211464, -0.0606033056974, 0.1101848930120, -0.1737051010132, -0.1258833706379, 0.0932393074036, 0.1939449310303, 0.0165370739996, -0.0587536171079, 0.1054841428995, 0.0521836578846, 0.0485937297344, -0.0654630810022, -0.2966530919075, -0.1654189527035, -0.1748034656048, -0.0742207765579, -0.2107134163380, -0.2248928844929, -0.0878437757492, 0.0844683945179, 0.1028232425451, 0.0600588917732, 0.0470381304622, -0.1793738603592, -0.0238899812102, 0.1037909388542, -0.1066533029079, -0.1688836812973, -0.1136399954557, -0.0450803339481, -0.0733219385147, 0.1684193909168, 0.0479920133948, -0.2093927860260, 0.0747588872910, 0.0977820605040, -0.0581874996424, -0.0290810540318, 0.0465317070484, -0.1039457768202, -0.3099014163017, 0.1188323348761, 0.0313996598125, -0.2776172757149, -0.0762255787849, -0.1923877000809, 0.1135928034782, -0.1441659331322, 0.0891299843788, 0.0967216938734, -0.2198997139931, -0.2718886733055, -0.2005334794521, -0.1970038712025, 0.0106071978807, -0.1381939947605, -0.0464635342360, 0.0618777051568, -0.2374407052994, -0.1284727156162, 0.1766576468945, 0.0926793217659, 0.0590584725142, -0.0560143887997, -0.2481116056442, -0.1224302798510, 0.2252045571804, -0.1294586956501, -0.1653136312962, 0.1172911971807, -0.2163064181805, -0.2539599537849, 0.1015868782997, 0.1257328093052, -0.2873147130013, -0.2130188345909, -0.1179934740067, 0.1656011939049, -0.2501141428947, -0.0139458905905, -0.0747423619032, -0.2119506895542, 0.0198296904564, 0.1428652107716, 0.0544903203845, -0.1466053426266, 0.1876763999462, 0.1007362902164, 0.0004053696757, 0.0489831268787, -0.0125818941742, 0.1510726809502, -0.0682113468647, -0.1539272367954, -0.1783872246742, 0.0333196744323, -0.0302864126861, -0.1728012561798, 0.1954000294209, 0.2044760286808, -0.0892253518105, 0.0803528428078, -0.0584600865841, 0.0680532008410, 0.0382606014609, -0.0310035161674, -0.0604751855135, -0.0780406147242, -0.2617086768150, 0.0000000000000, 0.0000000000000, 0.0000000000000, 0.0000000000000, 0.0000000000000, 0.0000000000000, 0.0000000000000, 0.0000000000000, 0.0000000000000, 0.0000000000000, 0.0000000000000, 0.0000000000000, 0.0000000000000, 0.0000000000000, 0.0000000000000, 0.0000000000000, -0.2446217536926, 0.1829718053341, -0.0292428024113, -0.3305583000183, -0.2657387852669, -0.1131745278835, -0.0051309317350, -0.1033830642700, 0.2281061708927, -0.1544179320335, -0.0656480044127, 0.1364766359329, 0.0648810118437, -0.1056837737560, -0.1977755129337, 0.1372835934162, -0.2727330923080, 0.0909528732300, 0.1145053952932, 0.1520340740681, -0.1804704666138, -0.2028213143349, -0.0794442892075, -0.0963029414415, 0.0469712615013, -0.0191566050053, -0.2367409169674, 0.0328220129013, -0.0174585729837, 0.0431447029114, -0.0388080477715, -0.0835978835821, -0.0376175940037, -0.2171623110771, -0.0222878307104, -0.1508005857468, 0.1078018248081, -0.1566459238529, -0.0026473514736, 0.1020911186934, -0.0559691637754, 0.0355039685965, -0.3306154608727, 0.1093229800463, 0.1895041763783, -0.1743001639843, 0.1707801818848, -0.0147455483675, -0.1168419867754, -0.1113536357880, 0.0121891703457, -0.2626445293427, 0.0424407646060, -0.1912181079388, 0.1283976733685, -0.0866412073374, -0.2104277610779, -0.0749619305134, -0.0192551165819, 0.1456482112408, 0.1341247558594, -0.0707821398973, 0.2090216279030, -0.3572897911072, 0.1813708841801, -0.2177557647228, 0.2045272886753, -0.2207440435886, 0.0394915044308, -0.0845897942781, 0.1829708814621, -0.2261678278446, 0.0177300646901, -0.1370073556900, 0.0811925083399, 0.1917379200459, -0.2347926497459, -0.2249952852726, 0.0264248549938, -0.1114699691534, -0.2251453697681, -0.1582251489162, -0.3138261437416, -0.0864869356155, 0.0510612130165, -0.1296834051609, -0.1204270720482, 0.1515112817287, -0.0593983530998, 0.2147299349308, 0.1808105409145, -0.2407191395760, -0.1634306609631, -0.2454389631748, -0.0204596482217, -0.1238910257816, -0.3658967018127, -0.0581106990576, 0.0340623185039, -0.1391129493713, 0.1818493902683, 0.0228706300259, -0.1971034407616, 0.0730410218239, 0.1908706128597, 0.0318132564425, -0.1583394706249, -0.0582143962383, -0.2318546473980, -0.0155524555594, 0.0738929361105, 0.1133127063513, 0.0000000000000, 0.0000000000000, 0.0000000000000, 0.0000000000000, 0.0000000000000, 0.0000000000000, 0.0000000000000, 0.0000000000000, 0.0000000000000, 0.0000000000000, 0.0000000000000, 0.0000000000000, 0.0000000000000, 0.0000000000000, 0.0000000000000, 0.0000000000000, -0.2122966945171, -0.0453849583864, -0.1591992080212, -0.0193460248411, -0.1010031998158, 0.0814076662064, 0.0733854174614, 0.1205025017262, -0.2203528285027, -0.0499258786440, 0.0435785576701, 0.0532608106732, 0.1018969267607, 0.0853408873081, 0.1313317418098, -0.2227989137173, -0.1035378277302, 0.1960172653198, 0.0256759338081, -0.1869970858097, 0.1265442669392, -0.1698718965054, 0.0857288390398, -0.2741602659225, -0.1067452281713, -0.2063482701778, -0.1811331212521, 0.0037306160666, -0.0258178859949, -0.1108174771070, -0.1444290876389, 0.0927559882402, -0.0514325276017, -0.0292159020901, 0.2113175392151, -0.2326106131077, -0.0571068078279, 0.1055771261454, 0.1117727756500, 0.1206242591143, 0.1468922793865, -0.1302780807018, -0.0099627934396, -0.0641552656889, 0.0591826885939, -0.0786556452513, 0.1230157315731, -0.1761616468430, -0.1917904019356, -0.2418692409992, -0.3729825019836, 0.0778003334999, -0.2679332494736, -0.0832933336496, 0.2743821144104, -0.1827077567577, -0.1264796257019, -0.0247011482716, -0.0135192666203, 0.0592149570584, 0.1714181303978, -0.0117825586349, -0.0565544813871, -0.2733141183853, 0.1419737935066, -0.0186012759805, -0.1529861390591, -0.0554157719016, -0.0657270848751, 0.0489752590656, 0.1050077527761, 0.0396802946925, 0.0627441406250, 0.1321761310101, 0.0672682374716, 0.1855676174164, -0.2793912887573, 0.0701337009668, 0.0312004014850, -0.0747875869274, -0.0380195528269, 0.1227232068777, 0.0774362981319, 0.2064747512341, -0.1250334978104, -0.0426664203405, -0.2303977012634, 0.1110877841711, -0.1135296374559, -0.2221491038799, 0.0001018196344, -0.2445321381092, -0.0063017606735, 0.0831412523985, -0.0031523820944, 0.1170360445976, 0.1287078559399, -0.0914784818888, 0.0415208935738, -0.0318580046296, -0.1417818665504, -0.0924385190010, 0.0929822325706, 0.0992335975170, -0.0502554327250, 0.1220780909061, 0.0142734497786, -0.1788586974144, 0.0141376312822, 0.2321906387806, 0.0366584807634, -0.1114360988140, 0.0000000000000, 0.0000000000000, 0.0000000000000, 0.0000000000000, 0.0000000000000, 0.0000000000000, 0.0000000000000, 0.0000000000000, 0.0000000000000, 0.0000000000000, 0.0000000000000, 0.0000000000000, 0.0000000000000, 0.0000000000000, 0.0000000000000, 0.0000000000000, -0.1497821509838, 0.0684097111225, -0.1633514165878, -0.1103812903166, 0.0427310615778, -0.2975700497627, -0.0048041939735, -0.0854137986898, 0.1150691211224, 0.0578513890505, -0.2149071395397, 0.0570378229022, -0.1628299951553, -0.2909883856773, 0.1259433627129, 0.0159606114030, 0.1165254414082, 0.1146751642227, -0.1595432758331, 0.0086209326982, -0.3011964559555, -0.0231704078615, -0.1201477497816, 0.1408424675465, -0.1634148359299, -0.1302869915962, 0.0319731160998, 0.0172154456377, 0.1079914867878, 0.2054785490036, 0.0745554119349, 0.0673895478249, -0.0710935145617, -0.1526286005974, -0.0035818815231, -0.1492863893509, 0.1024721860886, 0.1349843740463, -0.1213805377483, -0.0292289629579, -0.0852948874235, -0.2795077562332, -0.0416928380728, 0.0537160858512, 0.1233402788639, -0.0010154091287, 0.1064621657133, 0.1195620298386, 0.1383891999722, -0.2555010914803, -0.0576852336526, -0.1257029771805, -0.0817101150751, -0.1325919926167, 0.0428638607264, -0.0736784487963, -0.0104265362024, 0.0018597841263, 0.1737712025642, -0.0208922922611, 0.0850232392550, 0.0187753811479, -0.1215510964394, -0.0510746687651, 0.1215471327305, -0.2170901894569, 0.2215520143509, 0.0284229442477, 0.0717236101627, -0.2005882561207, 0.0589845180511, 0.0934865921736, -0.0610104650259, 0.1401692032814, -0.2139154374599, -0.1958171725273, -0.2451480925083, 0.1534880995750, -0.0399150997400, -0.2426630854607, -0.0198999941349, -0.0805041640997, -0.2036796212196, -0.1308770179749, 0.2017601430416, -0.1607756316662, -0.0814943015575, 0.1382985413074, -0.1443512439728, -0.1658425629139, -0.1140183806419, -0.0281346105039, 0.1879302859306, -0.0378050506115, 0.1674724519253, 0.0855741500854, -0.0564711466432, 0.0390241146088, 0.0115940943360, -0.0526240915060, -0.1361935734749, -0.0519445389509, -0.0676244497299, 0.0165392309427, -0.0451692491770, 0.0326423346996, -0.0350999608636, -0.1307784020901, -0.2099980413914, 0.2156756818295, 0.0291394293308, -0.1159428656101, 0.0000000000000, 0.0000000000000, 0.0000000000000, 0.0000000000000, 0.0000000000000, 0.0000000000000, 0.0000000000000, 0.0000000000000, 0.0000000000000, 0.0000000000000, 0.0000000000000, 0.0000000000000, 0.0000000000000, 0.0000000000000, 0.0000000000000, 0.0000000000000, -0.1120665073395, 0.0337834060192, -0.0458661913872, -0.0197308361530, -0.0389929711819, -0.1655999124050, 0.1319376230240, 0.0991528481245, -0.2595164179802, -0.2833410501480, 0.0552809387445, -0.1405349969864, 0.0695505887270, -0.0779043287039, -0.1796011924744, -0.0244984924793, 0.0300172120333, 0.0275760293007, 0.1526317298412, 0.0480261445045, 0.1010502576828, 0.2019682824612, -0.1033557057381, -0.4333856105804, 0.0138043463230, 0.1362146139145, 0.1145989745855, -0.0355118662119, -0.1809618473053, -0.1028802692890, -0.1008355170488, 0.0355213358998, -0.2016983330250, -0.0240675956011, 0.2087482511997, -0.2648232579231, -0.0861203074455, -0.1176238656044, -0.1743836104870, -0.1959164142609, -0.0866342037916, 0.2085932493210, -0.2526791691780, -0.2217808961868, -0.1603794991970, -0.1144125163555, -0.0557828545570, 0.1850913763046, 0.0717045366764, -0.0100445356220, -0.3729047179222, -0.1940645277500, 0.0210201926529, -0.1345402002335, 0.2532826662064, 0.1224484294653, 0.1405990123749, -0.2190376520157, -0.2035212814808, 0.1580612361431, -0.2192235887051, -0.1821932494640, 0.0581168830395, 0.0728075802326, -0.0268419235945, 0.0968614071608, 0.0449551492929, -0.0324854031205, 0.0476209521294, -0.0514711439610, -0.1328316628933, -0.1094964444637, 0.1673736870289, 0.1869747340679, 0.0545534566045, 0.1439840197563, -0.1145649105310, -0.0584458187222, 0.0657473504543, -0.2385712563992, -0.1493408083916, -0.1243598908186, -0.1278194785118, 0.1317607760429, -0.0932403206825, -0.0862912684679, 0.0336938872933, -0.2763064503670, 0.0729422420263, -0.2200770080090, -0.1265521943569, 0.0913000851870, -0.1656345129013, -0.0176639966667, -0.2834413647652, -0.0840336680412, -0.2656112909317, -0.2495085000992, -0.0326392799616, 0.1338315308094, -0.2564656734467, 0.0668531209230, 0.0759229362011, -0.0222792774439, -0.2170014977455, -0.0339534729719, -0.0321802124381, -0.2249734401703, -0.2808656096458, -0.0669500380754, -0.0918210297823, -0.0033675753511, 0.0000000000000, 0.0000000000000, 0.0000000000000, 0.0000000000000, 0.0000000000000, 0.0000000000000, 0.0000000000000, 0.0000000000000, 0.0000000000000, 0.0000000000000, 0.0000000000000, 0.0000000000000, 0.0000000000000, 0.0000000000000, 0.0000000000000, 0.0000000000000, -0.1274118721485, -0.1009473055601, 0.0913587361574, 0.1705401241779, -0.0569472312927, -0.1971380114555, 0.0357559919357, 0.0899174809456, 0.0739206969738, -0.2467854619026, -0.0836176425219, 0.1168910712004, 0.0870399475098, 0.0500251352787, 0.1200379133224, 0.0762201696634, 0.1368092000484, -0.1646658182144, -0.2052240967751, -0.1382392048836, -0.1072544157505, 0.0881411135197, 0.1077499836683, -0.1585069894791, -0.2252990603447, 0.0990858674049, 0.0919399261475, -0.0091884750873, 0.0407178997993, -0.0538119375706, -0.2719784379005, -0.2349665462971, 0.1636170148849, -0.0387537628412, -0.0265192687511, 0.0667141079903, 0.1229643523693, -0.2493475675583, -0.1101432740688, 0.1605966985226, -0.0187009871006, -0.2738744020462, 0.1252005696297, -0.0986157357693, 0.1422292292118, -0.0365462601185, -0.2101718485355, -0.0183059126139, 0.1470258235931, 0.1274679601192, -0.1248108595610, -0.2240507304668, -0.0393808782101, -0.1710461676121, 0.0503955110908, -0.1020524501801, -0.0202395506203, -0.2252869904041, 0.1025187671185, 0.2679622769356, -0.1318541169167, 0.1265655755997, 0.0558095574379, 0.2429847121239, 0.3620953261852, 0.2119997143745, -0.1896394789219, 1.3158261775970, 0.1482595205307, -0.1782550811768, -0.0533563196659, 0.3563001155853, -0.1788628995419, -0.1152608841658, -0.0080320872366, 0.0418006479740, -0.0427980422974, 0.2255297601223, 0.1508070677519, 0.7553431987762, -0.1159917265177, -0.0093736965209, -0.3003775775433, -0.1729098260403, 0.1557162106037, 0.1456422507763, -0.7411878108978, -0.0828748792410, -0.2732390761375, 0.1911664605141, -0.1322369873524, 0.5069993734360, -0.0146677941084, 0.0121787767857, 0.5973105430603, 0.0437637716532, -0.9672510623932, 0.3929777145386, 0.1149494200945, -0.0576789826155, 0.5779074430466, -0.0731759816408, 0.1062650680542, 0.2013684511185, -0.2013415098190, 0.0351769402623, 0.4051555395126, 0.0548165589571, 0.1579351127148, -0.1612792909145, 0.1388661563396, -0.2592546343803, 0.0000000000000, 0.0000000000000, 0.0000000000000, 0.0000000000000, 0.0000000000000, 0.0000000000000, 0.0000000000000, 0.0000000000000, 0.0000000000000, 0.0000000000000, 0.0000000000000, 0.0000000000000, 0.0000000000000, 0.0000000000000, 0.0000000000000, 0.0000000000000, 0.0000000000000, 0.0000000000000, 0.0000000000000, 0.0000000000000, 0.0000000000000, 0.0000000000000, 0.0000000000000, 0.0000000000000, 0.0000000000000, 0.0000000000000, 0.0000000000000, 0.0000000000000, 0.0000000000000, 0.0000000000000, 0.0000000000000, 0.0000000000000, 0.0000000000000, 0.0000000000000, 0.0000000000000, 0.0000000000000, 0.0000000000000, 0.0000000000000, 0.0000000000000, 0.0000000000000, 0.0000000000000, 0.0000000000000, 0.0000000000000, 0.0000000000000, 0.0000000000000, 0.0000000000000, 0.0000000000000, 0.0000000000000, 0.0000000000000, 0.0000000000000, 0.0000000000000, 0.0000000000000, 0.0000000000000, 0.0000000000000, 0.0000000000000, 0.0000000000000, 0.0000000000000, 0.0000000000000, 0.0000000000000, 0.0000000000000, 0.0000000000000, 0.0000000000000, 0.0000000000000, 0.0000000000000, 0.0000000000000, 0.0000000000000, 0.0000000000000, 0.0000000000000, 0.0000000000000, 0.0000000000000, 0.0000000000000, 0.0000000000000, 0.0000000000000, 0.0000000000000, 0.0000000000000, 0.0000000000000, 0.0000000000000, 0.0000000000000, 0.0000000000000, 0.0000000000000, 0.0000000000000, 0.0000000000000, 0.0000000000000, 0.0000000000000, 0.0000000000000, 0.0000000000000, 0.0000000000000, 0.0000000000000, 0.0000000000000, 0.0000000000000, 0.0000000000000, 0.0000000000000, 0.0000000000000, 0.0000000000000, 0.0000000000000, 0.0000000000000, 0.0000000000000, 0.0000000000000, 0.0000000000000, 0.0000000000000, 0.0000000000000, 0.0000000000000, 0.0000000000000, 0.0000000000000, 0.0000000000000, 0.0000000000000, 0.0000000000000, 0.0000000000000, 0.0000000000000, 0.0000000000000, 0.0000000000000, 0.0000000000000, 0.0000000000000, 0.0000000000000, 0.0000000000000, 0.0000000000000, 0.0000000000000, 0.0000000000000, 0.0000000000000, 0.0000000000000, 0.0000000000000, 0.0000000000000, 0.0000000000000, 0.0000000000000, 0.0000000000000, 0.0000000000000, 0.0000000000000, 0.0000000000000, 0.0000000000000, 0.0000000000000, 0.0000000000000, 0.0000000000000, 0.0000000000000, 0.0000000000000, 0.0000000000000, 0.0000000000000, 0.0000000000000, 0.0000000000000, 0.0000000000000, 0.0000000000000, 0.0000000000000, 0.0000000000000, 0.0000000000000, 0.0000000000000, 0.0000000000000, 0.0000000000000, 0.0000000000000, 0.0000000000000, 0.0000000000000, 0.0000000000000, 0.0000000000000, 0.0000000000000, 0.0000000000000, 0.0000000000000, 0.0000000000000, 0.0000000000000, 0.0000000000000, 0.0000000000000, 0.0000000000000, 0.0000000000000, 0.0000000000000, 0.0000000000000, 0.0000000000000, 0.0000000000000, 0.0000000000000, 0.0000000000000, 0.0000000000000, 0.0000000000000, 0.0000000000000, 0.0000000000000, 0.0000000000000, 0.0000000000000, 0.0000000000000, 0.0000000000000, 0.0000000000000, 0.0000000000000, 0.0000000000000, 0.0000000000000, 0.0000000000000, 0.0000000000000, 0.0000000000000, 0.0000000000000, 0.0000000000000, 0.0000000000000, 0.0000000000000, 0.0000000000000, 0.0000000000000, 0.0000000000000, 0.0000000000000, 0.0000000000000, 0.0000000000000, 0.0000000000000, 0.0000000000000, 0.0000000000000, 0.0000000000000, 0.0000000000000, 0.0000000000000, 0.0000000000000, 0.0000000000000, 0.0000000000000, 0.0000000000000, 0.0000000000000, 0.0000000000000, 0.0000000000000, 0.0000000000000, 0.0000000000000, 0.0000000000000, 0.0000000000000, 0.0000000000000, 0.0000000000000, 0.0000000000000, 0.0000000000000, 0.0000000000000, 0.0000000000000, 0.0000000000000, 0.0000000000000, 0.0000000000000, 0.0000000000000, 0.0000000000000, 0.0000000000000, 0.0000000000000, 0.0000000000000, 0.0000000000000, 0.0000000000000, 0.0000000000000, 0.0000000000000, 0.0000000000000, 0.0000000000000, 0.0000000000000, 0.0000000000000, 0.0000000000000, 0.0000000000000, 0.0000000000000, 0.0000000000000, 0.0000000000000, 0.0000000000000, 0.0000000000000, 0.0000000000000, 0.0000000000000, 0.0000000000000, 0.0000000000000, 0.0000000000000, 0.0000000000000, 0.0000000000000, 0.0000000000000, 0.0000000000000, 0.0000000000000, 0.0000000000000, 0.0000000000000, 0.0000000000000, 0.0000000000000, 0.0000000000000, 0.0000000000000, 0.0000000000000, 0.0000000000000, 0.0000000000000, 0.0000000000000, 0.0000000000000, 0.0000000000000, 0.0000000000000, 0.0000000000000, 0.0000000000000, 0.0000000000000, 0.0000000000000, 0.0000000000000, 0.0000000000000, 0.0000000000000, 0.0000000000000, 0.0000000000000, 0.0000000000000, 0.0000000000000, 0.0000000000000, 0.0000000000000, 0.0000000000000, 0.0000000000000, 0.0000000000000, 0.0000000000000, 0.0000000000000, 0.0000000000000, 0.0000000000000, 0.0000000000000, 0.0000000000000, 0.0000000000000, 0.0000000000000, 0.0000000000000, 0.0000000000000, 0.0000000000000, 0.0000000000000, 0.0000000000000, 0.0000000000000, 0.0000000000000, 0.0000000000000, 0.0000000000000, 0.0000000000000, 0.0000000000000, 0.0000000000000, 0.0000000000000, 0.0000000000000, 0.0000000000000, 0.0000000000000, 0.0000000000000, 0.0000000000000, 0.0000000000000, 0.0000000000000, 0.0000000000000, 0.0000000000000, 0.0000000000000, 0.0000000000000, 0.0000000000000, 0.0000000000000, 0.0000000000000, 0.0000000000000, 0.0000000000000, 0.0000000000000, 0.0000000000000, 0.0000000000000, 0.0000000000000, 0.0000000000000, 0.0000000000000, 0.0000000000000, 0.0000000000000, 0.0000000000000, 0.0000000000000, 0.0000000000000, 0.0000000000000, 0.0000000000000, 0.0000000000000, 0.0000000000000, 0.0000000000000, 0.0000000000000, 0.0000000000000, 0.0000000000000, 0.0000000000000, 0.0000000000000, 0.0000000000000, 0.0000000000000, 0.0000000000000, 0.0000000000000, 0.0000000000000, 0.0000000000000, 0.0000000000000, 0.0000000000000, 0.0000000000000, 0.0000000000000, 0.0000000000000, 0.0000000000000, 0.0000000000000, 0.0000000000000, 0.0000000000000, 0.0000000000000, 0.0000000000000, 0.0000000000000, 0.0000000000000, 0.0000000000000, 0.0000000000000, 0.0000000000000, 0.0000000000000, 0.0000000000000, 0.0000000000000, 0.0000000000000, 0.0000000000000, 0.0000000000000, 0.0000000000000, 0.0000000000000, 0.0000000000000, 0.0000000000000, 0.0000000000000, 0.0000000000000, 0.0000000000000, 0.0000000000000, 0.0000000000000, 0.0000000000000, 0.0000000000000, 0.0000000000000, 0.0000000000000, 0.0000000000000, 0.0000000000000, 0.0000000000000, 0.0000000000000, 0.0000000000000, 0.0000000000000, 0.0000000000000, 0.0000000000000, 0.0000000000000, 0.0000000000000, 0.0000000000000, 0.0000000000000, 0.0000000000000, 0.0000000000000, 0.0000000000000, 0.0000000000000, 0.0000000000000, 0.0000000000000, 0.0000000000000, 0.0000000000000, 0.0000000000000, 0.0000000000000, 0.0000000000000, 0.0000000000000, 0.0000000000000, 0.0000000000000, 0.0000000000000, 0.0000000000000, 0.0000000000000, 0.0000000000000, 0.0000000000000, 0.0000000000000, 0.0000000000000, 0.0000000000000, 0.0000000000000, 0.0000000000000, 0.0000000000000, 0.0000000000000, 0.0000000000000, 0.0000000000000, 0.0000000000000, 0.0000000000000, 0.0000000000000, 0.0000000000000, 0.0000000000000, 0.0000000000000, 0.0000000000000, 0.0000000000000, 0.0000000000000, 0.0000000000000, 0.0000000000000, 0.0000000000000, 0.0000000000000, 0.0000000000000, 0.0000000000000, 0.0000000000000, 0.0000000000000, 0.0000000000000, 0.0000000000000, 0.0000000000000, 0.0000000000000, 0.0000000000000, 0.0000000000000, 0.0000000000000, 0.0000000000000, 0.0000000000000, 0.0000000000000, 0.0000000000000, 0.0000000000000, 0.0000000000000, 0.0000000000000, 0.0000000000000, 0.0000000000000, 0.0000000000000, 0.0000000000000, 0.0000000000000, 0.0000000000000, 0.0000000000000, 0.0000000000000, 0.0000000000000, 0.0000000000000, 0.0000000000000, 0.0000000000000, 0.0000000000000, 0.0000000000000, 0.0000000000000, 0.0000000000000, 0.0000000000000, 0.0000000000000, 0.0000000000000, 0.0000000000000, 0.0000000000000, 0.0000000000000, 0.0000000000000, 0.0000000000000, 0.0000000000000, 0.0000000000000, 0.0000000000000, 0.0000000000000, 0.0000000000000, 0.0000000000000, 0.0000000000000, 0.0000000000000, 0.0000000000000, 0.0000000000000, 0.0000000000000, 0.0000000000000, 0.0000000000000, 0.0000000000000, 0.0000000000000, 0.0000000000000, 0.0000000000000, 0.0000000000000, 0.0000000000000, 0.0000000000000, 0.0000000000000, 0.0000000000000, 0.0000000000000, 0.0000000000000, 0.0000000000000, 0.0000000000000, 0.0000000000000, 0.0000000000000, 0.0000000000000, 0.0000000000000, 0.0000000000000, 0.0000000000000, 0.0000000000000, 0.0000000000000, 0.0000000000000, 0.0000000000000, 0.0000000000000, 0.0000000000000, 0.0000000000000, 0.0000000000000, 0.0000000000000, 0.0000000000000, 0.0000000000000, 0.0000000000000, 0.0000000000000, 0.0000000000000, 0.0000000000000, 0.0000000000000, 0.0000000000000, 0.0000000000000, 0.0000000000000, 0.0000000000000, 0.0000000000000, 0.0000000000000, 0.0000000000000, 0.0000000000000, 0.0000000000000, 0.0000000000000};

#endif
