//Numpy array shape [56, 56]
//Min -2.773368120193
//Max 0.951194405556
//Number of zeros 0

#ifndef W6_H_
#define W6_H_

#ifdef __INTELFPGA_COMPILER__
//hls_bankwidth(4)
//hls_numbanks(16)
//hls_max_replicates(1)
//hls_memory_impl("BLOCK_RAM")
#endif
static model_default_t w6[4096] = {-0.0921166688204, -0.0580063015223, -0.1765853464603, -0.2289840877056, -0.0604313760996, -0.1815020442009, -0.0874783098698, 0.0785607099533, 0.0219893455505, -0.2364188730717, 0.2237935662270, -0.0846245586872, 0.2194833755493, -0.0845700949430, -0.2502174377441, 0.1660255193710, -0.1443391144276, 0.1176257729530, -0.1333664953709, 0.2203979194164, -0.0155256241560, 0.0286270380020, 0.0380838513374, -0.0164442509413, 0.2237094044685, 0.1916380524635, -0.2240613698959, 0.0369546413422, 0.1460606455803, -0.0031045717187, -0.2207322716713, -0.1868015527725, -0.1540952920914, -0.1011065095663, -0.0398202612996, -0.0031660795212, 0.2130953669548, 0.2280028760433, -0.0811580121517, -0.0606785416603, -0.0544160157442, -0.1388558745384, 0.0023020803928, -0.1796944141388, -0.2194929718971, -0.0726910978556, -0.0368084460497, -0.1598572731018, -0.0394986271858, 0.0999460518360, 0.1557321250439, -0.1768280267715, 0.0479533970356, -0.0757052451372, -0.0181092917919, 0.0627967119217, 0.1856222748756, 0.1416388154030, -0.1758317649364, -0.2092078030109, -0.0245754793286, -0.1222952306271, 0.2629590034485, -0.2142503857613, 0.1302807033062, -0.1942015290260, -0.0964268296957, 0.0540983527899, 0.2239941060543, -0.0494367554784, -0.0795851051807, -0.1950280070305, 0.2031969428062, 0.0269516706467, -0.1235517412424, -0.1492519378662, 0.0284104943275, 0.0219794102013, -0.0241229534149, 0.1347713470459, 0.2182438373566, -0.1076371669769, 0.0268845222890, 0.1140939295292, -0.2244299352169, -0.1272488832474, -0.1697791814804, 0.0252159871161, -0.2855103611946, -0.0246135666966, 0.0027049295604, -0.2324138879776, -0.2061915993690, 0.1486201584339, 0.1837183237076, 0.0233366228640, 0.2196080684662, 0.1917107105255, 0.1014152914286, 0.1019096970558, 0.0827093869448, 0.0700832009315, -0.0941287130117, 0.1523738205433, -0.1212235838175, -0.0340004116297, 0.0080987401307, 0.0453255176544, -0.0955398082733, -0.0728056579828, 0.0702244043350, 0.0290907435119, 0.0000000000000, 0.0000000000000, 0.0000000000000, 0.0000000000000, 0.0000000000000, 0.0000000000000, 0.0000000000000, 0.0000000000000, 0.0000000000000, 0.0000000000000, 0.0000000000000, 0.0000000000000, 0.0000000000000, 0.0000000000000, 0.0000000000000, 0.0000000000000, 0.1601058542728, -0.1278205215931, -0.2237883806229, 0.0102912783623, -0.0052431188524, -0.1489348709583, 0.1381393969059, -0.1818093657494, 0.1278411149979, -0.0541833862662, -0.1677850484848, 0.0618025958538, 0.0559312105179, -0.2405717968941, -0.0749674439430, 0.0621755421162, -0.2289853394032, 0.1551790833473, -0.2299877107143, -0.0012582633644, 0.2202224433422, -0.0470050051808, 0.0299519523978, 0.1608662903309, 0.0083997696638, 0.1763772368431, 0.0112830493599, -0.0047552222386, -0.1341116428375, -0.2152579128742, -0.2290107607841, -0.2528941035271, -0.2765744328499, -0.2560676336288, -0.2513180375099, -0.2301244437695, 0.1666543185711, -0.0614294707775, 0.1362517178059, 0.0671470463276, -0.1139109432697, 0.1171726584435, 0.1629901528358, -0.0754917412996, 0.0204363726079, 0.1741132438183, -0.1539060175419, -0.1470123529434, 0.0328244566917, 0.0355191901326, 0.0184903852642, 0.0746350884438, -0.1307916045189, -0.0456622242928, -0.0004426481319, -0.2507029175758, 0.1267383098602, -0.0030079307035, -0.2009871304035, 0.1613622903824, -0.0298696607351, 0.1143514215946, 0.0765637308359, 0.0739695727825, 0.0032257833518, -0.2389931380749, -0.1458314657211, -0.2012198269367, -0.0560385510325, -0.0795380622149, -0.0165293067694, 0.0872520506382, 0.1305344402790, 0.1806377768517, 0.1605793833733, -0.1124170422554, -0.0014190971851, 0.0168824084103, 0.1084072887897, -0.2035638689995, -0.1507267653942, 0.0103114694357, 0.1561624109745, -0.0022454680875, -0.1078504025936, -0.1435094177723, -0.2636724710464, -0.1306202709675, -0.0139654874802, -0.1540932655334, -0.1742467582226, 0.0933187901974, -0.0126027315855, 0.0907372534275, 0.1270558536053, 0.1292226016521, 0.0800653547049, 0.0883695781231, -0.1196831017733, -0.1638864278793, -0.1785391867161, -0.0312671586871, -0.0785082727671, -0.0463151931763, 0.1545589566231, 0.0150496028364, -0.1059153974056, -0.0181535482407, 0.0987124592066, -0.0144108757377, -0.1535064876080, -0.2381058037281, 0.0000000000000, 0.0000000000000, 0.0000000000000, 0.0000000000000, 0.0000000000000, 0.0000000000000, 0.0000000000000, 0.0000000000000, 0.0000000000000, 0.0000000000000, 0.0000000000000, 0.0000000000000, 0.0000000000000, 0.0000000000000, 0.0000000000000, 0.0000000000000, -0.0516757965088, -0.2026591002941, -0.0415089130402, -0.0594922453165, -0.2234427928925, -1.6398031711578, 0.0021508187056, 0.0545461699367, -0.0415415614843, -0.2495458424091, 0.1277037262917, -0.2306242287159, 0.2095475792885, 0.1560494601727, -0.1538515388966, -0.0153932329267, -0.1088050752878, -0.2104039788246, -0.1641728878021, 0.3612993359566, -0.2067070603371, -0.3587816953659, -0.2815205454826, -0.1734287440777, 0.0750022828579, -0.1819170713425, 0.0610039532185, 0.1048028469086, 0.0808973908424, 0.0941910445690, -0.4068686962128, -0.1542352735996, 0.3281382918358, -0.2918875515461, -1.1262798309326, -0.1245831176639, -0.1531870067120, -0.1242578774691, 0.1237968504429, -0.1000611186028, -0.2262309491634, 0.1041906028986, 0.2746157050133, 0.0637620091438, 0.0629431903362, -0.0285841487348, -0.1781837940216, -0.0105844344944, 0.1018321961164, -0.1523898839951, -0.2306157350540, -0.0153754744679, 0.1635600030422, -0.0157099962234, -0.2208036184311, -0.6094356775284, 0.1505900621414, 0.0577813014388, 0.0282635092735, -0.0951628983021, 0.0318538099527, -0.1603055894375, -0.0336033776402, 0.1474372446537, 0.0282252468169, -0.1363311111927, -0.1857834458351, 0.1211975067854, 0.0292698033154, -0.0617698878050, -0.1361651122570, -0.2167189717293, -0.0552278161049, 0.0225393027067, -0.2005943655968, -0.1041189432144, -0.1125458180904, -0.1379922926426, 0.1966260075569, -0.1699677705765, -0.1004200875759, 0.2250694632530, 0.1149903833866, -0.0695099681616, -0.1094699352980, 0.0817102044821, 0.1461243033409, 0.0850205272436, 0.0573739707470, -0.2338348329067, -0.2013110518456, 0.0204949937761, -0.2155826389790, -0.0179084241390, 0.0678729414940, 0.0395068228245, -0.0364836752415, -0.1299269795418, -0.2189924716949, 0.1691309809685, 0.1309729516506, -0.0365750119090, -0.2293014526367, -0.1667003929615, -0.2936339974403, -0.0264214575291, 0.2614279985428, 0.1648046672344, -0.2196108102798, 0.1538451313972, 0.1301904022694, -0.1315153837204, 0.0000000000000, 0.0000000000000, 0.0000000000000, 0.0000000000000, 0.0000000000000, 0.0000000000000, 0.0000000000000, 0.0000000000000, 0.0000000000000, 0.0000000000000, 0.0000000000000, 0.0000000000000, 0.0000000000000, 0.0000000000000, 0.0000000000000, 0.0000000000000, -0.0371218323708, 0.1319107413292, 0.0559869259596, -0.1153951287270, 0.2635639309883, -0.2643602192402, -0.2088864445686, -0.0422742888331, 0.1027945578098, 0.0929229259491, -0.2324193120003, -0.1548375487328, 0.1894536912441, 0.0846398621798, 0.1801262944937, -0.1371782720089, -0.1849963068962, -0.2258745431900, -0.0500684902072, 0.1220414191484, -0.2148579061031, 0.3729757666588, 0.0674977898598, 0.0198589041829, -0.1926606893539, 0.0608322247863, 0.0265667960048, 0.1372458338737, 0.1919421553612, -0.7413078546524, 0.1175682693720, 0.1001211702824, -0.6348149776459, 0.1425656080246, -0.8372470140457, 0.1978572756052, 0.2482140362263, 0.0165784098208, -0.0395233109593, 0.0000884075998, 0.2013904750347, -0.0234340205789, -0.8025498390198, -0.1319600939751, 0.0108663868159, -0.0293832607567, 0.2430674135685, -0.0451363772154, -0.1932999491692, 0.1324312388897, -0.1592683494091, 0.1704090237617, 0.2200159728527, 0.0496061891317, -0.0013105389662, 0.4921407699585, 0.0232024788857, 0.1066569387913, 0.0549035593867, 0.2059403955936, -0.1678414046764, 0.5681807994843, 0.1203216910362, -0.1884727478027, -0.0719132870436, 0.3608266115189, -0.0203815586865, -0.2248434722424, 0.0391415357590, -0.0535302571952, -0.0610404685140, 0.0911324173212, -0.0354616716504, -0.1781468987465, 0.0001524756080, -0.2836675643921, 0.1092483550310, 0.3164756894112, 0.1380247175694, 0.1565045118332, -0.1741989552975, -0.2060824036598, 0.0037244856358, -0.0323448628187, -0.1544491648674, -0.5772002935410, 0.2340856492519, 0.0309648215771, -0.5957582592964, 0.1917838454247, -0.1401103436947, 0.3774488568306, 0.0797017812729, -0.0294664874673, -0.1629563570023, -0.1179985702038, -0.0501237362623, 0.0014587379992, 0.2504442930222, 0.1404342949390, -0.1115071177483, 0.1145559102297, 0.0914354920387, 0.1193296909332, 0.1496817171574, 0.0821563601494, 0.0612756907940, -0.0113647468388, 0.0715078562498, -0.1533370614052, 0.0565605983138, 0.7377086281776, 0.0000000000000, 0.0000000000000, 0.0000000000000, 0.0000000000000, 0.0000000000000, 0.0000000000000, 0.0000000000000, 0.0000000000000, 0.0000000000000, 0.0000000000000, 0.0000000000000, 0.0000000000000, 0.0000000000000, 0.0000000000000, 0.0000000000000, 0.0000000000000, 0.0593027770519, 0.1644585728645, -0.0349415913224, 0.1512804627419, -0.1232467740774, 0.0481950044632, -0.1200609952211, 0.0484731495380, -0.2673496007919, 0.0691082030535, 0.1668960154057, 0.0794761627913, 0.0074120014906, -0.0268741101027, -0.4540199637413, -0.2196166515350, 0.1097999066114, -0.0497928410769, 0.0815637707710, -0.0260150879622, -0.1643753349781, 0.1756640374660, -0.1491698920727, 0.0600414127111, 0.1134838461876, -0.1855841279030, 0.0810232460499, 0.1105204820633, 0.0867487937212, 0.1014257669449, 0.2259309589863, -0.0043375445530, -0.7819077968597, -0.2819205522537, -0.1298739910126, -0.0423763096333, 0.0533593147993, 0.1534698605537, -0.1337666213512, 0.1468580067158, 0.0343911647797, 0.1055548340082, -0.0342556312680, -0.2633089423180, 0.2116259932518, 0.0953277349472, -0.1198528110981, 0.0716903060675, 0.0201472193003, 0.2322970628738, -0.1065589487553, 0.1592544317245, -0.2002560198307, -0.0798222422600, -0.1926782727242, 0.1146426498890, -0.1222620308399, 0.0148137360811, -0.1327613294125, 0.1835824549198, 0.0439842790365, -0.4084969162941, -0.1690145432949, 0.0512968003750, -0.0121926069260, 0.0471611320972, 0.0199481546879, 0.0722437798977, -0.1663183569908, 0.1134441345930, 0.1182523667812, 0.2085916399956, -0.2126547694206, 0.0083057284355, -0.2665714025497, -0.2213434875011, 0.2280543744564, -0.1939981877804, 0.2241822779179, 0.0458258762956, 0.1353276968002, 0.2209030091763, 0.0929579436779, 0.0836537778378, -0.1336913406849, -0.2526198625565, -0.2107453048229, 0.1252326965332, -0.2978516817093, 0.0374198183417, -0.1701388061047, -0.1500777006149, -0.1411731839180, 0.1805458962917, 0.0466767027974, 0.0676115453243, 0.0538360625505, 0.1121363639832, -0.1213161647320, -0.1336826682091, -0.1654520034790, 0.1113023757935, -0.1011782139540, -0.0603055953979, -0.2024128437042, -0.2260359823704, 0.1013111770153, -0.0014587193727, 0.0641844421625, -0.1159191727638, -0.2350973784924, -0.1066095829010, 0.0000000000000, 0.0000000000000, 0.0000000000000, 0.0000000000000, 0.0000000000000, 0.0000000000000, 0.0000000000000, 0.0000000000000, 0.0000000000000, 0.0000000000000, 0.0000000000000, 0.0000000000000, 0.0000000000000, 0.0000000000000, 0.0000000000000, 0.0000000000000, 0.1206147372723, 0.1665692627430, -0.1555080711842, -0.0719380080700, -0.2243885993958, -0.0807389467955, -0.0050456468016, 0.0928071737289, 0.0824864357710, 0.1512905061245, -0.2164877951145, 0.1366508603096, -0.2829570174217, -0.1621646583080, -0.2198858857155, -0.1334394812584, -0.0592596083879, -0.1214159429073, -0.1876828670502, -0.0290900841355, -0.0155410170555, -0.2672141790390, 0.2829417586327, 0.1434544920921, 0.0264253616333, -0.2156020104885, -0.0958011150360, -0.2483685016632, 0.0533091947436, -0.0315600931644, 0.2068566977978, -0.0644772350788, -0.3188896179199, 0.1055453866720, 0.0121301747859, 0.0034341663122, 0.1397485435009, 0.1855994760990, 0.0506217032671, 0.0482535809278, -0.0534919127822, 0.1709014773369, -0.1687535643578, -0.0272615402937, 0.0916557461023, -0.2232903540134, -0.2189935147762, 0.1384827494621, -0.0942148119211, -0.0892832875252, 0.1246788352728, 0.1608982086182, 0.1527233421803, -0.0673212260008, -0.2006426155567, -0.0837485045195, -0.1726256906986, -0.1116594821215, 0.1905460953712, 0.0986329317093, 0.1555852890015, -0.1520607173443, 0.0738975107670, -0.1262677311897, -0.0785428285599, -0.1228332817554, 0.0717271566391, 0.2147227227688, -0.0398583710194, -0.1014854907990, -0.0018313829787, -0.1180628091097, -0.1355276703835, 0.0800449997187, -0.1549629569054, -0.2496254444122, 0.0613248944283, -0.0156806632876, 0.0368270874023, -0.2562698721886, -0.2256762981415, 0.1090297698975, -0.0814291536808, -0.2488593161106, -0.2054419517517, -0.2269382476807, 0.0653558671474, -0.2275612950325, -0.1490061581135, 0.0122254975140, 0.0524704009295, -0.1287763118744, 0.2060474157333, -0.1544247567654, -0.0077630411834, -0.0876545459032, 0.0558750554919, 0.0093886405230, 0.1087072789669, -0.1912971138954, -0.2610397934914, -0.0396093577147, -0.0264155454934, 0.1081823110580, 0.1421230435371, 0.1732425391674, -0.1607868969440, -0.0960195660591, -0.0659240335226, 0.1121392250061, -0.0015342452098, -0.0795027166605, 0.0000000000000, 0.0000000000000, 0.0000000000000, 0.0000000000000, 0.0000000000000, 0.0000000000000, 0.0000000000000, 0.0000000000000, 0.0000000000000, 0.0000000000000, 0.0000000000000, 0.0000000000000, 0.0000000000000, 0.0000000000000, 0.0000000000000, 0.0000000000000, -0.1352286934853, 0.0868286490440, -0.0116154942662, 0.0301800295711, 0.0098204109818, 0.7939782142639, 0.1315832734108, -0.2073314487934, 0.0240996479988, 0.2410992085934, -0.1679389774799, 0.0756888687611, -0.0980651974678, 0.0101848114282, -0.0500549301505, 0.0102857165039, -0.1095568090677, 0.0414330735803, -0.9786225557327, -0.0334069803357, 0.0142719391733, 0.0174429714680, 0.2368560731411, 0.1334695219994, -0.1085418909788, -0.2047904431820, -0.2184262871742, -0.0702349245548, 0.2136943340302, -0.1614983081818, -0.0095337871462, 0.2166574001312, -1.0807440280914, -0.0250636376441, -0.0267626754940, 0.3728511333466, -0.0228922218084, -0.1942194402218, 0.0990185588598, 0.0325971692801, 0.1332522332668, -0.0888135433197, -0.3162568211555, -0.1205985993147, 0.1957914829254, 0.2694939374924, -0.0504681244493, 0.1204131692648, -0.1066207885742, -0.2372513115406, -0.1892884671688, -0.0961454957724, 0.0120364427567, -0.1425297856331, -0.0513546541333, 0.2670390605927, 0.1442848443985, 0.1283676624298, -0.0402969941497, 0.0391697064042, -0.2160567343235, 0.0442784205079, -0.2032606601715, 0.0583114176989, 0.1057935357094, -0.0442770719528, -0.0326393470168, 0.1272863447666, 0.0874205231667, -0.4970660805702, 0.0796389579773, -0.1738509237766, 0.1901508569717, 0.1898485720158, 0.3000351786613, -0.1015032529831, 0.1816039681435, 0.0370286032557, 0.4309486150742, 0.2929912805557, 0.0587285012007, 0.0707349926233, -0.2111392319202, -0.0928335636854, -0.0706114023924, -0.6132308244705, -0.0716170668602, -0.2774280905724, -0.4034370183945, -0.2738680243492, -0.5932629108429, 0.7383451461792, 0.0227754525840, -0.0191326178610, -0.0532182306051, 0.0462019369006, -0.0284242145717, -0.0614665150642, -0.3605726957321, 0.0184694416821, 0.0351558029652, 0.2066439688206, 0.2947872281075, 0.2193264961243, 0.2026848196983, -0.0407143309712, -0.0280043631792, -0.0649912357330, -0.1462535560131, 0.0495224893093, -0.1212683320045, 0.1438355743885, 0.0000000000000, 0.0000000000000, 0.0000000000000, 0.0000000000000, 0.0000000000000, 0.0000000000000, 0.0000000000000, 0.0000000000000, 0.0000000000000, 0.0000000000000, 0.0000000000000, 0.0000000000000, 0.0000000000000, 0.0000000000000, 0.0000000000000, 0.0000000000000, 0.0625340789557, 0.1701110303402, -0.1419962048531, -0.2105799913406, 0.1232247352600, -0.0727051198483, -0.2558649778366, 0.0306999385357, -0.0578635334969, 0.1095536798239, 0.0711573362350, 0.0557296946645, -0.1330011487007, -0.2461827397346, -0.2317970693111, 0.1595737934113, -0.1492530107498, -0.1416983902454, -0.1409378051758, -0.1557069122791, 0.2066595554352, -0.0173674263060, -0.2422446012497, -0.0825852304697, -0.1301332414150, -0.1417827308178, 0.0324589163065, 0.1394127905369, -0.0998201966286, -0.3277693390846, -0.0228605605662, 0.0826484411955, -0.2367441356182, -0.2472503185272, -0.1546474099159, 0.0558391585946, 0.0108961462975, 0.2053214311600, -0.2008970081806, -0.0419177040458, 0.1828202605247, 0.0253414809704, -0.2102187871933, -0.0302011966705, 0.1544879674911, -0.0797503888607, 0.1117729693651, 0.1010914742947, -0.0478142574430, -0.2043003439903, 0.1559143662453, -0.1280903816223, -0.0458147302270, -0.1125963181257, -0.1991502642632, -0.1076420247555, -0.1772797107697, 0.0365094542503, -0.0815771818161, 0.0221284627914, 0.0474971532822, -0.0817493349314, -0.0647944957018, -0.1527488529682, 0.1220673322678, 0.0013800035231, 0.2152175903320, -0.1086128056049, 0.0903725028038, -0.2287481129169, 0.1830610334873, -0.1118417382240, 0.1764859557152, -0.0087411254644, -0.2663049101830, -0.1440603733063, 0.1482368707657, 0.0698317140341, 0.1112527549267, 0.1319467425346, -0.0063104182482, -0.1864348649979, 0.1555494666100, -0.2290024161339, 0.1591445207596, -0.0223686844110, -0.1110073029995, -0.0997764915228, -0.1517774462700, 0.2307532727718, -0.0711920261383, 0.1355990171432, 0.1393563449383, 0.0681129395962, -0.0705596357584, -0.2121467590332, 0.0963605344296, 0.0282022953033, -0.2145764231682, -0.0488584414124, 0.0202316939831, 0.1001867651939, 0.1563919484615, 0.0674707591534, -0.1819267868996, 0.0505648553371, 0.0631202161312, -0.0914732366800, 0.2237725853920, -0.1298317909241, 0.1405123174191, 0.0169475451112, 0.0000000000000, 0.0000000000000, 0.0000000000000, 0.0000000000000, 0.0000000000000, 0.0000000000000, 0.0000000000000, 0.0000000000000, 0.0000000000000, 0.0000000000000, 0.0000000000000, 0.0000000000000, 0.0000000000000, 0.0000000000000, 0.0000000000000, 0.0000000000000, 0.1124570369720, -0.0881345421076, -0.1346252858639, 0.1881073713303, 0.1274623870850, -0.1520121097565, -0.2004499137402, -0.1528078913689, -0.1628611087799, -0.0551676005125, -0.1104474216700, -0.1845925748348, -0.2532296776772, 0.1014600694180, -0.1845325529575, 0.1445982456207, 0.1654689013958, 0.1011471152306, -0.0288512408733, -0.1584699153900, 0.2287448048592, 0.1676793098450, -0.1332853734493, -0.0839704871178, -0.0192323327065, -0.1992859244347, 0.0440147444606, 0.1300085783005, -0.1341747641563, -0.0294640660286, -0.0335969030857, 0.0938356518745, -0.1656831204891, 0.0620337575674, -0.1624437570572, -0.1910392045975, -0.1047320961952, -0.0939914733171, -0.2336494028568, -0.2154463529587, -0.1364232003689, 0.0597581863403, -0.1384539008141, -0.1907979249954, 0.0332693457603, -0.2124438583851, -0.1567316055298, -0.0169965326786, -0.1380480229855, -0.2174359560013, -0.1554296314716, 0.2140075862408, 0.1520242393017, 0.0754435509443, -0.0252700075507, -0.2566483020782, 0.2021970748901, 0.0546666458249, 0.0104565378278, 0.0648856014013, 0.0770588517189, -0.2516499161720, -0.1056085377932, 0.2225030064583, -0.0293391086161, -0.2270143330097, 0.0647560358047, 0.1152915656567, 0.1309350132942, -0.0864109098911, -0.0352412611246, -0.0304261222482, -0.1054512113333, -0.1000945568085, 0.1085781902075, 0.0792737603188, 0.1777251660824, 0.1469355523586, 0.0522072911263, 0.0101967602968, 0.1121777743101, -0.1926919221878, 0.2640537023544, 0.0282352156937, -0.1138270050287, 0.1414140462875, 0.0103246066719, 0.0119833834469, -0.3276797533035, -0.0915209949017, 0.1111550033092, -0.2282244265079, 0.1042266786098, 0.2252145409584, -0.0364524871111, -0.0632209032774, 0.1323628723621, 0.1829486787319, -0.1338621079922, 0.1798296272755, 0.0155243463814, 0.2516171932220, 0.1253005862236, -0.2515866756439, 0.0119336787611, -0.1242237240076, 0.2443215250969, -0.1564855873585, 0.2278571128845, 0.0555481761694, 0.1204252839088, -0.3469637632370, 0.0000000000000, 0.0000000000000, 0.0000000000000, 0.0000000000000, 0.0000000000000, 0.0000000000000, 0.0000000000000, 0.0000000000000, 0.0000000000000, 0.0000000000000, 0.0000000000000, 0.0000000000000, 0.0000000000000, 0.0000000000000, 0.0000000000000, 0.0000000000000, -0.2378063499928, -0.1343688964844, 0.0090168043971, 0.1536598801613, -0.0323010981083, -0.3011317253113, 0.1624390184879, -0.0343941524625, 0.1395949125290, -0.0754540711641, 0.1304068565369, 0.0283976458013, 0.1303988099098, 0.1011915951967, -0.3275997638702, 0.0713059157133, 0.0062699466944, 0.1602964699268, -0.1336952745914, -0.1533549129963, 0.2070177793503, -0.0767991989851, 0.1640665531158, 0.1287209689617, -0.1504864692688, 0.0019883839414, -0.2612993717194, 0.1366752386093, 0.0181267671287, 0.1267656087875, 0.0937532335520, 0.0061382157728, 0.2705451846123, -0.1004427969456, 0.2677646875381, -0.0521116107702, -0.1909126639366, 0.1657836735249, -0.0689088106155, 0.0532766655087, -0.2907742857933, -0.0841055065393, 0.1487239003181, -0.1069478243589, 0.0479889512062, -0.1210415959358, 0.1169914454222, -0.0877420306206, -0.2586476206779, -0.1640229225159, 0.2216054499149, 0.0765121877193, -0.1398432552814, -0.1253522038460, 0.0075360313058, -0.3181660175323, -0.1408106982708, -0.0782192796469, 0.0821066796780, -0.0025902474299, 0.0743918418884, -0.1507030725479, -0.0862827450037, 0.1600959897041, -0.1775505542755, 0.0368397161365, 0.0606168732047, 0.1122590303421, 0.1414866447449, -0.0659364759922, -1.2107181549072, -0.1891408860683, -0.0609493255615, 0.1808592975140, 0.0220767371356, 0.2060871422291, 0.0788194090128, 0.0311869271100, -0.0878857374191, 0.0079413354397, -0.1375413239002, 0.1834655702114, 0.1646407544613, 0.0540480315685, 0.1348668634892, 0.6842582225800, -0.0051392810419, -0.1209312081337, -1.7620766162872, -0.6243308186531, -0.8795287609100, -0.1892753392458, -0.0539159029722, -0.0937545448542, 0.0653320252895, 0.1345052421093, -0.0163340866566, 0.0492441281676, -1.1038827896118, 0.0838260650635, 0.2786414027214, 0.0130578055978, 0.1105998903513, -0.0759174972773, 0.1459990739822, -0.1354663074017, 0.1166696548462, 0.0822167992592, 0.2499812543392, -0.1385294198990, -0.1041326224804, -0.4399181604385, 0.0000000000000, 0.0000000000000, 0.0000000000000, 0.0000000000000, 0.0000000000000, 0.0000000000000, 0.0000000000000, 0.0000000000000, 0.0000000000000, 0.0000000000000, 0.0000000000000, 0.0000000000000, 0.0000000000000, 0.0000000000000, 0.0000000000000, 0.0000000000000, -0.0039362069219, 0.1702944338322, 0.1517579257488, -0.1131685078144, 0.0769560486078, -0.4143279790878, -0.2091670632362, 0.0020628571510, -0.1606112718582, 0.0056274766102, -0.0297968238592, 0.0624795854092, 0.1323873400688, -0.1136166155338, -0.1899644732475, 0.0955849885941, 0.1162810027599, 0.1411052942276, -0.2719574570656, -0.0103344451636, 0.0455375015736, -0.1266729235649, 0.0243147015572, 0.1688720881939, -0.0742613822222, -0.1154894530773, 0.0031121945940, 0.0873619765043, -0.1626407802105, -0.0756504833698, -0.2668847441673, 0.1468242704868, 0.0149516146630, -0.0536960661411, -0.5755932331085, 0.3139954805374, 0.0386422276497, 0.1831439137459, 0.0968143045902, -0.0149270184338, -0.2844220995903, 0.1583161950111, 0.0915649384260, -0.0577703863382, 0.1194561421871, -0.1504433751106, 0.0746172666550, -0.0821000933647, -0.0230238661170, -0.2104057967663, -0.0468252673745, -0.0482651442289, -0.0934443175793, 0.1360865235329, 0.1467436552048, -0.3422638773918, -0.1364811956882, -0.0612355470657, 0.0343641042709, -0.0990600436926, 0.0694504082203, -0.2026587426662, -0.0200617760420, 0.1584323346615, 0.1094987690449, -0.1924059391022, -0.1800112724304, -0.0500809475780, -0.1064158231020, -0.0611761584878, -0.2609575390816, 0.0563861131668, 0.1849134266376, -0.1033445149660, -0.1123472154140, -0.1748310029507, 0.1454967558384, -0.0255041122437, 0.0681627094746, -0.2413885295391, -0.1082181334496, 0.0311540961266, -0.0341102555394, 0.0537501052022, -0.0063673704863, -0.0711456686258, 0.0703224837780, -0.0248491764069, -0.0373756736517, -0.1437283754349, -0.1651982069016, -0.2562265396118, -0.0160170346498, 0.0995696485043, 0.1351027488708, -0.2510995864868, 0.0077919177711, 0.1868434548378, -0.3899024724960, -0.0889740437269, -0.2265633046627, -0.0956881344318, 0.0677998065948, -0.0331846773624, -0.0896867364645, -0.0049338825047, 0.0541893318295, -0.0039787143469, -0.2635484933853, -0.0123197771609, 0.0764163732529, -0.1715527474880, 0.0000000000000, 0.0000000000000, 0.0000000000000, 0.0000000000000, 0.0000000000000, 0.0000000000000, 0.0000000000000, 0.0000000000000, 0.0000000000000, 0.0000000000000, 0.0000000000000, 0.0000000000000, 0.0000000000000, 0.0000000000000, 0.0000000000000, 0.0000000000000, 0.1049645990133, -0.2006631791592, -0.1356281042099, 0.0988631546497, -0.1569616496563, -0.0164027921855, 0.1453281342983, -0.0169457048178, 0.0813375413418, -0.1172614991665, 0.0878719389439, 0.1551641225815, -0.2588191032410, -0.2624980807304, -0.1936449110508, -0.0873651802540, -0.0282667577267, -0.0127150695771, -0.1993196010590, 0.0631749778986, -0.1818350255489, 0.0902438461781, 0.0562295615673, -0.0636833012104, 0.1206107139587, -0.0680342912674, 0.0000432726738, -0.1640030443668, 0.0283644907176, -0.0179176554084, 0.1467551290989, 0.0260189138353, -0.0812023282051, -0.1882087290287, -0.1061055809259, 0.0358341634274, -0.1646119058132, -0.0563999116421, 0.0536686852574, 0.1343934834003, 0.0634928643703, 0.0466559529305, -0.1175411194563, 0.1217765212059, -0.2862535715103, 0.1608974635601, -0.2533614635468, 0.0521020889282, -0.2751495242119, -0.1843156218529, 0.1338903307915, 0.1908637285233, -0.1626882255077, 0.0134402494878, 0.1152253746986, -0.0364267230034, 0.0072318483144, 0.2405548989773, 0.1924938261509, 0.2246011793613, -0.1260124444962, 0.0164778642356, 0.2348425090313, 0.2293210923672, -0.0269586220384, -0.2728900909424, -0.0380379259586, 0.2116966247559, -0.1429143846035, 0.1654175221920, -0.1223159879446, 0.1034375131130, 0.0276568830013, -0.1620488166809, -0.1817692220211, 0.0731690526009, -0.1841588318348, 0.0799247920513, -0.0257137939334, -0.0080509185791, 0.1042722910643, -0.1805425286293, -0.0970008820295, 0.0111072529107, 0.0386993810534, 0.1364836990833, -0.1769509613514, 0.0038984259591, -0.1578608155251, -0.1964427232742, 0.1268650293350, -0.1565387845039, -0.0172879546881, -0.1901192963123, -0.2547010183334, 0.0768286585808, 0.1417693197727, 0.1613637804985, -0.0311397314072, -0.0263498574495, 0.1411721706390, -0.0063269091770, -0.1208871752024, 0.0200424529612, -0.1529200375080, -0.0253954790533, 0.1930848658085, 0.0020390748978, 0.1182535290718, -0.1566587388515, 0.1178443729877, -0.2164371311665, 0.0000000000000, 0.0000000000000, 0.0000000000000, 0.0000000000000, 0.0000000000000, 0.0000000000000, 0.0000000000000, 0.0000000000000, 0.0000000000000, 0.0000000000000, 0.0000000000000, 0.0000000000000, 0.0000000000000, 0.0000000000000, 0.0000000000000, 0.0000000000000, 0.1588466465473, -0.1056154221296, -0.1116030663252, 0.1669965088367, 0.0535519719124, 0.0133141987026, 0.1538875699043, -0.1744394898415, 0.2238728702068, 0.1062288582325, -0.0613390803337, -0.0644381195307, 0.0123950242996, -0.0883674025536, -0.2168062627316, -0.1514735221863, -0.1640385687351, 0.1078827977180, 0.0956841111183, 0.1012090593576, 0.0871484279633, 0.0660794377327, 0.1015425175428, -0.0931657105684, -0.0285575501621, -0.2038486599922, -0.0260844230652, -0.0074033737183, 0.2036885023117, -0.3140982985497, -0.2024314701557, 0.0815629363060, -0.1063541322947, 0.0029786601663, 0.0558297336102, -0.2149492800236, -0.1920364797115, -0.2280538678169, -0.1390040516853, -0.2673009037971, -0.2600543498993, -0.1540314853191, -0.1111152619123, -0.0244748555124, -0.0262001901865, -0.0482084080577, -0.2157935798168, 0.1314921379089, -0.1483301222324, -0.1764569878578, -0.1625762581825, -0.0868924856186, -0.0738165378571, 0.1538194119930, -0.1897096037865, 0.0144993513823, -0.0434704571962, 0.2129034399986, -0.1072978228331, -0.0176499411464, 0.0094064865261, -0.2603009343147, 0.0492400228977, -0.0706845521927, 0.1066958010197, -0.1019736379385, 0.0477860048413, 0.1554444134235, -0.1449152827263, -0.3393460512161, -0.3717559576035, -0.0484571978450, 0.1244047880173, -0.1604773998260, 0.0544439181685, 0.0688636004925, 0.0250372290611, 0.1299822330475, 0.1937255561352, -0.1555962860584, -0.2044479548931, -0.1669258177280, -0.1128489077091, 0.0717711895704, -0.1620953977108, 0.0758928805590, -0.0276739820838, -0.0964095294476, -0.5247201919556, -0.8903830051422, 0.1540156602859, 0.2571713328362, -0.0800258368254, 0.1988587081432, 0.0764916390181, -0.1330243349075, -0.1352088451385, 0.2075294852257, -0.6797204017639, -0.1113572716713, 0.0529569834471, 0.0040993392467, -0.1114345192909, 0.2417315244675, 0.2001926302910, 0.1603337824345, 0.0886003077030, 0.0141656231135, 0.0613563805819, -0.1428345441818, 0.1749257743359, 0.0674880892038, 0.0000000000000, 0.0000000000000, 0.0000000000000, 0.0000000000000, 0.0000000000000, 0.0000000000000, 0.0000000000000, 0.0000000000000, 0.0000000000000, 0.0000000000000, 0.0000000000000, 0.0000000000000, 0.0000000000000, 0.0000000000000, 0.0000000000000, 0.0000000000000, -0.0949371159077, -0.1871215999126, 0.0928594470024, 0.0127733647823, -0.1955477297306, -0.0794128477573, -0.1022865623236, 0.0239130258560, 0.0932047367096, 0.0155884902924, -0.0561382323503, -0.2450773417950, -0.0118810832500, -0.0982319116592, -0.1820007860661, 0.0853922665119, 0.1367238759995, -0.1630664765835, 0.0428291782737, -0.2099722623825, 0.1520980894566, -0.0561658516526, 0.0171144008636, -0.1683402061462, -0.0277900844812, 0.0918026268482, 0.0092725306749, 0.0246335566044, -0.0197640582919, 0.0934053957462, -0.2068075239658, -0.0923987627029, 0.0036361366510, -0.2741347551346, -0.2596582770348, -0.1936922967434, -0.0570598542690, -0.0532990098000, -0.1762437224388, -0.0413091629744, -0.0832574963570, -0.1994545757771, -0.1565856039524, -0.1564035713673, 0.1202749311924, -0.1670022010803, 0.0802187323570, 0.2154564261436, -0.1680100262165, 0.1558102369308, 0.1495372354984, -0.1163952201605, -0.0783500820398, 0.0496289730072, -0.1848478019238, -0.2376121878624, 0.0002244774660, -0.2805750370026, 0.1111593544483, -0.0695894360542, -0.2294156849384, -0.0116400998086, 0.1606047451496, 0.2140104770660, -0.1435986459255, 0.1371281743050, 0.0754495561123, 0.1889537572861, 0.1282725632191, -0.0817085951567, -2.3943295478821, -0.2096685469151, -0.0487148910761, -0.0989318490028, 0.1216594129801, -0.0600203424692, -0.1559703350067, -0.0995662510395, 0.1697268784046, 0.0277883931994, -0.1487295925617, -0.0607298091054, -0.0145163796842, 0.1641881167889, -0.1372816562653, 0.1669895648956, -0.0867384821177, 0.2477293014526, -1.3724808692932, -0.1660906672478, -0.0403122454882, 0.9511944055557, 0.2546635866165, -0.1444560885429, -0.0816907435656, -0.2117879688740, -0.0157256834209, 0.2829828858376, -0.5243372917175, 0.1300186216831, 0.1537722945213, 0.0394490212202, -0.0034220134839, 0.0128019135445, -0.2028490006924, 0.2282127737999, 0.2054850757122, -0.0069221174344, 0.1671208441257, 0.1977410018444, 0.1337275505066, -1.2672507762909, 0.0000000000000, 0.0000000000000, 0.0000000000000, 0.0000000000000, 0.0000000000000, 0.0000000000000, 0.0000000000000, 0.0000000000000, 0.0000000000000, 0.0000000000000, 0.0000000000000, 0.0000000000000, 0.0000000000000, 0.0000000000000, 0.0000000000000, 0.0000000000000, 0.2667895555496, 0.1374404728413, 0.0163060463965, -0.0571366026998, 0.1079726368189, -0.1608741283417, 0.1143348217010, -0.1489659249783, 0.0324087962508, 0.1444658935070, 0.1086660921574, -0.0097042452544, 0.2079370915890, -0.7001794576645, -0.4623056054115, 0.0720420181751, -0.0977801978588, 0.1012943536043, 0.0013371489476, -0.0771204084158, -0.1600461602211, 0.1154327541590, 0.2288697063923, 0.1346882283688, -0.0376821085811, 0.1012601852417, 0.0654776841402, 0.0345910266042, 0.0711480975151, -0.0269601754844, -0.0505637004972, -0.1344711482525, -0.4071726799011, -0.4565504789352, -0.0021181376651, 0.5769098997116, 0.0128658581525, 0.1328694820404, 0.0474705994129, 0.1459203660488, 0.2255860865116, -0.1666478514671, -0.2815154194832, -0.0641666054726, 0.2072815001011, 0.1223559528589, 0.0524552389979, 0.2287251949310, 0.1241859346628, 0.1828789412975, 0.2269558012486, 0.0619892999530, 0.0361587256193, -0.0097591094673, 0.1991867721081, -0.4549356102943, -0.0625073611736, 0.0529824793339, 0.2035052478313, 0.0747790038586, -0.1488891243935, -0.3048974871635, -0.0830064862967, -0.2188023328781, -0.1373234391212, -0.1363213062286, 0.1936423480511, 0.1580708324909, -0.1704582273960, -0.1918680965900, -0.2782823443413, 0.1004758030176, -0.2037751972675, -0.1250787973404, -0.1368073821068, -0.1741346120834, -0.0968961417675, -0.0617415904999, 0.1713520884514, 0.0282911360264, 0.2125911414623, 0.0988810360432, -0.1187059134245, -0.0650560557842, 0.2073469460011, -0.2167007923126, -0.0977973341942, 0.0330193042755, -0.1700288355350, 0.0410982295871, 0.1145916730165, 0.0837894976139, -0.0179322212934, 0.0022958368063, 0.0161161422729, 0.0257397592068, -0.0332165807486, -0.0535052865744, -0.1965860128403, -0.0194398164749, 0.1339507699013, 0.0461821258068, -0.0312326252460, -0.0814083814621, 0.0787171423435, -0.1021970957518, -0.0556551069021, -0.0817188322544, 0.0941241681576, -0.2176291942596, 0.0876521766186, -0.0088941715658, 0.0000000000000, 0.0000000000000, 0.0000000000000, 0.0000000000000, 0.0000000000000, 0.0000000000000, 0.0000000000000, 0.0000000000000, 0.0000000000000, 0.0000000000000, 0.0000000000000, 0.0000000000000, 0.0000000000000, 0.0000000000000, 0.0000000000000, 0.0000000000000, -0.1703006923199, 0.1240787804127, -0.1750665009022, 0.2583875656128, -0.1491403579712, 0.4072754681110, -0.1443621814251, 0.2046373188496, 0.1600515842438, 0.1212186515331, -0.2829063534737, 0.1853074729443, 0.1686877608299, 0.0251613110304, -0.0921727791429, -0.0143894515932, 0.1639081537724, 0.0119593590498, -0.1931656301022, -0.2242040932178, -0.0997001379728, -0.0859003067017, 0.1701648235321, 0.1099135279655, 0.1718430519104, -0.0477985963225, -0.0173294544220, 0.0912933945656, 0.0733930170536, -0.1101512610912, -0.1317978203297, -0.2109107673168, -0.4583503603935, 0.1478731632233, 0.3767580091953, 0.6109403967857, 0.1626043319702, 0.0501160100102, -0.1506779491901, 0.0148587953299, -0.1604399681091, 0.1833767890930, 0.3188402950764, 0.1448241770267, -0.2369660437107, 0.0404750928283, 0.0758689194918, -0.0646590739489, -0.0914505422115, -0.2548410892487, 0.1933094263077, 0.2343353629112, 0.0717851221561, 0.0773557126522, -0.2471342980862, 0.5538817048073, -0.1205953061581, -0.1409678161144, 0.1188858449459, -0.1804534196854, 0.1243446022272, 0.0637809485197, 0.1303499639034, 0.0613191351295, 0.0100396256894, -0.2338778674603, 0.2282859683037, 0.0440528318286, -0.0217212736607, -0.4261594414711, -0.2610787749290, 0.0245351865888, -0.1826054155827, -0.1151606440544, 0.0771720111370, -0.1564512848854, 0.2265805304050, -0.2552613019943, 0.0297159142792, -0.1236420273781, 0.0255113393068, 0.1927046477795, -0.0236119441688, 0.2615665793419, -0.1547384858131, 0.1215436309576, -0.1387048363686, 0.1407395899296, 0.2256493866444, -0.4756983518600, -0.1817547380924, 0.7219613790512, 0.0056682983413, 0.2099491953850, 0.0427035689354, 0.0446931719780, 0.1766179502010, 0.0362660214305, -0.3677967786789, -0.0679344087839, 0.0150148570538, 0.0017379394267, 0.2035995125771, 0.2389236390591, 0.2564147114754, -0.0703114420176, -0.1241532415152, -0.0044786790386, -0.1815048158169, 0.1493068039417, 0.0379397049546, 0.0983581542969, 0.0000000000000, 0.0000000000000, 0.0000000000000, 0.0000000000000, 0.0000000000000, 0.0000000000000, 0.0000000000000, 0.0000000000000, 0.0000000000000, 0.0000000000000, 0.0000000000000, 0.0000000000000, 0.0000000000000, 0.0000000000000, 0.0000000000000, 0.0000000000000, 0.0760182440281, 0.1227280348539, 0.1461986005306, -0.0480582341552, -0.0586929768324, 0.5428839325905, 0.2090738117695, -0.0522967651486, -0.1483608186245, -0.2690428495407, -0.2007886767387, 0.0481801629066, -0.1384324729443, 0.2199929058552, -0.3089604973793, 0.0639537274837, 0.1865202784538, -0.1823050081730, 0.2614312767982, 0.1208653748035, -0.0658811479807, 0.1469659209251, 0.0233641304076, 0.1744290590286, 0.1279771625996, -0.1474834978580, -0.1453431546688, -0.1169993728399, 0.2308299243450, 0.1738918125629, 0.0171841718256, 0.1518827974796, -0.2556558251381, 0.2050027251244, 0.3048673272133, 0.6062630414963, -0.1205474287271, -0.0916901528835, 0.2034185826778, 0.1862004697323, 0.1859838664532, 0.2755122184753, 0.0509910434484, -0.0572339147329, 0.1153905242682, -0.1269709467888, 0.0721021294594, 0.0810000598431, 0.0318588241935, -0.1040984541178, 0.2422515451908, -0.1614164412022, 0.0666032433510, -0.0597682446241, -0.1189350485802, 0.7215481996536, -0.2582105398178, -0.1544347107410, -0.2167802751064, 0.1826337575912, -0.2311983704567, -0.1439259648323, 0.1402063667774, 0.0929031968117, -0.1250977814198, 0.1155131906271, 0.2132288515568, -0.1223315596581, -0.2840643525124, 0.1606424450874, 0.3972896933556, -0.2104412615299, -0.0912307053804, -0.0183739438653, -0.1935865581036, -0.0738246887922, -0.0655860900879, 0.0063826600090, -0.1037257462740, 0.1663134694099, 0.0760405957699, 0.2232692837715, 0.0053805466741, -0.1065498739481, -0.0332694277167, -0.1556537300348, 0.0470065176487, 0.0970109850168, 0.0749735236168, 0.6993321180344, 0.1905323565006, -0.5049205422401, -0.2202010452747, -0.2106118500233, 0.0030077937990, -0.2105076611042, 0.0453881099820, 0.0115557536483, -0.7778900861740, -0.0412355214357, -0.0408637076616, 0.1235552877188, -0.1164062768221, 0.0478492900729, 0.1963011622429, -0.2914443612099, 0.1662549972534, -0.2077523171902, -0.1155400872231, 0.0490652248263, -0.0298122279346, -0.9010747671127, 0.0000000000000, 0.0000000000000, 0.0000000000000, 0.0000000000000, 0.0000000000000, 0.0000000000000, 0.0000000000000, 0.0000000000000, 0.0000000000000, 0.0000000000000, 0.0000000000000, 0.0000000000000, 0.0000000000000, 0.0000000000000, 0.0000000000000, 0.0000000000000, -0.0567385405302, -0.0004443086218, 0.2296867370605, 0.1320525705814, 0.0025676568039, 0.3726480007172, -0.0615423396230, -0.1898886561394, 0.0510903224349, 0.0699528604746, -0.1781018376350, 0.0892281234264, 0.0880855172873, -0.0571379661560, -0.1630180478096, 0.1980192959309, 0.0913219153881, -0.0661654770374, 0.1466789245605, -0.0301271528006, -0.2043934762478, 0.1033757477999, -0.0273241475224, -0.1825295090675, -0.0841664373875, -0.0438464581966, -0.1888856291771, 0.0509171485901, 0.0106935910881, -0.4697303175926, 0.0475377663970, -0.0802512019873, -0.2438684701920, -0.0398595109582, -0.4287987351418, -0.3002256155014, 0.3359641432762, 0.0191152729094, 0.0492908507586, 0.0452743619680, -0.0985081493855, 0.0941357016563, -0.2116118073463, -0.1392291188240, -0.0493186041713, 0.2270934581757, -0.0603048130870, -0.1650532782078, 0.0448042675853, -0.0475928783417, -0.1847216188908, 0.1110574454069, -0.1947180330753, 0.0043954029679, 0.1783057749271, 0.0891558676958, -0.1711685657501, -0.1102403104305, 0.0533666014671, 0.0038482546806, 0.0677624642849, -0.1246114373207, -0.1001389324665, 0.0421764552593, 0.1594677865505, -0.0005092547508, -0.1402320563793, -0.2127487957478, 0.1381202936172, 0.0131574589759, -0.2842310070992, 0.1437891125679, 0.0819621980190, -0.0502431839705, -0.1523705720901, -0.0181418359280, -0.1088905334473, -0.0604818016291, 0.1858355104923, -0.1531906723976, 0.1917069852352, 0.1655149459839, -0.2134268581867, -0.2515855431557, 0.0464878678322, 0.0840123295784, -0.0672573447227, -0.1701737344265, 0.0080722924322, 0.0600550249219, -0.1597269475460, -0.2145632803440, 0.1067780852318, -0.0644243210554, -0.2042297422886, -0.2758687734604, 0.1211881488562, 0.0846209228039, -0.2841628789902, 0.0780930221081, -0.0039846152067, -0.0388265550137, 0.1332224309444, -0.0099717937410, -0.1692006886005, -0.1544931530952, 0.0376126095653, 0.1127157807350, -0.0069655152038, 0.1928362846375, -0.0766083002090, 0.0473973006010, 0.0000000000000, 0.0000000000000, 0.0000000000000, 0.0000000000000, 0.0000000000000, 0.0000000000000, 0.0000000000000, 0.0000000000000, 0.0000000000000, 0.0000000000000, 0.0000000000000, 0.0000000000000, 0.0000000000000, 0.0000000000000, 0.0000000000000, 0.0000000000000, 0.0294646210968, 0.1533047556877, -0.0148688852787, 0.0672087669373, 0.1169587969780, -0.1267575919628, 0.2567694187164, 0.1609098911285, -0.0458906590939, -0.1087595522404, -0.2151072919369, 0.1302579045296, 0.0191773734987, -0.5728913545609, -1.1713445186615, 0.0317189693451, 0.2199895083904, -0.1520995497704, -0.0953688770533, 0.1932555735111, -0.0599066913128, 0.2137036919594, -0.1542745828629, 0.2707620263100, 0.1905773580074, -0.1767866909504, -0.0270018912852, 0.0151429008693, 0.0852296948433, 0.3943566679955, 0.1847143173218, 0.0947856009007, -0.9068788290024, -0.4051442146301, 0.1350583732128, -0.3156567215919, -0.1762747764587, 0.1524251699448, 0.1423514187336, -0.1177520006895, 0.1812672019005, -0.0704262554646, -0.0762001425028, -0.0684103667736, -0.1924920976162, -0.0088101457804, -0.2277726233006, 0.1565637588501, 0.0372249782085, 0.2245217561722, 0.0466384589672, 0.0100582391024, -0.0757836997509, 0.0260959528387, 0.1506690084934, -0.0614136904478, 0.0725802779198, -0.0071170693263, -0.0599947124720, -0.1400131881237, 0.1849735677242, 0.1254161894321, -0.1274980902672, 0.0922941565514, 0.0077985292301, -0.0241013690829, -0.0473813861609, -0.1659489274025, 0.2638016343117, -0.0912216603756, -0.2024002075195, -0.1474166810513, -0.0560213625431, -0.0267479047179, -0.2647667527199, -0.0173860304058, -0.1399736702442, 0.0968814045191, -0.1227469593287, 0.0177756622434, -0.0953878164291, -0.0559971332550, 0.0675319731236, -0.1401945948601, 0.0748235583305, 0.0962361544371, 0.0965034216642, -0.0946117937565, 0.0237303078175, -0.2313109338284, -0.1196435838938, -0.0398222804070, -0.2034910023212, 0.2157056331635, 0.0476928800344, 0.0556092262268, -0.1710185706615, 0.2214605808258, -0.0973762422800, 0.0491209328175, -0.2780330181122, -0.1671670079231, 0.0995039045811, -0.1128472834826, -0.1500986218452, -0.0757970958948, 0.0225078463554, 0.0648214221001, -0.0758392512798, -0.1083825826645, 0.1405867040157, -0.1009933352470, 0.0000000000000, 0.0000000000000, 0.0000000000000, 0.0000000000000, 0.0000000000000, 0.0000000000000, 0.0000000000000, 0.0000000000000, 0.0000000000000, 0.0000000000000, 0.0000000000000, 0.0000000000000, 0.0000000000000, 0.0000000000000, 0.0000000000000, 0.0000000000000, 0.0614859387279, 0.0164474546909, -0.1886226534843, -0.0716586112976, -0.1286197006702, -0.3351143598557, 0.1694695353508, 0.0544243454933, -0.0299457088113, -0.0832351148129, 0.1140568554401, -0.0255717262626, 0.0317138209939, -0.1032258868217, 0.0645760297775, -0.0696741193533, 0.1184621751308, -0.0020895600319, 0.1360440254211, -0.0946860909462, -0.1816563010216, -0.2452149093151, 0.1251408755779, -0.1840521991253, -0.1906519830227, -0.1228027045727, 0.0506250858307, 0.0208414271474, -0.2554681301117, -0.0816103816032, 0.1739831864834, -0.0608226656914, -0.0041538430378, -0.1069190800190, -0.0146860051900, -0.1040849685669, -0.0552493929863, -0.1409059464931, 0.0690698027611, 0.1085846722126, -0.1472842395306, -0.0485789626837, -0.1402079164982, 0.1667036414146, 0.0358066782355, 0.1240125000477, -0.1680878698826, 0.1244397163391, -0.0794322341681, -0.2122248709202, -0.1217557191849, 0.1512981057167, 0.2270519435406, 0.0110057871789, -0.2024457752705, -0.1568105518818, -0.0388388633728, -0.0894458442926, 0.2045806050301, -0.0784005075693, -0.0707343220711, -0.1992198824883, 0.1345466673374, -0.0848340094090, 0.1745344102383, -0.0201429165900, -0.0685995370150, 0.1057299077511, -0.1735921502113, -0.6434490680695, 0.2702296376228, -0.0862999111414, 0.1131552457809, 0.0463326200843, -0.1078568398952, 0.0739313811064, 0.0559506714344, 0.2003582119942, 0.1855207979679, 0.0634436756372, -0.0838815718889, -0.2190164029598, -0.0601303428411, -0.0496195033193, -0.1395303308964, -1.5316934585571, 0.1898452639580, -0.1100522428751, 0.3269042074680, 0.6751947999001, -0.1226379051805, -0.9478724002838, 0.0795898437500, -0.2033175528049, 0.0736674070358, 0.0308085381985, -0.0224047824740, -0.2303632497787, -0.3517085909843, 0.1958082914352, 0.1169888824224, -0.1748805940151, -0.1092493236065, 0.0521434545517, 0.1654052436352, 0.0566109046340, -0.0367501899600, -0.2244343459606, 0.2182858586311, 0.0138858668506, -0.0742338895798, 0.3805451393127, 0.0000000000000, 0.0000000000000, 0.0000000000000, 0.0000000000000, 0.0000000000000, 0.0000000000000, 0.0000000000000, 0.0000000000000, 0.0000000000000, 0.0000000000000, 0.0000000000000, 0.0000000000000, 0.0000000000000, 0.0000000000000, 0.0000000000000, 0.0000000000000, -0.1973696947098, -0.0872507840395, 0.1419710218906, 0.1923567056656, -0.2949216365814, -0.1369795501232, 0.0493971779943, -0.0559247285128, -0.0786504894495, -0.1307391226292, -0.0124268084764, -0.1100493073463, 0.1651937663555, -0.2384468317032, 0.1039622128010, 0.0174317657948, -0.1753562092781, 0.0592464283109, 0.1120822578669, 0.0755927562714, -0.0597671866417, 0.0877618193626, -0.1246412247419, 0.0363608822227, -0.1672885119915, 0.1627901494503, -0.1490979790688, -0.0204335339367, 0.0649238079786, 0.0147198177874, 0.1076808869839, 0.1309689581394, -0.1174063086510, 0.1233892142773, -0.2928086519241, -0.2250394225121, -0.1993343234062, -0.1212515085936, 0.0017874289770, -0.0968231409788, 0.0332883745432, -0.2050012648106, 0.0104153454304, 0.0351710617542, -0.0050973817706, -0.2889528274536, -0.1640721559525, 0.0126924663782, 0.1329874694347, 0.0873219966888, 0.1551219224930, -0.0917584747076, -0.3026742339134, -0.2187214791775, 0.0063790865242, -0.2873666286469, 0.1665914952755, 0.1704791188240, 0.1355642080307, -0.1395340561867, 0.0753208100796, -0.2174637317657, -0.0477751567960, 0.1473757922649, -0.1024937629700, 0.1092432439327, -0.1836610436440, 0.0421181321144, -0.0678112357855, -0.0497872829437, -0.4010390639305, 0.2019742727280, -0.1736249923706, -0.0136070102453, -0.0444703847170, 0.1012195348740, 0.1818922162056, -0.2570273876190, 0.0579752400517, -0.1470578312874, 0.1034383475780, 0.0679303407669, 0.0948252379894, 0.2137353122234, -0.0610091984272, -0.0320029929280, 0.2592082619667, -0.0602399706841, -0.8617614507675, 0.0053458781913, -0.3152477145195, 0.1289788782597, -0.2363021373749, 0.0535180121660, -0.0869064778090, -0.0735898315907, 0.2527940869331, 0.1236244142056, -0.3618391156197, 0.0621497631073, -0.1635258495808, -0.1282660961151, 0.0697250664234, -0.0826272815466, 0.1617710292339, -0.1615968346596, 0.1409614682198, -0.0693970024586, 0.2593782544136, -0.0069955643266, 0.1034943759441, 0.0577562302351, 0.0000000000000, 0.0000000000000, 0.0000000000000, 0.0000000000000, 0.0000000000000, 0.0000000000000, 0.0000000000000, 0.0000000000000, 0.0000000000000, 0.0000000000000, 0.0000000000000, 0.0000000000000, 0.0000000000000, 0.0000000000000, 0.0000000000000, 0.0000000000000, -0.1262021660805, 0.1857279241085, 0.1790307462215, 0.1880348026752, 0.0515065938234, 0.4161561429501, 0.0074390070513, -0.1750662028790, 0.2487735748291, 0.0022416254506, -0.1363244056702, 0.1077243536711, 0.2616460919380, -1.1746710538864, -0.9783888459206, -0.0110965352505, -0.0313139259815, 0.1854558289051, -0.1672129333019, 0.1331184506416, 0.2263070940971, -0.2469738423824, -0.2777556777000, -0.0117835123092, 0.1219994723797, -0.1085687130690, 0.0764557421207, 0.0982147455215, 0.0412594750524, 0.1899209916592, 0.0678891539574, 0.0150958765298, -0.3096247613430, -2.7733681201935, -0.4995732903481, 0.1903460919857, 0.0866211205721, 0.1798785328865, 0.1154820770025, 0.0473082512617, 0.1256313025951, -0.0369861423969, 0.7669343948364, 0.1061927527189, 0.1868093907833, -0.1360936760902, 0.0320867970586, 0.0166800618172, 0.0005117240362, 0.1753205060959, 0.0133215487003, -0.1897166371346, 0.0917158871889, -0.0770225077868, 0.0240559652448, 0.2373571991920, -0.0529246926308, 0.0119536221027, -0.0035212337971, 0.1675590276718, -0.0179291814566, -0.1698095798492, -0.0445015877485, -0.1551604866982, 0.1638491153717, -0.2601764202118, 0.2266179323196, -0.1616110503674, 0.0626553595066, -0.1754069924355, -0.1283149123192, 0.0625001490116, -0.2231058478355, -0.1171350181103, -0.1818097829819, 0.0480588674545, -0.1687961816788, 0.0279426574707, 0.2002269923687, -0.1822443306446, 0.0579917132854, 0.1958624422550, 0.2015812695026, 0.1062472760677, -0.1595118343830, 0.1575626134872, 0.0276677012444, 0.0442765951157, -0.0508697256446, -0.1524198651314, -0.1128823161125, -0.0715851634741, 0.0507615804672, 0.0751823484898, -0.0880554616451, 0.0718283653259, 0.2125948071480, 0.0595024824142, 0.1102588623762, -0.1377896964550, 0.0570529997349, -0.1015474200249, 0.0509641468525, 0.0208730399609, 0.1166295409203, -0.2103284597397, -0.1503121852875, 0.0877804756165, 0.2061671018600, -0.2106609046459, -0.1063484102488, -0.0178604573011, 0.0000000000000, 0.0000000000000, 0.0000000000000, 0.0000000000000, 0.0000000000000, 0.0000000000000, 0.0000000000000, 0.0000000000000, 0.0000000000000, 0.0000000000000, 0.0000000000000, 0.0000000000000, 0.0000000000000, 0.0000000000000, 0.0000000000000, 0.0000000000000, 0.1553055047989, 0.1399092376232, 0.1664530038834, -0.1765169799328, -0.1635527312756, -0.0230583697557, 0.0656641125679, -0.0934990048409, -0.0153117999434, -0.1382018625736, -0.2417510747910, -0.0778106004000, -0.2188814878464, -0.3108470439911, 0.0665655583143, 0.1574286222458, 0.1801538765430, 0.1819293498993, -0.0277816094458, -0.1817670464516, 0.1158053278923, -0.2934947013855, -0.0512701049447, -0.1887782216072, -0.2047386467457, -0.1247997879982, 0.1133797168732, -0.0063490299508, 0.1406936943531, -0.1291058361530, 0.0193341858685, 0.1129929870367, -0.3139400482178, -0.0731362849474, -0.2030555009842, -0.2109002172947, -0.1709015965462, -0.1524654924870, -0.2896093130112, -0.2427780032158, -0.0137975942343, -0.0408186614513, 0.1336870193481, 0.1235120892525, 0.1065458804369, 0.0495874360204, -0.1302963495255, 0.0022329390049, -0.0222198590636, 0.0138194393367, 0.0622003301978, -0.0212611779571, -0.1377088129520, -0.0471005141735, -0.2526843547821, -0.1263985037804, -0.0336270034313, -0.0605884939432, 0.1872929334641, -0.1147392392159, -0.1565248072147, 0.0945084393024, -0.1557078361511, -0.1129502505064, -0.0596111342311, -0.0246387943625, 0.0504035577178, 0.1933686733246, -0.0497331246734, 0.1321894228458, -0.0902605503798, -0.1331402957439, 0.0222809314728, 0.0621809586883, 0.1663483977318, 0.1499359607697, -0.1721713542938, -0.2445249855518, -0.1200721114874, 0.1006077378988, 0.1151251792908, -0.2005495131016, -0.0007701738505, 0.0869672447443, 0.1503902077675, 0.0687787532806, -0.1787162125111, -0.1201095432043, 0.0336633473635, 0.0014768489636, -0.2585412263870, -0.1464080810547, 0.0494223237038, 0.1435779631138, -0.2123100459576, -0.0922540128231, -0.1647335886955, -0.0420623868704, 0.0148841571063, 0.0497917011380, 0.0260257124901, 0.0504806414247, -0.1835808157921, -0.1403156220913, 0.0832005590200, -0.0178642794490, 0.0346143916249, 0.2170554697514, 0.0014790669084, 0.0497446134686, 0.1419374942780, -0.0679652988911, 0.0000000000000, 0.0000000000000, 0.0000000000000, 0.0000000000000, 0.0000000000000, 0.0000000000000, 0.0000000000000, 0.0000000000000, 0.0000000000000, 0.0000000000000, 0.0000000000000, 0.0000000000000, 0.0000000000000, 0.0000000000000, 0.0000000000000, 0.0000000000000, -0.1659855544567, 0.1735301315784, 0.1769542396069, 0.2087018191814, -0.1794325411320, -0.2563940882683, 0.1499139070511, 0.1007314324379, 0.2318437993526, 0.1314923167229, -0.0315966904163, 0.0908263027668, 0.2521190643311, -0.4464661478996, 0.1182909458876, 0.1601060032845, -0.0041730552912, -0.0797795951366, 0.0068293027580, -0.0019364696927, 0.0300562381744, 0.0351938530803, 0.1462674438953, -0.0132935512811, 0.1802852153778, -0.2086364328861, 0.2334596216679, -0.0505134537816, 0.0503138601780, -0.1183024644852, 0.1878724694252, -0.0504174083471, -0.5248566865921, -0.0360892266035, -0.2367293834686, 0.5932840108871, 0.0501613989472, -0.1174907088280, 0.1824162304401, 0.1859691441059, -0.0168008841574, 0.1955995857716, -0.1475999057293, 0.2785212993622, -0.0026440960355, 0.1792713999748, 0.1864169538021, -0.1125300824642, 0.0071070762351, -0.1393842697144, 0.2706818580627, -0.0343940258026, -0.0272358991206, -0.1349188387394, -0.0944084078074, 0.1003808677197, -0.0837915986776, -0.1251226961613, 0.0875567495823, -0.0948310047388, -0.1157729327679, -0.1302140057087, 0.2056065499783, -0.1933933794498, -0.1723982393742, 0.3548275232315, -0.1373015046120, 0.2715480327606, 0.1286232173443, 0.2103204727173, 0.2246327698231, 0.0898661762476, -0.0706888884306, 0.1189161241055, -0.3169785737991, -0.2446292936802, 0.2182674109936, 0.0448923185468, 0.1115864366293, 0.2594877481461, 0.1568099260330, -0.1592233479023, 0.2258073687553, -0.1844479143620, -0.0193419009447, 0.2813884913921, -0.1097311526537, 0.2878893613815, 0.2455167621374, 0.3593647480011, -0.0533838681877, -1.6720147132874, 0.2474937438965, -0.2028838992119, 0.0644983798265, 0.2693346142769, 0.2297829687595, -0.0244654975832, 0.0606368258595, -0.2026550173759, 0.2743847966194, 0.1656833887100, 0.1352348625660, 0.0098023377359, -0.2245000600815, 0.2727499604225, 0.2825425863266, -0.1056830137968, -0.1940828859806, 0.2384353876114, -0.0358825251460, 0.0370474345982, 0.0000000000000, 0.0000000000000, 0.0000000000000, 0.0000000000000, 0.0000000000000, 0.0000000000000, 0.0000000000000, 0.0000000000000, 0.0000000000000, 0.0000000000000, 0.0000000000000, 0.0000000000000, 0.0000000000000, 0.0000000000000, 0.0000000000000, 0.0000000000000, 0.0759277790785, -0.1049619168043, -0.1710366904736, -0.0009838044643, 0.1726871132851, 0.0203376971185, -0.1494028866291, 0.0026622563601, -0.0288525521755, -0.0725646913052, 0.1724894940853, 0.0064856335521, 0.0577545985579, -0.1037871688604, 0.0973455905914, 0.0377027988434, -0.0555090308189, -0.0149703118950, 0.0614605173469, 0.0396793261170, 0.0215132236481, 0.0799178928137, 0.1580526232719, 0.2021254003048, -0.0062837870792, 0.1124474704266, 0.2011564075947, -0.1070524156094, -0.0029330481775, -0.2128584980965, -0.0142001137137, 0.1544728279114, -0.3182567954063, 0.0430240109563, -0.1790851056576, -0.1064211875200, 0.1063183248043, 0.1225388646126, 0.1812727749348, -0.0993185490370, 0.0078456513584, 0.0900650322437, -0.0965725183487, 0.2071626186371, 0.2005040049553, 0.2044248282909, -0.1776216030121, 0.1452742218971, -0.2026823461056, 0.1727113127708, 0.1466144919395, -0.1197600811720, 0.0024856952950, -0.1112307459116, 0.2572410106659, -0.2154338359833, 0.0222628973424, 0.0150559227914, -0.0785687118769, 0.2147685289383, 0.1375821530819, -0.0646070390940, 0.2806589007378, 0.0475344657898, -0.0356768071651, 0.0874302685261, -0.1340329349041, -0.0144882295281, -0.1097327917814, -0.1124453544617, -0.0993753522635, 0.1920081079006, 0.0448979735374, -0.0609377771616, -0.1682525575161, -0.1816951930523, -0.1267548203468, 0.0195554830134, -0.2207048237324, -0.0580592676997, -0.1840186715126, -0.0333670079708, -0.1869070231915, -0.0468892306089, 0.0463133454323, 0.0766202211380, -0.0949288159609, -0.2763216495514, 0.0092864483595, -0.1814397573471, -0.0931743383408, 0.1116424202919, 0.0686516165733, 0.0311648547649, 0.0293755233288, 0.0857691168785, 0.0117043405771, 0.0291503369808, 0.1038568168879, 0.2103416025639, 0.0909270495176, 0.0142337214202, -0.0034274072386, 0.1653753817081, 0.0084208864719, -0.1238782256842, 0.2764872312546, 0.1411788761616, -0.1132875978947, -0.0286689549685, -0.2560166716576, -0.1784109771252, 0.0000000000000, 0.0000000000000, 0.0000000000000, 0.0000000000000, 0.0000000000000, 0.0000000000000, 0.0000000000000, 0.0000000000000, 0.0000000000000, 0.0000000000000, 0.0000000000000, 0.0000000000000, 0.0000000000000, 0.0000000000000, 0.0000000000000, 0.0000000000000, 0.0263656713068, 0.1172392666340, -0.0826994478703, -0.0132414251566, -0.0822970569134, 0.1143304109573, -0.1013331711292, 0.0597743093967, 0.0283233746886, -0.2180876135826, -0.0562741011381, -0.2845550775528, 0.1699311435223, -0.1524444818497, 0.0205414071679, -0.0945110768080, 0.1619323492050, -0.2239255607128, 0.0908241569996, -0.0312237255275, -0.1323944926262, 0.1587525606155, -0.2209315299988, -0.1351906359196, 0.0656668245792, 0.0137243866920, -0.0821652263403, -0.0823125690222, 0.2010695636272, -0.2437923550606, -0.1758711338043, -0.2440882921219, 0.1165291219950, 0.0954203605652, 0.0845595896244, 0.0641790479422, 0.1394749283791, 0.1240192353725, 0.0881818979979, -0.0740797072649, 0.0771856009960, -0.0509410798550, -0.0629254281521, 0.1553564369678, -0.2555735111237, 0.0259099975228, 0.0627288073301, 0.0026301834732, -0.1103916466236, -0.1161591261625, 0.1393310427666, 0.0512397289276, -0.0062563922256, -0.1068591326475, 0.0285777114332, -0.3232923150063, 0.0034388005733, 0.1448843777180, 0.0325737893581, -0.1012310087681, -0.0201782286167, -0.0730309486389, -0.0982996672392, 0.0325177907944, 0.0813899040222, -0.2255871891975, -0.0944906473160, 0.1067855656147, -0.1534178555012, 0.0358397513628, 0.0287521295249, -0.2112708985806, 0.1271435320377, 0.2260882854462, 0.0590218156576, 0.0105041712523, -0.1482990086079, 0.0681936740875, -0.1484260857105, 0.2164121568203, 0.0217534303665, 0.0552197098732, -0.1841566264629, -0.1322479248047, -0.0390392243862, -0.0827760845423, 0.1765849292278, 0.1501381993294, -0.1886531412601, -0.0670114755630, 0.0375118330121, -0.1034331917763, 0.1444312632084, 0.2271921932697, -0.0263656377792, 0.0686171948910, 0.0170867368579, -0.0022955089808, -0.1838102340698, -0.0581633448601, 0.0400696098804, -0.1040022969246, -0.1801549792290, 0.1740896403790, -0.1792264878750, -0.1960932612419, -0.0032491236925, 0.0281209647655, -0.2307288646698, -0.2239633500576, -0.1521752178669, 0.0245718695223, 0.0000000000000, 0.0000000000000, 0.0000000000000, 0.0000000000000, 0.0000000000000, 0.0000000000000, 0.0000000000000, 0.0000000000000, 0.0000000000000, 0.0000000000000, 0.0000000000000, 0.0000000000000, 0.0000000000000, 0.0000000000000, 0.0000000000000, 0.0000000000000, -0.0487196445465, 0.0945622473955, 0.0976722836494, 0.1734806299210, 0.0725536346436, -0.1766445636749, 0.0624036937952, -0.1202509701252, -0.0102039612830, 0.0356285646558, -0.1380121409893, 0.0741448551416, -0.0869126915932, -0.3669387102127, -1.0295701026917, 0.0942116975784, 0.0338228046894, 0.1431639790535, 0.0687861442566, -0.2373508810997, 0.1458329260349, 0.1867953240871, -0.0778428167105, 0.2407596707344, -0.2005559206009, 0.0978170484304, -0.1347678005695, -0.0210776515305, -0.0416439622641, 0.3000223040581, 0.0788503736258, 0.2303305864334, -0.8456364870071, -0.1419097185135, 0.1804312169552, -0.3947668075562, -0.0233677141368, -0.1038827151060, 0.1415832638741, 0.2103058099747, 0.1099372655153, -0.0305266343057, -0.2258199453354, 0.1186294853687, 0.2416010797024, 0.0993304252625, -0.0564024895430, 0.0345997214317, -0.2136211097240, -0.1769264638424, 0.2367392778397, -0.2173895537853, -0.0106604769826, 0.0840832442045, -0.1306238174438, -0.1853374838829, 0.1710811555386, 0.1266264319420, -0.1713571846485, 0.2176772356033, 0.0452994555235, 0.3131614625454, -0.1428983211517, -0.1735822260380, -0.1856399178505, -0.0593424215913, 0.1651183068752, -0.1398809552193, -0.0440534949303, -1.2513678073883, -0.9738873243332, -0.0752959698439, -0.0988517552614, -0.1373216509819, -0.1517883837223, -0.0655040889978, -0.0664233267307, 0.1173685193062, 0.0532678738236, 0.1597166657448, -0.1118032634258, 0.0283537805080, 0.0582685694098, -0.0907327383757, 0.0516502782702, -1.8355367183685, -0.2037080824375, -0.0008781143697, 0.8356096744537, 0.6406919956207, 0.5184351205826, 0.7676281929016, -0.2645704746246, -0.1824288964272, -0.1579530835152, 0.1239602863789, 0.1149108111858, -0.0260520763695, 0.4541604518890, 0.1963326334953, 0.1238386183977, 0.0693693906069, -0.0732234269381, -0.1053982377052, -0.0502203777432, 0.1640781760216, -0.2007676362991, -0.2225094437599, -0.2346325218678, -0.0040722377598, 0.1518135070801, -0.2835988402367, 0.0000000000000, 0.0000000000000, 0.0000000000000, 0.0000000000000, 0.0000000000000, 0.0000000000000, 0.0000000000000, 0.0000000000000, 0.0000000000000, 0.0000000000000, 0.0000000000000, 0.0000000000000, 0.0000000000000, 0.0000000000000, 0.0000000000000, 0.0000000000000, 0.0346742942929, -0.2438545525074, 0.1724067628384, -0.1449344158173, 0.0967739075422, 0.1020914912224, -0.0332271009684, -0.0823036730289, -0.2419282197952, -0.2271774709225, -0.1366782486439, 0.0991914868355, 0.1314688026905, 0.0437280237675, -0.2037283182144, -0.0634824037552, 0.1624662876129, -0.1496752500534, 0.1642072796822, -0.2736973762512, -0.0851940512657, -0.0312633961439, 0.1204319894314, -0.0540317744017, -0.1534729599953, 0.2240703105927, 0.1526917219162, -0.2179275453091, -0.2266036272049, 0.0826298892498, -0.0682427585125, 0.1176098138094, -0.1606265902519, 0.1211570203304, -0.2305867671967, 0.0017930120230, -0.1329586803913, -0.1686886250973, -0.1513824760914, -0.2005799114704, -0.1641918122768, -0.1367641091347, -0.0790392905474, 0.0271762907505, -0.0666086077690, 0.0613761767745, -0.1810548603535, -0.1743955016136, -0.0251344591379, -0.0350594818592, 0.0007704704767, -0.0192842036486, -0.0979965329170, -0.1879470050335, 0.0729818195105, -0.2024414241314, -0.0037179654464, 0.2585704922676, -0.1191565245390, 0.0632222890854, -0.1096095740795, 0.2427881658077, 0.0945207327604, -0.1948059499264, -0.1421493589878, -0.1070156693459, 0.0149764958769, -0.1400830447674, -0.0107323173434, 0.0377225577831, 0.3438882827759, -0.2143885791302, 0.1672212183475, -0.0493258982897, 0.1161685883999, -0.1708718538284, -0.1346182823181, -0.1973389387131, 0.1627273857594, 0.0600309520960, 0.0158451125026, 0.0486895963550, 0.1723734140396, 0.2230098247528, -0.2009612917900, -0.3443980216980, 0.1803104281425, 0.0192148089409, -0.4434515237808, -0.0872168838978, -0.1033010482788, 0.6270697116852, -0.0273371078074, -0.2080346941948, 0.1076280325651, 0.1489880383015, 0.1320442259312, -0.0907065868378, 0.3009573221207, -0.1661302149296, -0.0695522576571, 0.0359171405435, 0.0427476689219, -0.0836689025164, 0.1686848104000, 0.1950657367706, -0.1151425689459, -0.1992788016796, -0.1508936882019, -0.2856567502022, 0.0543550476432, 0.1439492404461, 0.0000000000000, 0.0000000000000, 0.0000000000000, 0.0000000000000, 0.0000000000000, 0.0000000000000, 0.0000000000000, 0.0000000000000, 0.0000000000000, 0.0000000000000, 0.0000000000000, 0.0000000000000, 0.0000000000000, 0.0000000000000, 0.0000000000000, 0.0000000000000, 0.0000000000000, 0.0000000000000, 0.0000000000000, 0.0000000000000, 0.0000000000000, 0.0000000000000, 0.0000000000000, 0.0000000000000, 0.0000000000000, 0.0000000000000, 0.0000000000000, 0.0000000000000, 0.0000000000000, 0.0000000000000, 0.0000000000000, 0.0000000000000, 0.0000000000000, 0.0000000000000, 0.0000000000000, 0.0000000000000, 0.0000000000000, 0.0000000000000, 0.0000000000000, 0.0000000000000, 0.0000000000000, 0.0000000000000, 0.0000000000000, 0.0000000000000, 0.0000000000000, 0.0000000000000, 0.0000000000000, 0.0000000000000, 0.0000000000000, 0.0000000000000, 0.0000000000000, 0.0000000000000, 0.0000000000000, 0.0000000000000, 0.0000000000000, 0.0000000000000, 0.0000000000000, 0.0000000000000, 0.0000000000000, 0.0000000000000, 0.0000000000000, 0.0000000000000, 0.0000000000000, 0.0000000000000, 0.0000000000000, 0.0000000000000, 0.0000000000000, 0.0000000000000, 0.0000000000000, 0.0000000000000, 0.0000000000000, 0.0000000000000, 0.0000000000000, 0.0000000000000, 0.0000000000000, 0.0000000000000, 0.0000000000000, 0.0000000000000, 0.0000000000000, 0.0000000000000, 0.0000000000000, 0.0000000000000, 0.0000000000000, 0.0000000000000, 0.0000000000000, 0.0000000000000, 0.0000000000000, 0.0000000000000, 0.0000000000000, 0.0000000000000, 0.0000000000000, 0.0000000000000, 0.0000000000000, 0.0000000000000, 0.0000000000000, 0.0000000000000, 0.0000000000000, 0.0000000000000, 0.0000000000000, 0.0000000000000, 0.0000000000000, 0.0000000000000, 0.0000000000000, 0.0000000000000, 0.0000000000000, 0.0000000000000, 0.0000000000000, 0.0000000000000, 0.0000000000000, 0.0000000000000, 0.0000000000000, 0.0000000000000, 0.0000000000000, 0.0000000000000, 0.0000000000000, 0.0000000000000, 0.0000000000000, 0.0000000000000, 0.0000000000000, 0.0000000000000, 0.0000000000000, 0.0000000000000, 0.0000000000000, 0.0000000000000, 0.0000000000000, 0.0000000000000, 0.0000000000000, 0.0000000000000, 0.0000000000000, 0.0000000000000, 0.0000000000000, 0.0000000000000, 0.0000000000000, 0.0000000000000, 0.0000000000000, 0.0000000000000, 0.0000000000000, 0.0000000000000, 0.0000000000000, 0.0000000000000, 0.0000000000000, 0.0000000000000, 0.0000000000000, 0.0000000000000, 0.0000000000000, 0.0000000000000, 0.0000000000000, 0.0000000000000, 0.0000000000000, 0.0000000000000, 0.0000000000000, 0.0000000000000, 0.0000000000000, 0.0000000000000, 0.0000000000000, 0.0000000000000, 0.0000000000000, 0.0000000000000, 0.0000000000000, 0.0000000000000, 0.0000000000000, 0.0000000000000, 0.0000000000000, 0.0000000000000, 0.0000000000000, 0.0000000000000, 0.0000000000000, 0.0000000000000, 0.0000000000000, 0.0000000000000, 0.0000000000000, 0.0000000000000, 0.0000000000000, 0.0000000000000, 0.0000000000000, 0.0000000000000, 0.0000000000000, 0.0000000000000, 0.0000000000000, 0.0000000000000, 0.0000000000000, 0.0000000000000, 0.0000000000000, 0.0000000000000, 0.0000000000000, 0.0000000000000, 0.0000000000000, 0.0000000000000, 0.0000000000000, 0.0000000000000, 0.0000000000000, 0.0000000000000, 0.0000000000000, 0.0000000000000, 0.0000000000000, 0.0000000000000, 0.0000000000000, 0.0000000000000, 0.0000000000000, 0.0000000000000, 0.0000000000000, 0.0000000000000, 0.0000000000000, 0.0000000000000, 0.0000000000000, 0.0000000000000, 0.0000000000000, 0.0000000000000, 0.0000000000000, 0.0000000000000, 0.0000000000000, 0.0000000000000, 0.0000000000000, 0.0000000000000, 0.0000000000000, 0.0000000000000, 0.0000000000000, 0.0000000000000, 0.0000000000000, 0.0000000000000, 0.0000000000000, 0.0000000000000, 0.0000000000000, 0.0000000000000, 0.0000000000000, 0.0000000000000, 0.0000000000000, 0.0000000000000, 0.0000000000000, 0.0000000000000, 0.0000000000000, 0.0000000000000, 0.0000000000000, 0.0000000000000, 0.0000000000000, 0.0000000000000, 0.0000000000000, 0.0000000000000, 0.0000000000000, 0.0000000000000, 0.0000000000000, 0.0000000000000, 0.0000000000000, 0.0000000000000, 0.0000000000000, 0.0000000000000, 0.0000000000000, 0.0000000000000, 0.0000000000000, 0.0000000000000, 0.0000000000000, 0.0000000000000, 0.0000000000000, 0.0000000000000, 0.0000000000000, 0.0000000000000, 0.0000000000000, 0.0000000000000, 0.0000000000000, 0.0000000000000, 0.0000000000000, 0.0000000000000, 0.0000000000000, 0.0000000000000, 0.0000000000000, 0.0000000000000, 0.0000000000000, 0.0000000000000, 0.0000000000000, 0.0000000000000, 0.0000000000000, 0.0000000000000, 0.0000000000000, 0.0000000000000, 0.0000000000000, 0.0000000000000, 0.0000000000000, 0.0000000000000, 0.0000000000000, 0.0000000000000, 0.0000000000000, 0.0000000000000, 0.0000000000000, 0.0000000000000, 0.0000000000000, 0.0000000000000, 0.0000000000000, 0.0000000000000, 0.0000000000000, 0.0000000000000, 0.0000000000000, 0.0000000000000, 0.0000000000000, 0.0000000000000, 0.0000000000000, 0.0000000000000, 0.0000000000000, 0.0000000000000, 0.0000000000000, 0.0000000000000, 0.0000000000000, 0.0000000000000, 0.0000000000000, 0.0000000000000, 0.0000000000000, 0.0000000000000, 0.0000000000000, 0.0000000000000, 0.0000000000000, 0.0000000000000, 0.0000000000000, 0.0000000000000, 0.0000000000000, 0.0000000000000, 0.0000000000000, 0.0000000000000, 0.0000000000000, 0.0000000000000, 0.0000000000000, 0.0000000000000, 0.0000000000000, 0.0000000000000, 0.0000000000000, 0.0000000000000, 0.0000000000000, 0.0000000000000, 0.0000000000000, 0.0000000000000, 0.0000000000000, 0.0000000000000, 0.0000000000000, 0.0000000000000, 0.0000000000000, 0.0000000000000, 0.0000000000000, 0.0000000000000, 0.0000000000000, 0.0000000000000, 0.0000000000000, 0.0000000000000, 0.0000000000000, 0.0000000000000, 0.0000000000000, 0.0000000000000, 0.0000000000000, 0.0000000000000, 0.0000000000000, 0.0000000000000, 0.0000000000000, 0.0000000000000, 0.0000000000000, 0.0000000000000, 0.0000000000000, 0.0000000000000, 0.0000000000000, 0.0000000000000, 0.0000000000000, 0.0000000000000, 0.0000000000000, 0.0000000000000, 0.0000000000000, 0.0000000000000, 0.0000000000000, 0.0000000000000, 0.0000000000000, 0.0000000000000, 0.0000000000000, 0.0000000000000, 0.0000000000000, 0.0000000000000, 0.0000000000000, 0.0000000000000, 0.0000000000000, 0.0000000000000, 0.0000000000000, 0.0000000000000, 0.0000000000000, 0.0000000000000, 0.0000000000000, 0.0000000000000, 0.0000000000000, 0.0000000000000, 0.0000000000000, 0.0000000000000, 0.0000000000000, 0.0000000000000, 0.0000000000000, 0.0000000000000, 0.0000000000000, 0.0000000000000, 0.0000000000000, 0.0000000000000, 0.0000000000000, 0.0000000000000, 0.0000000000000, 0.0000000000000, 0.0000000000000, 0.0000000000000, 0.0000000000000, 0.0000000000000, 0.0000000000000, 0.0000000000000, 0.0000000000000, 0.0000000000000, 0.0000000000000, 0.0000000000000, 0.0000000000000, 0.0000000000000, 0.0000000000000, 0.0000000000000, 0.0000000000000, 0.0000000000000, 0.0000000000000, 0.0000000000000, 0.0000000000000, 0.0000000000000, 0.0000000000000, 0.0000000000000, 0.0000000000000, 0.0000000000000, 0.0000000000000, 0.0000000000000, 0.0000000000000, 0.0000000000000, 0.0000000000000, 0.0000000000000, 0.0000000000000, 0.0000000000000, 0.0000000000000, 0.0000000000000, 0.0000000000000, 0.0000000000000, 0.0000000000000, 0.0000000000000, 0.0000000000000, 0.0000000000000, 0.0000000000000, 0.0000000000000, 0.0000000000000, 0.0000000000000, 0.0000000000000, 0.0000000000000, 0.0000000000000, 0.0000000000000, 0.0000000000000, 0.0000000000000, 0.0000000000000, 0.0000000000000, 0.0000000000000, 0.0000000000000, 0.0000000000000, 0.0000000000000, 0.0000000000000, 0.0000000000000, 0.0000000000000, 0.0000000000000, 0.0000000000000, 0.0000000000000, 0.0000000000000, 0.0000000000000, 0.0000000000000, 0.0000000000000, 0.0000000000000, 0.0000000000000, 0.0000000000000, 0.0000000000000, 0.0000000000000, 0.0000000000000, 0.0000000000000, 0.0000000000000, 0.0000000000000, 0.0000000000000, 0.0000000000000, 0.0000000000000, 0.0000000000000, 0.0000000000000, 0.0000000000000, 0.0000000000000, 0.0000000000000, 0.0000000000000, 0.0000000000000, 0.0000000000000, 0.0000000000000, 0.0000000000000, 0.0000000000000, 0.0000000000000, 0.0000000000000, 0.0000000000000, 0.0000000000000, 0.0000000000000, 0.0000000000000, 0.0000000000000, 0.0000000000000, 0.0000000000000, 0.0000000000000, 0.0000000000000, 0.0000000000000, 0.0000000000000, 0.0000000000000, 0.0000000000000, 0.0000000000000, 0.0000000000000, 0.0000000000000, 0.0000000000000, 0.0000000000000, 0.0000000000000, 0.0000000000000, 0.0000000000000, 0.0000000000000, 0.0000000000000, 0.0000000000000, 0.0000000000000, 0.0000000000000, 0.0000000000000, 0.0000000000000, 0.0000000000000, 0.0000000000000, 0.0000000000000, 0.0000000000000, 0.0000000000000, 0.0000000000000, 0.0000000000000, 0.0000000000000, 0.0000000000000, 0.0000000000000, 0.0000000000000, 0.0000000000000, 0.0000000000000};

#endif
