//Numpy array shape [56, 7]
//Min -0.952921986580
//Max 0.576492190361
//Number of zeros 0

#ifndef W8_H_
#define W8_H_

#ifdef __INTELFPGA_COMPILER__
//hls_init_on_powerup
#endif
static model_default_t w8[392] = {0.1695853471756, 0.0692703276873, 0.1622969210148, 0.2746093273163, 0.0922463908792, 0.0272828899324, -0.2162224054337, -0.2942706346512, -0.2579244375229, 0.1447897851467, -0.2361552119255, 0.2423394024372, 0.4291487336159, -0.0049274861813, 0.1214078962803, 0.2615609169006, 0.0247361026704, -0.1736803352833, -0.1393650174141, -0.9529219865799, -0.1213171035051, -0.1323021352291, -0.1955251097679, 0.0734214633703, -0.0583025738597, -0.1480334103107, -0.0863943845034, 0.0406304523349, 0.1869343817234, -0.1810732185841, -0.1497928500175, -0.1406242251396, -0.3532750904560, 0.2785716950893, 0.0122550185770, -0.0678953975439, -0.3081838488579, 0.2093330025673, -0.0978899300098, -0.0727317035198, 0.1665118932724, 0.1243375986814, 0.3376072049141, 0.1881400346756, -0.0776113420725, 0.1438596546650, 0.0890251547098, -0.0456964224577, 0.0642969310284, -0.2008608579636, 0.3193630576134, 0.1123347878456, -0.3702623248100, -0.2698730230331, -0.0830494612455, 0.0181409977376, -0.2129411995411, -0.2562032341957, 0.1650196611881, -0.1439878046513, 0.0377700366080, -0.1898092925549, -0.1909252405167, -0.3001673817635, -0.1241343915462, -0.2448159754276, -0.1179245412350, 0.0909993350506, 0.2607603073120, -0.1951000690460, -0.1393890678883, 0.2356379330158, 0.0606132745743, 0.3627473711967, -0.0553279817104, -0.2894904613495, 0.3301711082458, 0.0164811387658, -0.0617133229971, -0.0887385606766, 0.1530800163746, 0.0548107996583, -0.2362433969975, 0.4163574874401, 0.2182635664940, -0.0667421966791, -0.2601478695869, 0.1361597478390, -0.2423886954784, 0.2228503823280, -0.2863119244576, -0.2182171940804, -0.0909857898951, -0.0296212621033, 0.2208389639854, -0.1835721135139, 0.1195800304413, -0.0136985536665, 0.2473574876785, -0.0848758220673, -0.1234562844038, -0.2111687064171, 0.0538834109902, -0.0487534105778, 0.4079906940460, -0.1664493978024, 0.1107084155083, -0.1882508099079, 0.2533592581749, -0.3306051492691, -0.1585868895054, -0.1342555880547, 0.1395434141159, -0.0988247841597, -0.2286471724510, -0.1269952952862, -0.1348421275616, -0.2421243190765, -0.1749839484692, -0.0345973111689, 0.1628282666206, -0.2517523765564, -0.1487242281437, -0.0778784155846, 0.3390450477600, 0.1174374222755, -0.0423576608300, 0.0189152993262, -0.2403283119202, 0.0986978411674, 0.0512986853719, -0.5646666288376, 0.2274654209614, -0.0001149562886, 0.1379514932632, -0.0029865312390, 0.1921784877777, 0.2963446974754, 0.0095327515155, -0.4636917412281, 0.0220462754369, -0.1284405291080, -0.3306770324707, 0.0707841664553, -0.3859232068062, 0.1715649664402, -0.1521337330341, 0.1118179857731, 0.3079411983490, 0.1817705929279, -0.1823485493660, 0.0294994357973, -0.2217781841755, -0.2215120494366, 0.4043736457825, -0.0413552895188, 0.2203976809978, 0.1813886463642, 0.4170446991920, 0.0764798969030, 0.2398184835911, -0.0349531844258, -0.0286801345646, 0.2770373225212, 0.1451186537743, -0.3202195763588, -0.2380359768867, 0.3748064637184, -0.1577873528004, -0.0344627648592, 0.0880728214979, 0.1206643581390, 0.1064597964287, -0.0749125033617, 0.2933834195137, -0.2439041137695, -0.2493144571781, -0.1462281644344, 0.2214244902134, 0.2420180141926, 0.1521268785000, -0.0719722807407, 0.2468712031841, 0.0696570128202, -0.1907664835453, 0.0056653087959, 0.0274666659534, -0.4484137296677, 0.3082866072655, -0.0414291769266, 0.1760742068291, -0.1985351741314, 0.1051510274410, -0.4523461461067, 0.3451201319695, -0.5048671960831, 0.0320957526565, -0.2382071614265, -0.2879645228386, -0.0396752208471, -0.2770169377327, 0.2001954019070, -0.2231596112251, 0.1856856048107, -0.4415000677109, -0.2279892563820, -0.0648850053549, -0.1591177284718, 0.0660387426615, -0.0312574058771, 0.3182525634766, -0.0584708452225, 0.1186186820269, 0.0202378071845, 0.1657643616199, 0.0286720767617, -0.1876077950001, -0.0967801064253, -0.0451066866517, -0.0622641295195, 0.0711883157492, -0.2379875481129, 0.1270906031132, -0.0400380417705, -0.0852027237415, -0.3419418334961, 0.2414280176163, 0.0932090729475, 0.2086026966572, -0.2955507040024, -0.0226888582110, -0.3025137186050, -0.0936574786901, 0.2462179064751, -0.1272830963135, 0.1340081095695, 0.2091828286648, -0.5056842565536, -0.0014238671865, 0.1001884490252, -0.1832633912563, 0.2643100619316, -0.0391365438700, -0.5408276319504, 0.2037842869759, -0.2450019419193, 0.2112824022770, -0.2662546634674, 0.2894555926323, -0.5066411495209, 0.2155077755451, -0.4511536359787, -0.2509590983391, -0.0375873222947, -0.2036226391792, -0.1976609528065, -0.2824449539185, 0.2066060304642, -0.2237499952316, -0.2729366421700, -0.3365004658699, 0.1650563180447, -0.1948936879635, -0.0451521910727, 0.2227518856525, 0.0966459810734, 0.1642149388790, 0.2146252989769, -0.0946140587330, 0.1090397536755, 0.0431416854262, -0.0090880254284, -0.0025740638375, -0.0086065344512, 0.2264608740807, -0.2861605882645, -0.4634073376656, -0.2253689020872, -0.1264489889145, 0.5455511808395, 0.2622191905975, -0.2026735246181, 0.1434553563595, 0.2956304550171, 0.2439161837101, 0.1830729842186, 0.1058632209897, -0.4530311226845, -0.2818183302879, 0.0863478928804, -0.3287296891212, 0.0921916216612, 0.5650397539139, -0.1137073338032, 0.0532054752111, 0.3482848405838, -0.2123321890831, -0.0859500169754, 0.2471157312393, -0.3965891599655, -0.1511980593204, -0.0522507131100, 0.1311736404896, 0.2202196419239, -0.2520585656166, -0.1979814171791, -0.1469305753708, -0.7344546318054, -0.2394911944866, 0.0622955262661, -0.1361844837666, -0.2181738317013, -0.1492581367493, 0.3186594843864, 0.0842871516943, 0.2106385827065, -0.3531395792961, 0.0958913564682, -0.3332092165947, -0.4354813694954, 0.1318774223328, 0.0181633196771, 0.1680476665497, 0.1888647973537, -0.0763964653015, -0.0950672030449, 0.0477615147829, -0.2343973070383, 0.2333458065987, 0.1403489708900, -0.0582529753447, 0.0563108474016, -0.1719724833965, -0.2582964897156, 0.1127491742373, 0.1284440159798, 0.1339761316776, 0.2299510836601, -0.1774543225765, 0.2442770898342, 0.2138037234545, 0.1853650808334, 0.1264892816544, -0.2656716704369, -0.1925397217274, 0.1090447604656, -0.2362159490585, 0.0431245192885, 0.0726882368326, -0.0670418888330, 0.1816751956940, 0.2777702212334, 0.1278822422028, 0.1566433906555, 0.0510234162211, -0.2461766302586, -0.2261474132538, 0.2371226847172, 0.0329886376858, -0.0617570355535, -0.0288857072592, -0.4555640220642, 0.2114419341087, 0.5764921903610, -0.0785701721907, 0.2907918095589, -0.1854832172394, -0.0856808125973, -0.2868610322475, 0.2165570110083, 0.0161191597581, 0.1382099986076, 0.2224832177162, 0.1664175689220, -0.0765377283096, -0.1609205305576, 0.1001147776842, -0.1073668748140, 0.0679460465908, -0.2091649174690, 0.0541002824903, -0.1030118465424, -0.2669277787209, -0.0572235435247, 0.2649040818214, 0.3086649179459, 0.2698066234589, 0.1642798483372, -0.3132137060165, -0.2638922631741, -0.1882380247116, -0.3605681657791};

#endif
